{"learner":{"attributes":{"best_iteration":"94","best_score":"0.7492923657160151"},"feature_names":["Age","Income","LoanAmount","CreditScore","MonthsEmployed","NumCreditLines","InterestRate","LoanTerm","DTIRatio","HasMortgage","HasDependents","HasCoSigner","Education_Bachelor's","Education_High_School","Education_Master's","Education_PhD","EmploymentType_Full-time","EmploymentType_Part-time","EmploymentType_Self-employed","EmploymentType_Unemployed","MaritalStatus_Divorced","MaritalStatus_Married","MaritalStatus_Single","LoanPurpose_Auto","LoanPurpose_Business","LoanPurpose_Education","LoanPurpose_Home","LoanPurpose_Other","high_dti_low_credit","stable_homeowner"],"feature_types":["int","int","int","int","int","int","float","int","float","int","int","int","int","int","int","int","int","int","int","int","int","int","int","int","int","int","int","int","int","int"],"gradient_booster":{"model":{"cats":{"enc":[],"feature_segments":[],"sorted_idx":[]},"gbtree_model_param":{"num_parallel_tree":"1","num_trees":"115"},"iteration_indptr":[0,1,2,3,4,5,6,7,8,9,10,11,12,13,14,15,16,17,18,19,20,21,22,23,24,25,26,27,28,29,30,31,32,33,34,35,36,37,38,39,40,41,42,43,44,45,46,47,48,49,50,51,52,53,54,55,56,57,58,59,60,61,62,63,64,65,66,67,68,69,70,71,72,73,74,75,76,77,78,79,80,81,82,83,84,85,86,87,88,89,90,91,92,93,94,95,96,97,98,99,100,101,102,103,104,105,106,107,108,109,110,111,112,113,114,115],"tree_info":[0,0,0,0,0,0,0,0,0,0,0,0,0,0,0,0,0,0,0,0,0,0,0,0,0,0,0,0,0,0,0,0,0,0,0,0,0,0,0,0,0,0,0,0,0,0,0,0,0,0,0,0,0,0,0,0,0,0,0,0,0,0,0,0,0,0,0,0,0,0,0,0,0,0,0,0,0,0,0,0,0,0,0,0,0,0,0,0,0,0,0,0,0,0,0,0,0,0,0,0,0,0,0,0,0,0,0,0,0,0,0,0,0,0,0],"trees":[{"base_weights":[-2.139607E-4,4.7808406E-1,-4.6395457E-1,-4.9469665E-2,7.0730406E-1,3.2977957E-1,-6.127359E-1,6.755789E-1,-2.26646E-1,1.1752127E0,5.603685E-1,3.4268774E-2,7.2335935E-1,-9.9911016E-1,-3.2996073E-1,8.234846E-1,3.9339805E-1,1.414935E-1,-5.36083E-1,1.3243629E0,8.723831E-1,7.40544E-1,1.7064524E-1,2.4608386E-1,-6.015116E-1,1.0210522E0,3.067514E-1,-7.5270456E-1,-1.2150421E0,-3.062335E-2,-6.4609796E-1,9.5748425E-1,3.854982E-1,6.9995606E-1,1.5233675E-1,-2.4635004E-1,2.4284911E-1,-2.887261E-1,-7.0991236E-1,1.4456601E0,1.1066967E0,1.4026707E0,7.1253794E-1,5.109039E-1,9.4694513E-1,-2.3949754E-1,3.4424904E-1,3.823643E-1,-5.2977383E-1,-3.5055992E-1,-1.1803714E0,1.2586968E0,8.531022E-1,6.259098E-1,-2.3390664E-2,-4.636751E-1,-1.026651E0,-1.0730143E0,-1.4609004E0,2.513786E-1,-3.187558E-1,-4.133506E-1,-9.4437045E-1,3.40974E-2,6.0917325E-2,3.6168057E-2,-2.6337134E-3,4.7616865E-2,-1.0528333E-2,-3.3578973E-3,3.230558E-2,-2.08883E-2,1.7019121E-2,9.670778E-3,5.475976E-2,-7.3261843E-3,-3.385436E-2,-6.0676362E-2,-3.1590085E-2,5.4437935E-2,7.670869E-2,6.1522897E-2,2.8055368E-2,7.565917E-2,3.333133E-2,2.677601E-2,5.0175715E-2,3.9715182E-2,1.5135367E-2,5.5527575E-2,3.848785E-2,-4.058675E-3,-2.6116876E-2,2.4689112E-2,-9.736747E-3,2.9481044E-2,1.5283822E-3,-4.6220668E-2,8.569304E-3,7.4052378E-3,-3.1553008E-2,-7.500211E-2,-3.8711786E-2,3.5133004E-2,7.129409E-2,4.818719E-2,1.3511382E-2,-2.0861626E-6,3.8677033E-2,8.5692275E-3,-2.0932382E-2,-3.7956033E-2,-1.2775545E-2,-3.700012E-2,-5.7464935E-2,-4.3066174E-2,-5.9972703E-2,-6.278001E-2,-7.6899186E-2,5.1453165E-3,2.5539925E-2,-7.6125967E-3,-2.7707873E-2,-3.491604E-2,-1.1683543E-2,-3.4806162E-2,-5.6631036E-2],"categories":[],"categories_nodes":[],"categories_segments":[],"categories_sizes":[],"default_left":[0,0,0,0,0,0,0,0,0,0,0,0,0,0,0,0,0,0,0,0,0,0,0,0,0,0,0,0,0,0,0,0,0,0,0,0,0,0,0,0,0,0,0,0,0,0,0,0,0,0,0,0,0,0,0,0,0,0,0,0,0,0,0,0,0,0,0,0,0,0,0,0,0,0,0,0,0,0,0,0,0,0,0,0,0,0,0,0,0,0,0,0,0,0,0,0,0,0,0,0,0,0,0,0,0,0,0,0,0,0,0,0,0,0,0,0,0,0,0,0,0,0,0,0,0,0,0],"id":0,"left_children":[1,3,5,7,9,11,13,15,17,19,21,23,25,27,29,31,33,35,37,39,41,43,45,47,49,51,53,55,57,59,61,63,65,67,69,71,73,75,77,79,81,83,85,87,89,91,93,95,97,99,101,103,105,107,109,111,113,115,117,119,121,123,125,-1,-1,-1,-1,-1,-1,-1,-1,-1,-1,-1,-1,-1,-1,-1,-1,-1,-1,-1,-1,-1,-1,-1,-1,-1,-1,-1,-1,-1,-1,-1,-1,-1,-1,-1,-1,-1,-1,-1,-1,-1,-1,-1,-1,-1,-1,-1,-1,-1,-1,-1,-1,-1,-1,-1,-1,-1,-1,-1,-1,-1,-1,-1,-1],"loss_changes":[1.9700273E3,5.28753E2,5.327419E2,1.7039667E2,2.088988E2,8.2843994E1,4.1462866E2,1.0548302E1,1.214818E2,3.1703796E1,1.6288617E2,5.5092514E1,3.7575287E1,8.445569E1,2.0764946E2,9.6082E0,6.655154E0,1.922351E1,2.4701569E1,1.1218384E1,1.9598175E1,7.47486E1,5.2433968E1,3.2636536E1,1.4439644E1,6.020645E0,1.3580722E1,5.9066284E1,2.8235596E1,9.175485E1,7.370044E1,8.477219E0,6.1818542E0,9.392485E0,5.733392E0,1.0350594E1,1.6094223E1,1.3196421E1,1.258844E1,8.075317E0,1.1328613E1,3.4854279E0,9.184731E0,4.42182E1,2.334375E1,9.775696E0,4.176428E1,1.9048504E1,1.2956054E1,1.0269408E1,2.7984238E0,5.6447983E0,6.656128E0,6.0528717E0,5.018117E0,2.2423096E1,1.2693634E1,1.35477295E1,2.9708252E0,2.1930824E1,2.1806194E1,3.0622849E1,2.1035675E1,0E0,0E0,0E0,0E0,0E0,0E0,0E0,0E0,0E0,0E0,0E0,0E0,0E0,0E0,0E0,0E0,0E0,0E0,0E0,0E0,0E0,0E0,0E0,0E0,0E0,0E0,0E0,0E0,0E0,0E0,0E0,0E0,0E0,0E0,0E0,0E0,0E0,0E0,0E0,0E0,0E0,0E0,0E0,0E0,0E0,0E0,0E0,0E0,0E0,0E0,0E0,0E0,0E0,0E0,0E0,0E0,0E0,0E0,0E0,0E0,0E0,0E0,0E0,0E0],"parents":[2147483647,0,0,1,1,2,2,3,3,4,4,5,5,6,6,7,7,8,8,9,9,10,10,11,11,12,12,13,13,14,14,15,15,16,16,17,17,18,18,19,19,20,20,21,21,22,22,23,23,24,24,25,25,26,26,27,27,28,28,29,29,30,30,31,31,32,32,33,33,34,34,35,35,36,36,37,37,38,38,39,39,40,40,41,41,42,42,43,43,44,44,45,45,46,46,47,47,48,48,49,49,50,50,51,51,52,52,53,53,54,54,55,55,56,56,57,57,58,58,59,59,60,60,61,61,62,62],"right_children":[2,4,6,8,10,12,14,16,18,20,22,24,26,28,30,32,34,36,38,40,42,44,46,48,50,52,54,56,58,60,62,64,66,68,70,72,74,76,78,80,82,84,86,88,90,92,94,96,98,100,102,104,106,108,110,112,114,116,118,120,122,124,126,-1,-1,-1,-1,-1,-1,-1,-1,-1,-1,-1,-1,-1,-1,-1,-1,-1,-1,-1,-1,-1,-1,-1,-1,-1,-1,-1,-1,-1,-1,-1,-1,-1,-1,-1,-1,-1,-1,-1,-1,-1,-1,-1,-1,-1,-1,-1,-1,-1,-1,-1,-1,-1,-1,-1,-1,-1,-1,-1,-1,-1,-1,-1,-1],"split_conditions":[3.9E1,1.073E1,3.1208E4,3.4866E4,3.8675E4,1.653E1,1.276E1,7.2E1,4.8E1,7.3E1,7.5E1,8.6E1,5.5E1,5.4E1,5.7E1,2.9434E4,2.2813E4,4.09E0,2.6E1,2.8973E4,1.9318E4,1.829E1,1.574E1,6.4E1,2.6275E4,2.0467E4,2.2813E4,5.3E1,5.8E1,5.3E1,5.5E1,3E0,1E0,7.58E2,6.52E2,1E0,8.6E-1,9.9E1,3.17E0,2.8E-1,1E0,7.41E2,2.053E1,2.6E1,2.8E1,1E0,3.4E1,2.3935E4,1E0,4.8E1,2.8507E4,1.854E1,1E0,2.5E-1,1E0,6.79E0,6.7976E4,7.8E1,6.6211E4,2.112E1,9.9456E4,1.786E1,8.3E1,3.40974E-2,6.0917325E-2,3.6168057E-2,-2.6337134E-3,4.7616865E-2,-1.0528333E-2,-3.3578973E-3,3.230558E-2,-2.08883E-2,1.7019121E-2,9.670778E-3,5.475976E-2,-7.3261843E-3,-3.385436E-2,-6.0676362E-2,-3.1590085E-2,5.4437935E-2,7.670869E-2,6.1522897E-2,2.8055368E-2,7.565917E-2,3.333133E-2,2.677601E-2,5.0175715E-2,3.9715182E-2,1.5135367E-2,5.5527575E-2,3.848785E-2,-4.058675E-3,-2.6116876E-2,2.4689112E-2,-9.736747E-3,2.9481044E-2,1.5283822E-3,-4.6220668E-2,8.569304E-3,7.4052378E-3,-3.1553008E-2,-7.500211E-2,-3.8711786E-2,3.5133004E-2,7.129409E-2,4.818719E-2,1.3511382E-2,-2.0861626E-6,3.8677033E-2,8.5692275E-3,-2.0932382E-2,-3.7956033E-2,-1.2775545E-2,-3.700012E-2,-5.7464935E-2,-4.3066174E-2,-5.9972703E-2,-6.278001E-2,-7.6899186E-2,5.1453165E-3,2.5539925E-2,-7.6125967E-3,-2.7707873E-2,-3.491604E-2,-1.1683543E-2,-3.4806162E-2,-5.6631036E-2],"split_indices":[0,6,1,1,1,6,6,4,4,4,4,4,0,4,4,1,1,6,0,1,1,6,6,0,1,1,1,0,0,0,0,5,11,3,3,24,8,4,6,8,16,3,6,0,0,21,0,1,20,0,1,6,23,8,21,6,1,4,1,6,1,6,4,0,0,0,0,0,0,0,0,0,0,0,0,0,0,0,0,0,0,0,0,0,0,0,0,0,0,0,0,0,0,0,0,0,0,0,0,0,0,0,0,0,0,0,0,0,0,0,0,0,0,0,0,0,0,0,0,0,0,0,0,0,0,0,0],"split_type":[0,0,0,0,0,0,0,0,0,0,0,0,0,0,0,0,0,0,0,0,0,0,0,0,0,0,0,0,0,0,0,0,0,0,0,0,0,0,0,0,0,0,0,0,0,0,0,0,0,0,0,0,0,0,0,0,0,0,0,0,0,0,0,0,0,0,0,0,0,0,0,0,0,0,0,0,0,0,0,0,0,0,0,0,0,0,0,0,0,0,0,0,0,0,0,0,0,0,0,0,0,0,0,0,0,0,0,0,0,0,0,0,0,0,0,0,0,0,0,0,0,0,0,0,0,0,0],"sum_hessian":[8.87975E3,4.37125E3,4.5085E3,1.32425E3,3.047E3,7.115E2,3.797E3,2.595E2,1.06475E3,7.265E2,2.3205E3,4.07E2,3.045E2,1.6035E3,2.1935E3,1.69E2,9.05E1,4.865E2,5.7825E2,4.845E2,2.42E2,1.58625E3,7.3425E2,3.0575E2,1.0125E2,1.7675E2,1.2775E2,7.51E2,8.525E2,1.12725E3,1.06625E3,1.285E2,4.05E1,3.9E1,5.15E1,1.005E2,3.86E2,2.3975E2,3.385E2,3.075E2,1.77E2,5.425E1,1.8775E2,7.525E2,8.3375E2,2.1825E2,5.16E2,2.605E2,4.525E1,7.175E1,2.95E1,7.05E1,1.0625E2,6.45E1,6.325E1,3.6675E2,3.8425E2,5.4375E2,3.0875E2,5.6975E2,5.575E2,6.0025E2,4.66E2,6.425E1,6.425E1,2.25E1,1.8E1,3.05E1,8.5E0,3.625E1,1.525E1,7.8E1,2.25E1,3.66E2,2E1,1.765E2,6.325E1,4.35E1,2.95E2,6.375E1,2.4375E2,1.4325E2,3.375E1,4.625E1,8E0,1.185E2,6.925E1,3.175E2,4.35E2,4.3075E2,4.03E2,1.4075E2,7.75E1,4.04E2,1.12E2,1.635E2,9.7E1,2.875E1,1.65E1,2.6E1,4.575E1,1.5E1,1.45E1,1.75E1,5.3E1,8.875E1,1.75E1,1.25E1,5.2E1,4.275E1,2.05E1,1.505E2,2.1625E2,1.1725E2,2.67E2,2.0625E2,3.375E2,8.9E1,2.1975E2,3.6325E2,2.065E2,3.275E2,2.3E2,2.31E2,3.6925E2,2.03E2,2.63E2],"tree_param":{"num_deleted":"0","num_feature":"30","num_nodes":"127","size_leaf_vector":"1"}},{"base_weights":[-1.1855762E-3,3.9035368E-1,-5.2039707E-1,-5.0921973E-2,6.5102535E-1,1.21908344E-1,-6.8935144E-1,6.8863285E-1,-1.9385895E-1,1.0073334E0,4.8580924E-1,-6.5090406E-1,3.8547507E-1,-1.0485276E0,-4.2229965E-1,1.6126715E-1,1.1086364E0,8.323418E-2,-5.543094E-1,6.41647E-1,1.2358352E0,6.675081E-1,1.4328687E-1,-9.8062545E-1,-2.4837965E-1,8.4864473E-1,1.4422637E-1,-8.3077675E-1,-1.2368442E0,-8.055971E-2,-6.8703264E-1,-1.5606986E-1,4.856155E-1,1.4081849E0,8.523084E-1,3.1818086E-1,-1.807756E-1,-3.829619E-1,-8.4312063E-1,8.4375787E-1,3.6964053E-1,1.4579043E0,1.0182346E0,3.9084885E-1,8.3904743E-1,4.216448E-1,-2.1606562E-1,-6.2310386E-1,-1.2053204E0,5.4818857E-2,-3.3341178E-1,4.6197182E-1,1.1947697E0,4.3680698E-1,-3.0763853E-1,-5.419607E-1,-1.0176318E0,-1.3524343E0,-1.0506293E0,2.563088E-1,-2.8411603E-1,-5.191055E-1,-9.631982E-1,-3.544587E-2,4.2233807E-3,3.0646471E-2,-2.3678835E-2,3.1627964E-2,7.446242E-2,4.9031835E-2,1.4256365E-2,2.9486504E-3,3.108937E-2,-1.3175844E-2,1.1211539E-2,-3.333564E-2,-8.58439E-3,-5.292532E-2,-2.7675597E-2,2.290198E-2,5.2004974E-2,1.311358E-2,4.8317805E-2,7.9708755E-2,5.811734E-2,4.283976E-2,6.775373E-2,3.0351872E-2,8.8679476E-4,4.5628067E-2,2.3564488E-2,6.245534E-3,2.7785493E-2,-2.8219065E-3,-2.9525151E-2,-4.792499E-2,-1.4000904E-3,-2.8211473E-2,-6.742824E-2,-2.3133539E-4,-3.5295364E-2,4.0899027E-2,4.2496514E-4,3.9342877E-2,6.8431884E-2,-1.3654404E-4,3.486589E-2,-2.1537324E-2,3.1828847E-2,-4.159482E-2,-1.728165E-2,-5.980742E-2,-4.2230796E-2,-5.780226E-2,-7.37441E-2,-4.7550328E-2,-6.854401E-2,-5.913831E-3,2.061382E-2,-8.08747E-3,-3.130421E-2,-1.4226632E-2,-3.440845E-2,-6.1630096E-2,-4.0464267E-2],"categories":[],"categories_nodes":[],"categories_segments":[],"categories_sizes":[],"default_left":[0,0,0,0,0,0,0,0,0,0,0,0,0,0,0,0,0,0,0,0,0,0,0,0,0,0,0,0,0,0,0,0,0,0,0,0,0,0,0,0,0,0,0,0,0,0,0,0,0,0,0,0,0,0,0,0,0,0,0,0,0,0,0,0,0,0,0,0,0,0,0,0,0,0,0,0,0,0,0,0,0,0,0,0,0,0,0,0,0,0,0,0,0,0,0,0,0,0,0,0,0,0,0,0,0,0,0,0,0,0,0,0,0,0,0,0,0,0,0,0,0,0,0,0,0],"id":1,"left_children":[1,3,5,7,9,11,13,15,17,19,21,23,25,27,29,31,33,35,37,39,41,43,45,47,49,51,53,55,57,59,61,63,65,67,69,71,73,75,77,79,81,83,85,87,89,91,93,95,97,-1,99,101,103,105,107,109,111,113,115,117,119,121,123,-1,-1,-1,-1,-1,-1,-1,-1,-1,-1,-1,-1,-1,-1,-1,-1,-1,-1,-1,-1,-1,-1,-1,-1,-1,-1,-1,-1,-1,-1,-1,-1,-1,-1,-1,-1,-1,-1,-1,-1,-1,-1,-1,-1,-1,-1,-1,-1,-1,-1,-1,-1,-1,-1,-1,-1,-1,-1,-1,-1,-1,-1],"loss_changes":[1.8065581E3,5.8278143E2,4.146742E2,1.9910715E2,1.8699744E2,1.6248631E2,2.8970154E2,6.7397156E1,1.5767162E2,8.343732E1,1.3544519E2,2.6689713E1,6.631314E1,5.18407E1,1.5705649E2,1.4117973E1,1.1826889E1,5.545666E1,3.362755E1,2.111345E1,2.8441284E1,6.719153E1,7.572613E1,8.183212E0,1.0967486E1,2.6673172E1,5.1978E1,3.1880219E1,1.3416504E1,5.213176E1,4.4875458E1,9.33074E0,8.559118E0,3.8805847E0,6.5592957E0,3.7182194E1,1.4173491E1,2.5808674E1,1.5297211E1,1.6397598E1,1.0504665E1,1.0398315E1,1.602884E1,4.4062653E1,2.3288818E1,1.6894424E1,1.973341E1,8.953201E0,5.412407E0,0E0,1.0770459E1,1.5767744E1,6.491043E0,2.730376E1,1.8257172E1,1.3271973E1,1.0224518E1,8.439026E0,7.2622375E0,1.6785955E1,1.9721264E1,2.4020035E1,1.4295074E1,0E0,0E0,0E0,0E0,0E0,0E0,0E0,0E0,0E0,0E0,0E0,0E0,0E0,0E0,0E0,0E0,0E0,0E0,0E0,0E0,0E0,0E0,0E0,0E0,0E0,0E0,0E0,0E0,0E0,0E0,0E0,0E0,0E0,0E0,0E0,0E0,0E0,0E0,0E0,0E0,0E0,0E0,0E0,0E0,0E0,0E0,0E0,0E0,0E0,0E0,0E0,0E0,0E0,0E0,0E0,0E0,0E0,0E0,0E0,0E0,0E0,0E0],"parents":[2147483647,0,0,1,1,2,2,3,3,4,4,5,5,6,6,7,7,8,8,9,9,10,10,11,11,12,12,13,13,14,14,15,15,16,16,17,17,18,18,19,19,20,20,21,21,22,22,23,23,24,24,25,25,26,26,27,27,28,28,29,29,30,30,31,31,32,32,33,33,34,34,35,35,36,36,37,37,38,38,39,39,40,40,41,41,42,42,43,43,44,44,45,45,46,46,47,47,48,48,50,50,51,51,52,52,53,53,54,54,55,55,56,56,57,57,58,58,59,59,60,60,61,61,62,62],"right_children":[2,4,6,8,10,12,14,16,18,20,22,24,26,28,30,32,34,36,38,40,42,44,46,48,50,52,54,56,58,60,62,64,66,68,70,72,74,76,78,80,82,84,86,88,90,92,94,96,98,-1,100,102,104,106,108,110,112,114,116,118,120,122,124,-1,-1,-1,-1,-1,-1,-1,-1,-1,-1,-1,-1,-1,-1,-1,-1,-1,-1,-1,-1,-1,-1,-1,-1,-1,-1,-1,-1,-1,-1,-1,-1,-1,-1,-1,-1,-1,-1,-1,-1,-1,-1,-1,-1,-1,-1,-1,-1,-1,-1,-1,-1,-1,-1,-1,-1,-1,-1,-1,-1,-1,-1],"split_conditions":[4.3E1,1.237E1,3.7135E4,3.1208E4,4.9197E4,9.0195E4,1.276E1,1.4571E5,6.1E1,1.25235E5,3.3E1,1.538E1,2.1279E4,5.4E1,4.7E1,9.0195E4,4.8E1,3E1,3.3E1,6E1,2.8973E4,1.778E1,6.2E1,4.5E1,4.4E1,1.83613E5,5.8E1,5.3E1,1.59063E5,5.2E1,5.9E1,5.39E0,3.9E1,3.4E0,3.8E1,7.97E0,2.14511E5,6.79E0,1.53295E5,3.9E-1,2.325E1,7.5E1,2.126E1,6.7E1,9.4E1,1.702E1,1.02E2,5.9826E4,4.8E1,5.4818857E-2,6.01E2,5.6E1,1.005E1,1.276E1,2.268E1,6.79E0,1.30103E5,5.3E1,7.12E2,8.2091E4,6.5E1,7.6E1,9.1227E4,-3.544587E-2,4.2233807E-3,3.0646471E-2,-2.3678835E-2,3.1627964E-2,7.446242E-2,4.9031835E-2,1.4256365E-2,2.9486504E-3,3.108937E-2,-1.3175844E-2,1.1211539E-2,-3.333564E-2,-8.58439E-3,-5.292532E-2,-2.7675597E-2,2.290198E-2,5.2004974E-2,1.311358E-2,4.8317805E-2,7.9708755E-2,5.811734E-2,4.283976E-2,6.775373E-2,3.0351872E-2,8.8679476E-4,4.5628067E-2,2.3564488E-2,6.245534E-3,2.7785493E-2,-2.8219065E-3,-2.9525151E-2,-4.792499E-2,-1.4000904E-3,-2.8211473E-2,-6.742824E-2,-2.3133539E-4,-3.5295364E-2,4.0899027E-2,4.2496514E-4,3.9342877E-2,6.8431884E-2,-1.3654404E-4,3.486589E-2,-2.1537324E-2,3.1828847E-2,-4.159482E-2,-1.728165E-2,-5.980742E-2,-4.2230796E-2,-5.780226E-2,-7.37441E-2,-4.7550328E-2,-6.854401E-2,-5.913831E-3,2.061382E-2,-8.08747E-3,-3.130421E-2,-1.4226632E-2,-3.440845E-2,-6.1630096E-2,-4.0464267E-2],"split_indices":[0,6,1,1,1,2,6,2,4,2,0,6,1,4,4,2,4,0,0,4,1,6,4,4,0,2,0,0,2,0,0,6,0,6,0,6,2,6,2,8,6,4,6,4,4,6,4,2,0,0,3,4,6,6,6,6,2,0,3,2,0,4,2,0,0,0,0,0,0,0,0,0,0,0,0,0,0,0,0,0,0,0,0,0,0,0,0,0,0,0,0,0,0,0,0,0,0,0,0,0,0,0,0,0,0,0,0,0,0,0,0,0,0,0,0,0,0,0,0,0,0,0,0,0,0],"split_type":[0,0,0,0,0,0,0,0,0,0,0,0,0,0,0,0,0,0,0,0,0,0,0,0,0,0,0,0,0,0,0,0,0,0,0,0,0,0,0,0,0,0,0,0,0,0,0,0,0,0,0,0,0,0,0,0,0,0,0,0,0,0,0,0,0,0,0,0,0,0,0,0,0,0,0,0,0,0,0,0,0,0,0,0,0,0,0,0,0,0,0,0,0,0,0,0,0,0,0,0,0,0,0,0,0,0,0,0,0,0,0,0,0,0,0,0,0,0,0,0,0,0,0,0,0],"sum_hessian":[8.884532E3,5.06514E3,3.8193923E3,1.8812642E3,3.1838762E3,7.954913E2,3.0239011E3,3.0408954E2,1.5771746E3,1.00702045E3,2.1768557E3,2.0193161E2,5.9355963E2,1.2882797E3,1.7356213E3,1.354276E2,1.6866193E2,8.92128E2,6.850466E2,3.8872556E2,6.1829486E2,1.4217219E3,7.551339E2,1.1021476E2,9.171684E1,2.0241963E2,3.9114E2,5.999584E2,6.8832135E2,7.581897E2,9.774317E2,6.871592E1,6.6711685E1,7.570192E1,9.2960014E1,4.7193768E2,4.2019034E2,4.3141833E2,2.5362823E2,2.2181032E2,1.6691524E2,3.031845E2,3.1511038E2,5.453913E2,8.763306E2,4.2542343E2,3.2971048E2,4.3991364E1,6.62234E1,4.747227E0,8.696962E1,9.671234E1,1.0570729E2,2.374351E2,1.5370491E2,2.3721027E2,3.627481E2,4.2083273E2,2.6748862E2,2.85482E2,4.727077E2,6.096209E2,3.6781076E2,2.0242851E1,4.8473064E1,5.9213284E1,7.498407E0,7.9962344E0,6.770568E1,7.5213524E1,1.7746487E1,2.5522792E2,2.1670976E2,3.4919952E2,7.09908E1,1.8320706E2,2.4821127E2,1.4393039E2,1.09697845E2,7.594576E1,1.4586455E2,1.4268161E2,2.4233635E1,2.0450223E2,9.868229E1,2.1541214E2,9.9698235E1,3.449145E2,2.004768E2,7.2910315E2,1.4722748E2,1.3299327E2,2.9243015E2,2.3196959E2,9.774089E1,2.7744232E1,1.624713E1,1.2996479E1,5.3226917E1,4.6732956E1,4.023666E1,5.372809E1,4.2984253E1,3.3242496E1,7.24648E1,8.872553E1,1.4870958E2,1.3645724E2,1.724766E1,9.446605E1,1.4274422E2,1.7562547E2,1.8712263E2,1.6562856E2,2.5520416E2,2.0704973E2,6.0438885E1,8.399469E1,2.014873E2,3.492194E2,1.2348832E2,2.5646414E2,3.5315677E2,1.3118343E2,2.3662733E2],"tree_param":{"num_deleted":"0","num_feature":"30","num_nodes":"125","size_leaf_vector":"1"}},{"base_weights":[-5.8462224E-3,4.2176038E-1,-4.1585585E-1,1.8009571E-2,6.6039026E-1,1.8630527E-1,-5.759291E-1,5.878683E-1,-1.7651637E-1,9.7911847E-1,4.9969414E-1,-9.095927E-2,5.731465E-1,-8.159723E-1,-2.1543251E-1,7.0515984E-1,-6.169742E-2,3.806303E-2,-5.485472E-1,1.2325659E0,8.4473914E-1,7.130416E-1,2.4543871E-1,2.3266584E-1,-3.5744923E-1,8.8672525E-1,2.7469283E-1,-4.908363E-1,-9.6611506E-1,1.4973305E-1,-4.5572215E-1,1.0016888E0,5.5095434E-1,3.7139544E-1,-3.647373E-1,2.999645E-1,-1.5095495E-1,-3.57133E-1,-7.4085516E-1,1.3366369E0,1.0118747E0,1.0873833E0,6.7643756E-1,5.325971E-1,8.9250106E-1,3.8986346E-1,-9.179473E-2,6.211814E-1,3.3842746E-2,3.1830188E-2,-6.4068884E-1,1.1028259E0,6.884492E-1,6.3820714E-1,7.858015E-2,-2.9291716E-1,-7.822375E-1,-7.867835E-1,-1.1269877E0,3.6764318E-1,-9.147348E-2,-2.362931E-1,-8.087907E-1,4.1885816E-2,6.625505E-2,3.360738E-2,6.925061E-3,3.1153454E-2,-1.4806899E-2,3.1670608E-4,-3.887155E-2,4.4316403E-3,3.505223E-2,-4.2561393E-2,-4.7962028E-3,-2.9623797E-2,-6.9017666E-3,-2.477209E-2,-4.9510773E-2,4.6249803E-2,7.201832E-2,5.612309E-2,2.8732968E-2,4.6423372E-2,7.6538615E-2,2.2881415E-2,4.268904E-2,5.2489083E-2,2.2663618E-2,5.5006307E-2,3.789948E-2,5.819914E-3,2.8552786E-2,-1.4848045E-2,6.04107E-3,4.5878448E-2,1.1536663E-2,8.96076E-3,-1.951653E-2,1.5873669E-2,-1.3448964E-2,-2.0552441E-2,-4.687069E-2,6.774105E-2,3.6609903E-2,-1.4362349E-2,3.8110852E-2,4.735154E-2,1.3378607E-2,1.236076E-2,-1.2518825E-2,-3.2808788E-3,-2.9363057E-2,-5.0732087E-2,-2.8867645E-2,-5.216521E-2,-3.2906007E-2,-5.1410776E-2,-6.6395015E-2,2.9413288E-2,7.0980536E-3,3.0638585E-3,-1.8548569E-2,9.022092E-5,-2.1461805E-2,-4.527999E-2,-2.6136622E-2],"categories":[],"categories_nodes":[],"categories_segments":[],"categories_sizes":[],"default_left":[0,0,0,0,0,0,0,0,0,0,0,0,0,0,0,0,0,0,0,0,0,0,0,0,0,0,0,0,0,0,0,0,0,0,0,0,0,0,0,0,0,0,0,0,0,0,0,0,0,0,0,0,0,0,0,0,0,0,0,0,0,0,0,0,0,0,0,0,0,0,0,0,0,0,0,0,0,0,0,0,0,0,0,0,0,0,0,0,0,0,0,0,0,0,0,0,0,0,0,0,0,0,0,0,0,0,0,0,0,0,0,0,0,0,0,0,0,0,0,0,0,0,0,0,0,0,0],"id":2,"left_children":[1,3,5,7,9,11,13,15,17,19,21,23,25,27,29,31,33,35,37,39,41,43,45,47,49,51,53,55,57,59,61,63,65,67,69,71,73,75,77,79,81,83,85,87,89,91,93,95,97,99,101,103,105,107,109,111,113,115,117,119,121,123,125,-1,-1,-1,-1,-1,-1,-1,-1,-1,-1,-1,-1,-1,-1,-1,-1,-1,-1,-1,-1,-1,-1,-1,-1,-1,-1,-1,-1,-1,-1,-1,-1,-1,-1,-1,-1,-1,-1,-1,-1,-1,-1,-1,-1,-1,-1,-1,-1,-1,-1,-1,-1,-1,-1,-1,-1,-1,-1,-1,-1,-1,-1,-1,-1],"loss_changes":[1.553091E3,4.1776685E2,4.3600903E2,1.7877812E2,1.3909949E2,1.0199568E2,3.089972E2,3.1312729E1,9.6009E1,3.00354E1,9.821979E1,4.790516E1,3.6906784E1,1.04206665E2,1.254968E2,1.5348373E1,8.494883E0,3.784192E1,1.5928314E1,5.858917E0,2.3745544E1,3.144635E1,4.041857E1,1.9368774E1,3.359324E1,7.515625E0,1.455217E1,3.8957138E1,4.1404175E1,2.9892056E1,6.662129E1,5.1338654E0,1.1452988E1,4.6727934E0,5.8207808E0,2.709388E1,1.7033314E1,1.1385468E1,1.2881203E1,7.645233E0,4.4188156E0,1.5762085E1,1.3447281E1,1.9791458E1,1.2927734E1,2.8707504E1,1.0916162E1,9.614922E0,1.0373836E1,1.1186135E1,1.1627579E1,7.4833984E0,7.659466E0,7.946493E0,7.505969E0,2.713958E1,1.2471558E1,2.23013E1,1.3923157E1,1.4786228E1,1.15680065E1,2.4498466E1,8.668854E0,0E0,0E0,0E0,0E0,0E0,0E0,0E0,0E0,0E0,0E0,0E0,0E0,0E0,0E0,0E0,0E0,0E0,0E0,0E0,0E0,0E0,0E0,0E0,0E0,0E0,0E0,0E0,0E0,0E0,0E0,0E0,0E0,0E0,0E0,0E0,0E0,0E0,0E0,0E0,0E0,0E0,0E0,0E0,0E0,0E0,0E0,0E0,0E0,0E0,0E0,0E0,0E0,0E0,0E0,0E0,0E0,0E0,0E0,0E0,0E0,0E0,0E0,0E0,0E0],"parents":[2147483647,0,0,1,1,2,2,3,3,4,4,5,5,6,6,7,7,8,8,9,9,10,10,11,11,12,12,13,13,14,14,15,15,16,16,17,17,18,18,19,19,20,20,21,21,22,22,23,23,24,24,25,25,26,26,27,27,28,28,29,29,30,30,31,31,32,32,33,33,34,34,35,35,36,36,37,37,38,38,39,39,40,40,41,41,42,42,43,43,44,44,45,45,46,46,47,47,48,48,49,49,50,50,51,51,52,52,53,53,54,54,55,55,56,56,57,57,58,58,59,59,60,60,61,61,62,62],"right_children":[2,4,6,8,10,12,14,16,18,20,22,24,26,28,30,32,34,36,38,40,42,44,46,48,50,52,54,56,58,60,62,64,66,68,70,72,74,76,78,80,82,84,86,88,90,92,94,96,98,100,102,104,106,108,110,112,114,116,118,120,122,124,126,-1,-1,-1,-1,-1,-1,-1,-1,-1,-1,-1,-1,-1,-1,-1,-1,-1,-1,-1,-1,-1,-1,-1,-1,-1,-1,-1,-1,-1,-1,-1,-1,-1,-1,-1,-1,-1,-1,-1,-1,-1,-1,-1,-1,-1,-1,-1,-1,-1,-1,-1,-1,-1,-1,-1,-1,-1,-1,-1,-1,-1,-1,-1,-1],"split_conditions":[3.9E1,1.237E1,3.7135E4,4.1601E4,5.1948E4,1.696E1,1.687E1,9.6E1,7.1E1,2.5413E4,5.6E1,2.3539E4,5.2E1,3.5E1,4.2E1,2.2813E4,2.3935E4,2.6E1,2.8E1,7.3E1,4.2E1,1.927E1,3.2E1,4.8E1,4.6E1,2.4689E4,2.209E4,5.6E1,5.3E1,5.3E1,5.7E1,9.17E0,7E1,1.1E2,2.9E1,9.17E0,2.94E0,7.23E0,1E0,2.8E-1,1E0,2.186E1,1.88E1,6.3866E4,2.5E1,1.786E1,1.935E1,6.4E1,8.5E1,5.3E1,5.6E1,5.9E1,1.6E-1,5.7E1,7.6E1,1E0,9.37E0,7.23E0,9.1E1,1E0,1.08048E5,7.6E1,2.318E1,4.1885816E-2,6.625505E-2,3.360738E-2,6.925061E-3,3.1153454E-2,-1.4806899E-2,3.1670608E-4,-3.887155E-2,4.4316403E-3,3.505223E-2,-4.2561393E-2,-4.7962028E-3,-2.9623797E-2,-6.9017666E-3,-2.477209E-2,-4.9510773E-2,4.6249803E-2,7.201832E-2,5.612309E-2,2.8732968E-2,4.6423372E-2,7.6538615E-2,2.2881415E-2,4.268904E-2,5.2489083E-2,2.2663618E-2,5.5006307E-2,3.789948E-2,5.819914E-3,2.8552786E-2,-1.4848045E-2,6.04107E-3,4.5878448E-2,1.1536663E-2,8.96076E-3,-1.951653E-2,1.5873669E-2,-1.3448964E-2,-2.0552441E-2,-4.687069E-2,6.774105E-2,3.6609903E-2,-1.4362349E-2,3.8110852E-2,4.735154E-2,1.3378607E-2,1.236076E-2,-1.2518825E-2,-3.2808788E-3,-2.9363057E-2,-5.0732087E-2,-2.8867645E-2,-5.216521E-2,-3.2906007E-2,-5.1410776E-2,-6.6395015E-2,2.9413288E-2,7.0980536E-3,3.0638585E-3,-1.8548569E-2,9.022092E-5,-2.1461805E-2,-4.527999E-2,-2.6136622E-2],"split_indices":[0,6,1,1,1,6,6,4,4,1,4,1,0,4,4,1,1,0,0,4,4,6,0,0,4,1,1,0,0,0,0,6,4,4,0,6,6,6,11,8,16,6,6,1,0,6,6,4,4,0,0,4,8,4,4,11,6,6,4,11,1,4,6,0,0,0,0,0,0,0,0,0,0,0,0,0,0,0,0,0,0,0,0,0,0,0,0,0,0,0,0,0,0,0,0,0,0,0,0,0,0,0,0,0,0,0,0,0,0,0,0,0,0,0,0,0,0,0,0,0,0,0,0,0,0,0,0],"split_type":[0,0,0,0,0,0,0,0,0,0,0,0,0,0,0,0,0,0,0,0,0,0,0,0,0,0,0,0,0,0,0,0,0,0,0,0,0,0,0,0,0,0,0,0,0,0,0,0,0,0,0,0,0,0,0,0,0,0,0,0,0,0,0,0,0,0,0,0,0,0,0,0,0,0,0,0,0,0,0,0,0,0,0,0,0,0,0,0,0,0,0,0,0,0,0,0,0,0,0,0,0,0,0,0,0,0,0,0,0,0,0,0,0,0,0,0,0,0,0,0,0,0,0,0,0,0,0],"sum_hessian":[8.856464E3,4.3351875E3,4.521276E3,1.6108236E3,2.724364E3,9.494574E2,3.5718184E3,4.0941904E2,1.2014045E3,9.114605E2,1.8129036E3,5.535039E2,3.959535E2,2.1433599E3,1.4284585E3,3.4672552E2,6.2693535E1,7.625055E2,4.3889908E2,3.129832E2,5.984773E2,9.84771E2,8.281325E2,2.5001405E2,3.0348987E2,1.92123E2,2.0383049E2,6.784458E2,1.4649141E3,5.670681E2,8.6139044E2,1.1674168E2,2.2998384E2,2.571586E1,3.6977673E1,3.1938367E2,4.4312183E2,2.2139256E2,2.1750652E2,2.0925063E2,1.03732574E2,2.4286807E2,3.5560925E2,4.9301624E2,4.9175476E2,5.797085E2,2.4842403E2,8.391446E1,1.660996E2,1.281923E2,1.7529758E2,8.974647E1,1.0237653E2,7.063928E1,1.3319121E2,4.0522382E2,2.73222E2,6.955009E2,7.6941315E2,2.9764572E2,2.6942242E2,5.322628E2,3.2912756E2,7.984823E1,3.6893448E1,1.7726692E2,5.271691E1,1.8723377E1,6.9924827E0,1.9989166E1,1.6988508E1,2.0997006E2,1.09413605E2,3.12314E1,4.1189044E2,1.0591751E2,1.1547506E2,1.11126144E2,1.0638038E2,4.4112328E1,1.6513829E2,8.1540764E1,2.2191813E1,1.8106593E2,6.1802143E1,1.6079633E2,1.9481293E2,6.393519E1,4.2908105E2,1.905118E2,3.0124295E2,2.3168272E2,3.4802576E2,1.26225105E2,1.2219893E2,4.6935722E1,3.6978737E1,1.24133965E2,4.196563E1,6.572533E1,6.2466972E1,1.0016423E2,7.513335E1,5.184252E1,3.7903946E1,6.9927254E0,9.5383804E1,3.7684406E1,3.2954876E1,8.821666E1,4.4974556E1,2.2934273E2,1.7588107E2,1.2616198E2,1.4706E2,2.2994434E2,4.6555655E2,5.199259E2,2.4948723E2,1.4969757E2,1.4794815E2,1.747171E2,9.4705315E1,2.3869571E2,2.9356714E2,2.4428851E2,8.483906E1],"tree_param":{"num_deleted":"0","num_feature":"30","num_nodes":"127","size_leaf_vector":"1"}},{"base_weights":[6.272319E-3,5.266272E-1,-1.4497304E-1,6.173728E-2,8.589021E-1,1.0548173E-1,-3.9391539E-1,-2.5731158E-1,3.0185267E-1,1.0646127E0,6.0485643E-1,-1.03928395E-1,2.153863E-1,-5.500996E-1,-2.1800813E-1,-4.0418595E-2,-5.015055E-1,6.6039854E-1,7.7124305E-2,8.190867E-1,1.2112039E0,9.326325E-1,3.6835083E-1,6.2654324E-2,-2.79829E-1,4.2970985E-1,1.0366093E-1,-4.2591625E-1,-7.1154875E-1,-4.112647E-2,-3.9247623E-1,1.3747832E-1,-3.9048004E-1,-1.8861736E-1,-7.153351E-1,7.429251E-1,-1.4499181E-2,2.767957E-1,-3.4647688E-1,9.899603E-1,2.637177E-1,1.3811902E0,1.0916318E0,7.157305E-1,1.0834988E0,1.4991914E-1,5.2414E-1,2.2514512E-1,-1.1426373E-1,-1.1315673E-1,-4.585874E-1,5.267312E-1,2.3351377E-1,2.189884E-1,-5.987428E-2,-2.972175E-1,-5.6899124E-1,-5.396154E-1,-8.807442E-1,1.3954064E-1,-2.3418185E-1,-2.1942954E-1,-6.06203E-1,-3.5089091E-3,2.688931E-2,-3.266707E-2,-6.68028E-3,1.3706501E-2,-2.7633732E-2,-3.961229E-2,1.6959144E-2,4.211409E-2,2.0958522E-2,1.3898349E-2,-5.736933E-2,1.8738965E-3,2.3216305E-2,3.722165E-2,-2.110224E-2,2.9462768E-2,5.5935856E-2,3.2007247E-2,-3.8111755E-3,7.4729145E-2,6.0557205E-2,5.7632077E-2,4.0957447E-2,4.3349095E-2,1.05357E-2,5.5901866E-2,-9.048041E-3,-3.0577062E-2,1.1574338E-2,3.2152172E-2,9.216252E-4,5.5406024E-3,2.5910331E-2,-1.7308665E-2,3.5833686E-3,-9.294762E-3,1.9012026E-2,-6.4211213E-3,-3.0478064E-2,1.9334977E-2,3.2952413E-2,2.7112276E-3,2.2986503E-2,1.8448422E-2,1.9087697E-3,8.998767E-3,-7.066822E-3,-6.509797E-3,-2.3969823E-2,-2.176866E-2,-3.537448E-2,-3.523273E-2,-1.517638E-2,-6.502912E-2,-4.202993E-2,1.4006398E-2,-9.462985E-3,-2.0243837E-2,-1.8509219E-3,-3.8431827E-3,-1.88079E-2,-2.5912408E-2,-4.661934E-2],"categories":[],"categories_nodes":[],"categories_segments":[],"categories_sizes":[],"default_left":[0,0,0,0,0,0,0,0,0,0,0,0,0,0,0,0,0,0,0,0,0,0,0,0,0,0,0,0,0,0,0,0,0,0,0,0,0,0,0,0,0,0,0,0,0,0,0,0,0,0,0,0,0,0,0,0,0,0,0,0,0,0,0,0,0,0,0,0,0,0,0,0,0,0,0,0,0,0,0,0,0,0,0,0,0,0,0,0,0,0,0,0,0,0,0,0,0,0,0,0,0,0,0,0,0,0,0,0,0,0,0,0,0,0,0,0,0,0,0,0,0,0,0,0,0,0,0],"id":3,"left_children":[1,3,5,7,9,11,13,15,17,19,21,23,25,27,29,31,33,35,37,39,41,43,45,47,49,51,53,55,57,59,61,63,65,67,69,71,73,75,77,79,81,83,85,87,89,91,93,95,97,99,101,103,105,107,109,111,113,115,117,119,121,123,125,-1,-1,-1,-1,-1,-1,-1,-1,-1,-1,-1,-1,-1,-1,-1,-1,-1,-1,-1,-1,-1,-1,-1,-1,-1,-1,-1,-1,-1,-1,-1,-1,-1,-1,-1,-1,-1,-1,-1,-1,-1,-1,-1,-1,-1,-1,-1,-1,-1,-1,-1,-1,-1,-1,-1,-1,-1,-1,-1,-1,-1,-1,-1,-1],"loss_changes":[6.9786743E2,3.084146E2,4.2840283E2,6.3926117E1,6.021216E1,7.8862686E1,9.455017E1,1.8963776E1,3.8303337E1,2.2119751E1,4.0226807E1,3.4585777E1,5.3757416E1,3.627838E1,5.004651E1,1.1942931E1,1.1139702E1,1.0218155E1,2.494057E1,2.2813385E1,6.6223145E0,6.3809204E0,1.0322514E1,1.7467644E1,1.7049793E1,1.452655E1,2.7893257E1,1.8866882E1,2.2557648E1,2.816815E1,3.006778E1,1.0621893E1,4.2739754E0,1.1905506E1,8.358574E0,4.9003983E0,7.259987E0,8.967092E0,8.108341E0,8.9153595E0,7.5439267E0,1.302063E0,3.0386963E0,6.895088E0,5.7503357E0,8.13171E0,1.0691784E1,1.05506115E1,1.2578177E1,1.0778789E1,1.3710644E1,9.271713E0,1.0376061E1,2.3500782E1,1.198584E1,1.6561455E1,8.731445E0,1.5188126E1,5.606201E0,1.9344112E1,1.3121689E1,1.0088455E1,9.98204E0,0E0,0E0,0E0,0E0,0E0,0E0,0E0,0E0,0E0,0E0,0E0,0E0,0E0,0E0,0E0,0E0,0E0,0E0,0E0,0E0,0E0,0E0,0E0,0E0,0E0,0E0,0E0,0E0,0E0,0E0,0E0,0E0,0E0,0E0,0E0,0E0,0E0,0E0,0E0,0E0,0E0,0E0,0E0,0E0,0E0,0E0,0E0,0E0,0E0,0E0,0E0,0E0,0E0,0E0,0E0,0E0,0E0,0E0,0E0,0E0,0E0,0E0,0E0,0E0],"parents":[2147483647,0,0,1,1,2,2,3,3,4,4,5,5,6,6,7,7,8,8,9,9,10,10,11,11,12,12,13,13,14,14,15,15,16,16,17,17,18,18,19,19,20,20,21,21,22,22,23,23,24,24,25,25,26,26,27,27,28,28,29,29,30,30,31,31,32,32,33,33,34,34,35,35,36,36,37,37,38,38,39,39,40,40,41,41,42,42,43,43,44,44,45,45,46,46,47,47,48,48,49,49,50,50,51,51,52,52,53,53,54,54,55,55,56,56,57,57,58,58,59,59,60,60,61,61,62,62],"right_children":[2,4,6,8,10,12,14,16,18,20,22,24,26,28,30,32,34,36,38,40,42,44,46,48,50,52,54,56,58,60,62,64,66,68,70,72,74,76,78,80,82,84,86,88,90,92,94,96,98,100,102,104,106,108,110,112,114,116,118,120,122,124,126,-1,-1,-1,-1,-1,-1,-1,-1,-1,-1,-1,-1,-1,-1,-1,-1,-1,-1,-1,-1,-1,-1,-1,-1,-1,-1,-1,-1,-1,-1,-1,-1,-1,-1,-1,-1,-1,-1,-1,-1,-1,-1,-1,-1,-1,-1,-1,-1,-1,-1,-1,-1,-1,-1,-1,-1,-1,-1,-1,-1,-1,-1,-1,-1],"split_conditions":[3.8675E4,1.33953E5,5.4E1,6.6215E4,2.6275E4,9.5093E4,1.40907E5,1E0,2.3539E4,1.85317E5,4.4E1,1E0,7.3388E4,9E1,9.1243E4,7.7E1,4.1E1,1.03E2,7.7E1,8.5E1,4.3E1,1.91437E5,1.86215E5,1E0,5.74E2,1E0,3E1,1E0,1E0,1E0,8.9E1,1E0,4.9E-1,5.33E2,8.13E2,1E0,7.29E2,4.5E-1,3.33E2,3.2E-1,1.9318E4,2.0875E4,1E0,7.19E2,8.37E2,1.8E-1,7.31E2,1E0,4.6E-1,8.1E-1,1.6E1,1.76455E5,5.6E-1,1E0,4.35E2,1E0,1E0,5.8E-1,1.7391E4,9.9E1,2.02654E5,1E0,7.41E2,-3.5089091E-3,2.688931E-2,-3.266707E-2,-6.68028E-3,1.3706501E-2,-2.7633732E-2,-3.961229E-2,1.6959144E-2,4.211409E-2,2.0958522E-2,1.3898349E-2,-5.736933E-2,1.8738965E-3,2.3216305E-2,3.722165E-2,-2.110224E-2,2.9462768E-2,5.5935856E-2,3.2007247E-2,-3.8111755E-3,7.4729145E-2,6.0557205E-2,5.7632077E-2,4.0957447E-2,4.3349095E-2,1.05357E-2,5.5901866E-2,-9.048041E-3,-3.0577062E-2,1.1574338E-2,3.2152172E-2,9.216252E-4,5.5406024E-3,2.5910331E-2,-1.7308665E-2,3.5833686E-3,-9.294762E-3,1.9012026E-2,-6.4211213E-3,-3.0478064E-2,1.9334977E-2,3.2952413E-2,2.7112276E-3,2.2986503E-2,1.8448422E-2,1.9087697E-3,8.998767E-3,-7.066822E-3,-6.509797E-3,-2.3969823E-2,-2.176866E-2,-3.537448E-2,-3.523273E-2,-1.517638E-2,-6.502912E-2,-4.202993E-2,1.4006398E-2,-9.462985E-3,-2.0243837E-2,-1.8509219E-3,-3.8431827E-3,-1.88079E-2,-2.5912408E-2,-4.661934E-2],"split_indices":[1,2,4,2,1,2,2,10,1,2,4,10,1,4,1,4,4,4,4,4,4,2,2,11,3,21,4,11,10,11,4,20,8,3,3,17,3,8,3,8,1,1,26,3,3,8,3,19,8,8,4,2,8,11,3,10,9,8,2,4,2,11,3,0,0,0,0,0,0,0,0,0,0,0,0,0,0,0,0,0,0,0,0,0,0,0,0,0,0,0,0,0,0,0,0,0,0,0,0,0,0,0,0,0,0,0,0,0,0,0,0,0,0,0,0,0,0,0,0,0,0,0,0,0,0,0,0],"split_type":[0,0,0,0,0,0,0,0,0,0,0,0,0,0,0,0,0,0,0,0,0,0,0,0,0,0,0,0,0,0,0,0,0,0,0,0,0,0,0,0,0,0,0,0,0,0,0,0,0,0,0,0,0,0,0,0,0,0,0,0,0,0,0,0,0,0,0,0,0,0,0,0,0,0,0,0,0,0,0,0,0,0,0,0,0,0,0,0,0,0,0,0,0,0,0,0,0,0,0,0,0,0,0,0,0,0,0,0,0,0,0,0,0,0,0,0,0,0,0,0,0,0,0,0,0,0,0],"sum_hessian":[8.865327E3,1.9959258E3,6.869401E3,8.3243774E2,1.163488E3,3.4245857E3,3.4448152E3,3.5743332E2,4.7500446E2,6.4114075E2,5.223472E2,1.1787231E3,2.2458625E3,1.8235754E3,1.6212399E3,1.8991573E2,1.6751758E2,1.8226642E2,2.9273804E2,2.4215005E2,3.9899072E2,2.1769608E2,3.0465115E2,6.057269E2,5.729963E2,7.68602E2,1.4772606E3,1.0328029E3,7.9077246E2,8.0566504E2,8.1557477E2,1.2632579E2,6.358994E1,6.877054E1,9.874704E1,1.6231743E2,1.9948984E1,1.9919212E2,9.3545906E1,1.8457748E2,5.7572582E1,1.6040472E2,2.38586E2,9.165988E1,1.26036194E2,1.2764402E2,1.7700714E2,3.1559518E2,2.9013174E2,2.9736737E2,2.7562888E2,5.131556E2,2.5544641E2,8.661205E2,6.1114014E2,5.45338E2,4.8746487E2,3.9429074E2,3.9648175E2,4.1632895E2,3.8933612E2,4.517976E2,3.6377713E2,8.372092E1,4.260487E1,3.0665894E1,3.2924046E1,3.0389696E1,3.838084E1,9.226636E1,6.4806867E0,1.2297589E2,3.9341545E1,1.6455477E1,3.4935067E0,8.803972E1,1.1115241E2,5.48678E0,8.805913E1,4.6242443E1,1.3833504E2,2.6901085E1,3.0671495E1,9.155999E1,6.884473E1,1.9229944E2,4.6286556E1,6.99833E1,2.1676586E1,1.2279779E2,3.238405E0,1.172161E1,1.1592241E2,1.4309148E2,3.3915665E1,2.2801645E2,8.757872E1,1.2871956E2,1.6141217E2,2.5970404E2,3.7663334E1,8.706873E1,1.8856015E2,2.5121559E2,2.6193997E2,1.4319554E2,1.1225088E2,4.7285666E2,3.932638E2,1.5463573E2,4.565044E2,2.8539902E2,2.59939E2,2.502126E2,2.3725229E2,2.3089609E2,1.6339464E2,3.186331E1,3.6461844E2,2.9173706E2,1.2459189E2,2.0811038E2,1.8122574E2,2.3736876E2,2.1442883E2,2.8855704E2,7.522009E1],"tree_param":{"num_deleted":"0","num_feature":"30","num_nodes":"127","size_leaf_vector":"1"}},{"base_weights":[3.9103976E-3,4.1421226E-1,-3.9274877E-1,-6.269166E-2,6.023652E-1,-7.385995E-1,-1.432671E-1,6.0784686E-1,-1.9501907E-1,8.547578E-1,4.3657252E-1,6.8136774E-2,-8.5089445E-1,4.162625E-1,-2.9787156E-1,2.99399E-1,1.2822202E0,1.17192924E-1,-4.2799717E-1,5.500727E-1,1.0578287E0,2.0119534E-1,6.3828516E-1,-8.92247E-1,3.9242214E-1,-6.2518597E-1,-1.0517446E0,-5.0499105E-1,5.8770704E-1,-8.217889E-2,-6.0065675E-1,-2.8600326E-1,5.344827E-1,7.5152534E-1,6.936406E-2,-1.254159E-1,3.4084162E-1,-8.003751E-1,-3.1813386E-1,7.242535E-1,1.7472662E-1,1.310786E0,8.954649E-1,3.352483E-1,-1.4724782E-1,7.995873E-1,3.2587522E-1,7.6750587E-3,-9.8189145E-1,6.239722E-1,-1.4707296E-1,-3.992674E-1,-8.4463793E-1,-1.1999152E0,-8.84567E-1,9.615044E-2,-7.458226E-1,7.774684E-1,1.6738354E-1,1.8028364E-1,-3.4453082E-1,-4.4393343E-1,-9.320069E-1,-6.3189203E-3,-5.9786048E-2,4.0742803E-2,4.330346E-3,1.3859796E-2,6.626322E-2,3.491586E-3,-2.8525507E-2,8.561216E-3,3.4144323E-2,-2.3692897E-2,-5.01888E-2,-1.0178542E-2,-3.2470852E-2,2.7414469E-2,5.1404662E-2,-2.2848204E-3,3.4631826E-2,7.0104465E-2,5.221199E-2,4.6162266E-2,-9.176067E-3,2.326119E-2,2.0464207E-3,-2.607571E-2,4.0774695E-3,4.388982E-2,2.063584E-2,2.5656313E-2,1.6639717E-3,-5.5306103E-2,-1.7958112E-2,2.1398572E-2,5.0771516E-2,-3.9098386E-2,2.240259E-2,3.8560636E-3,-2.5914568E-2,-5.106128E-2,-3.0335534E-2,-5.3635042E-2,-6.9039755E-2,-3.3754427E-2,-5.1333465E-2,3.8960125E-2,-1.0725021E-2,-6.619587E-2,-2.7889017E-2,2.138554E-2,5.0197363E-2,3.3695385E-2,-2.2160357E-3,2.4037916E-2,1.7132143E-3,-8.610497E-3,-2.6875347E-2,-3.4067776E-2,-1.10261245E-2,-5.7437774E-2,-3.987355E-2],"categories":[],"categories_nodes":[],"categories_segments":[],"categories_sizes":[],"default_left":[0,0,0,0,0,0,0,0,0,0,0,0,0,0,0,0,0,0,0,0,0,0,0,0,0,0,0,0,0,0,0,0,0,0,0,0,0,0,0,0,0,0,0,0,0,0,0,0,0,0,0,0,0,0,0,0,0,0,0,0,0,0,0,0,0,0,0,0,0,0,0,0,0,0,0,0,0,0,0,0,0,0,0,0,0,0,0,0,0,0,0,0,0,0,0,0,0,0,0,0,0,0,0,0,0,0,0,0,0,0,0,0,0,0,0,0,0,0,0,0,0,0,0],"id":4,"left_children":[1,3,5,7,9,11,13,15,17,19,21,23,25,27,29,31,33,35,37,39,41,43,45,47,49,51,53,55,57,59,61,63,65,67,-1,69,71,73,75,77,79,81,83,85,87,89,91,-1,93,95,97,99,101,103,105,107,109,111,113,115,117,119,121,-1,-1,-1,-1,-1,-1,-1,-1,-1,-1,-1,-1,-1,-1,-1,-1,-1,-1,-1,-1,-1,-1,-1,-1,-1,-1,-1,-1,-1,-1,-1,-1,-1,-1,-1,-1,-1,-1,-1,-1,-1,-1,-1,-1,-1,-1,-1,-1,-1,-1,-1,-1,-1,-1,-1,-1,-1,-1,-1,-1],"loss_changes":[1.4389882E3,3.90018E2,3.877898E2,1.09299355E2,1.3004199E2,1.7070691E2,2.2615506E2,4.185199E1,7.485643E1,7.580414E1,8.9276825E1,7.232107E1,7.4306274E1,8.970721E1,1.3369022E2,1.9505943E1,2.4934235E0,2.3931227E1,2.3848335E1,3.2290146E1,2.9208008E1,4.0709183E1,5.081659E1,5.647892E0,2.1759502E1,3.8387604E1,2.0576416E1,1.3008335E1,3.797435E1,8.248854E1,4.3818115E1,5.7945027E0,1.2572624E1,3.0786228E0,0E0,1.8455809E1,1.3189426E1,8.394699E0,1.7196991E1,1.7526398E1,1.8123627E1,5.5212097E0,1.3769012E1,2.4040482E1,2.08116E1,1.9842255E1,1.8984898E1,0E0,3.7914734E0,8.891819E0,2.0337526E1,2.197041E1,1.5989685E1,9.110046E0,1.1637726E1,5.778507E0,6.2092323E0,2.5620804E1,1.6100788E1,2.6267311E1,1.9826416E1,3.0623016E1,7.032852E0,0E0,0E0,0E0,0E0,0E0,0E0,0E0,0E0,0E0,0E0,0E0,0E0,0E0,0E0,0E0,0E0,0E0,0E0,0E0,0E0,0E0,0E0,0E0,0E0,0E0,0E0,0E0,0E0,0E0,0E0,0E0,0E0,0E0,0E0,0E0,0E0,0E0,0E0,0E0,0E0,0E0,0E0,0E0,0E0,0E0,0E0,0E0,0E0,0E0,0E0,0E0,0E0,0E0,0E0,0E0,0E0,0E0,0E0,0E0,0E0],"parents":[2147483647,0,0,1,1,2,2,3,3,4,4,5,5,6,6,7,7,8,8,9,9,10,10,11,11,12,12,13,13,14,14,15,15,16,16,17,17,18,18,19,19,20,20,21,21,22,22,23,23,24,24,25,25,26,26,27,27,28,28,29,29,30,30,31,31,32,32,33,33,35,35,36,36,37,37,38,38,39,39,40,40,41,41,42,42,43,43,44,44,45,45,46,46,48,48,49,49,50,50,51,51,52,52,53,53,54,54,55,55,56,56,57,57,58,58,59,59,60,60,61,61,62,62],"right_children":[2,4,6,8,10,12,14,16,18,20,22,24,26,28,30,32,34,36,38,40,42,44,46,48,50,52,54,56,58,60,62,64,66,68,-1,70,72,74,76,78,80,82,84,86,88,90,92,-1,94,96,98,100,102,104,106,108,110,112,114,116,118,120,122,-1,-1,-1,-1,-1,-1,-1,-1,-1,-1,-1,-1,-1,-1,-1,-1,-1,-1,-1,-1,-1,-1,-1,-1,-1,-1,-1,-1,-1,-1,-1,-1,-1,-1,-1,-1,-1,-1,-1,-1,-1,-1,-1,-1,-1,-1,-1,-1,-1,-1,-1,-1,-1,-1,-1,-1,-1,-1,-1,-1],"split_conditions":[3.9E1,1.015E1,1.276E1,3.1208E4,6.0528E4,2.7167E4,3.7135E4,1.95823E5,4.5E1,1.26258E5,1.786E1,1.00365E5,5.4E1,6.4043E4,6.4E1,7.588E4,3.64E0,6.17E0,3.97E0,7.4E1,2.8973E4,8E1,3.1E1,4.2E1,5.8E1,5.3E1,1.37973E5,4.7E1,5.8E1,5.3E1,5.9E1,3.7E1,7E1,3E1,6.936406E-2,3.2E1,1E0,2.6E1,1E2,2.014E1,2.126E1,1E0,1.17E2,1E0,1.08548E5,9.4E1,6.4E1,7.6750587E-3,7.39E2,9.84E0,1.78219E5,4.7161E4,1.50314E5,5.7E1,5.2E2,4.1E-1,1.538E1,1.58124E5,2.0875E4,1.8E1,1E0,1.913E1,9.2219E4,-6.3189203E-3,-5.9786048E-2,4.0742803E-2,4.330346E-3,1.3859796E-2,6.626322E-2,3.491586E-3,-2.8525507E-2,8.561216E-3,3.4144323E-2,-2.3692897E-2,-5.01888E-2,-1.0178542E-2,-3.2470852E-2,2.7414469E-2,5.1404662E-2,-2.2848204E-3,3.4631826E-2,7.0104465E-2,5.221199E-2,4.6162266E-2,-9.176067E-3,2.326119E-2,2.0464207E-3,-2.607571E-2,4.0774695E-3,4.388982E-2,2.063584E-2,2.5656313E-2,1.6639717E-3,-5.5306103E-2,-1.7958112E-2,2.1398572E-2,5.0771516E-2,-3.9098386E-2,2.240259E-2,3.8560636E-3,-2.5914568E-2,-5.106128E-2,-3.0335534E-2,-5.3635042E-2,-6.9039755E-2,-3.3754427E-2,-5.1333465E-2,3.8960125E-2,-1.0725021E-2,-6.619587E-2,-2.7889017E-2,2.138554E-2,5.0197363E-2,3.3695385E-2,-2.2160357E-3,2.4037916E-2,1.7132143E-3,-8.610497E-3,-2.6875347E-2,-3.4067776E-2,-1.10261245E-2,-5.7437774E-2,-3.987355E-2],"split_indices":[0,6,6,1,1,1,1,2,4,2,6,2,4,2,4,2,6,6,6,4,1,4,0,0,0,0,2,0,0,0,0,0,4,0,0,0,22,0,4,6,6,15,4,21,2,4,4,0,3,6,2,1,2,0,3,8,6,2,1,4,11,6,2,0,0,0,0,0,0,0,0,0,0,0,0,0,0,0,0,0,0,0,0,0,0,0,0,0,0,0,0,0,0,0,0,0,0,0,0,0,0,0,0,0,0,0,0,0,0,0,0,0,0,0,0,0,0,0,0,0,0,0,0],"split_type":[0,0,0,0,0,0,0,0,0,0,0,0,0,0,0,0,0,0,0,0,0,0,0,0,0,0,0,0,0,0,0,0,0,0,0,0,0,0,0,0,0,0,0,0,0,0,0,0,0,0,0,0,0,0,0,0,0,0,0,0,0,0,0,0,0,0,0,0,0,0,0,0,0,0,0,0,0,0,0,0,0,0,0,0,0,0,0,0,0,0,0,0,0,0,0,0,0,0,0,0,0,0,0,0,0,0,0,0,0,0,0,0,0,0,0,0,0,0,0,0,0,0,0],"sum_hessian":[8.83971E3,4.34511E3,4.4945996E3,1.229475E3,3.115635E3,1.8826982E3,2.6119016E3,2.0204832E2,1.0274266E3,1.2335693E3,1.8820657E3,2.3009203E2,1.6526062E3,5.650899E2,2.0468115E3,1.3962842E2,6.2419895E1,4.3926642E2,5.881602E2,4.9483447E2,7.3873486E2,8.694765E2,1.0125892E3,5.7639366E1,1.7245267E2,7.8008563E2,8.7252057E2,8.835745E1,4.7673245E2,1.1960573E3,8.5075433E2,3.994395E1,9.968447E1,1.1662469E1,5.0757427E1,2.1091261E2,2.2835379E2,1.325617E2,4.555985E2,3.3735437E2,1.5748013E2,2.8603247E2,4.527024E2,6.2793524E2,2.4154123E2,6.6676733E2,3.4582187E2,4.494647E0,5.314472E1,1.20554405E2,5.1898262E1,3.8576877E2,3.943169E2,4.5928027E2,4.132403E2,2.544493E1,6.291252E1,3.2786374E2,1.4886873E2,5.9805896E2,5.979983E2,5.791604E2,2.715939E2,3.495027E1,4.993678E0,6.0802383E1,3.8882088E1,7.1962376E0,4.466232E0,1.4718896E2,6.372365E1,1.5365707E2,7.4696724E1,5.2159805E1,8.04019E1,3.3972922E2,1.1586929E2,2.1540839E2,1.2194597E2,1.1110534E2,4.637479E1,2.098797E2,7.6152794E1,4.4148007E2,1.1222345E1,4.3517548E2,1.927598E2,9.115331E1,1.5038792E2,5.535863E2,1.1318101E2,2.1041193E2,1.3540994E2,4.3658806E1,9.485911E0,8.172731E1,3.8827095E1,2.495822E1,2.694004E1,7.718618E1,3.0858258E2,2.244441E2,1.6987277E2,2.7370895E2,1.855713E2,1.6934816E2,2.4389212E2,7.483059E0,1.796187E1,1.3958784E1,4.8953735E1,1.2999594E2,1.978678E2,4.323686E1,1.0563187E2,1.9483675E2,4.0322223E2,3.1690536E2,2.8109293E2,2.797821E2,2.9937833E2,1.01128586E2,1.7046532E2],"tree_param":{"num_deleted":"0","num_feature":"30","num_nodes":"123","size_leaf_vector":"1"}},{"base_weights":[4.5739184E-3,3.3512473E-1,-4.2693815E-1,-1.0577478E-1,5.335309E-1,-7.590218E-1,-1.7990756E-1,5.2979094E-1,-2.267535E-1,7.8881866E-1,3.635751E-1,-1.1896073E-1,-8.759821E-1,3.986937E-1,-3.0082184E-1,5.3677376E-2,9.02551E-1,1.39461E-2,-4.8014417E-1,5.6922823E-1,1.0611037E0,5.462846E-1,7.8879416E-2,-7.7967155E-1,2.4350555E-1,-7.3615766E-1,-1.120245E0,-5.4914486E-1,5.807747E-1,-1.292939E-1,-6.4866805E-1,-3.709394E-1,2.6831746E-1,1.0135171E0,4.0974128E-1,2.2073048E-1,-1.7776418E-1,-3.1160793E-1,-7.274454E-1,7.6610726E-1,2.8478226E-1,1.3296024E0,8.8672996E-1,3.422081E-1,7.7804977E-1,3.4271374E-1,-2.235498E-1,-1.2263477E0,-6.3158506E-1,3.9777586E-1,-5.961742E-1,-5.547243E-1,-9.572218E-1,-1.2591194E0,-9.819765E-1,-7.343115E-1,-2.7171135E-2,8.7558824E-1,3.7536415E-1,6.622092E-2,-3.8744688E-1,-3.585471E-1,-8.478052E-1,-4.7160084E-3,-4.502278E-2,1.8878093E-2,-3.572103E-2,5.9475478E-2,3.6454614E-2,1.0501628E-3,4.849943E-2,2.2785852E-2,-2.533865E-3,2.2382056E-2,-1.1819032E-2,-2.8537113E-2,-6.727261E-3,-1.643496E-2,-4.3289952E-2,2.1931013E-2,4.6264756E-2,3.185491E-2,6.292394E-4,7.186277E-2,5.497011E-2,5.482776E-2,3.6689367E-2,2.5011498E-2,4.0090494E-3,4.8164368E-2,3.06966E-2,2.2426813E-3,2.6913956E-2,-1.3978009E-2,2.311842E-2,-6.6839896E-2,-2.3048887E-2,8.030962E-3,-3.6279563E-2,3.0121384E-2,-4.952672E-3,2.840135E-2,-3.9379183E-2,-1.783759E-2,-3.7845116E-2,-6.093985E-2,-4.249658E-2,-5.594919E-2,-6.961002E-2,-3.970475E-2,-5.7509657E-2,5.633765E-3,-4.6895668E-2,2.1136943E-2,-3.0010018E-2,3.1693608E-2,5.9605803E-2,2.390046E-2,-2.116373E-2,-3.7307136E-3,1.5191607E-2,-3.154007E-2,-5.926936E-3,-3.4205865E-2,-8.255863E-3,-2.9877022E-2,-4.8141778E-2],"categories":[],"categories_nodes":[],"categories_segments":[],"categories_sizes":[],"default_left":[0,0,0,0,0,0,0,0,0,0,0,0,0,0,0,0,0,0,0,0,0,0,0,0,0,0,0,0,0,0,0,0,0,0,0,0,0,0,0,0,0,0,0,0,0,0,0,0,0,0,0,0,0,0,0,0,0,0,0,0,0,0,0,0,0,0,0,0,0,0,0,0,0,0,0,0,0,0,0,0,0,0,0,0,0,0,0,0,0,0,0,0,0,0,0,0,0,0,0,0,0,0,0,0,0,0,0,0,0,0,0,0,0,0,0,0,0,0,0,0,0,0,0,0,0,0,0],"id":5,"left_children":[1,3,5,7,9,11,13,15,17,19,21,23,25,27,29,31,33,35,37,39,41,43,45,47,49,51,53,55,57,59,61,63,65,67,69,71,73,75,77,79,81,83,85,87,89,91,93,95,97,99,101,103,105,107,109,111,113,115,117,119,121,123,125,-1,-1,-1,-1,-1,-1,-1,-1,-1,-1,-1,-1,-1,-1,-1,-1,-1,-1,-1,-1,-1,-1,-1,-1,-1,-1,-1,-1,-1,-1,-1,-1,-1,-1,-1,-1,-1,-1,-1,-1,-1,-1,-1,-1,-1,-1,-1,-1,-1,-1,-1,-1,-1,-1,-1,-1,-1,-1,-1,-1,-1,-1,-1,-1],"loss_changes":[1.2605903E3,4.378194E2,3.1434045E2,1.19599686E2,1.4946161E2,1.2228833E2,1.5400264E2,4.410476E1,7.966829E1,8.182153E1,1.0783148E2,6.0959835E1,4.638159E1,6.600951E1,1.0850194E2,1.0153158E1,7.2118683E0,2.6631792E1,2.6294403E1,4.263855E1,2.7581055E1,5.9471283E1,6.485428E1,5.187336E0,2.1561779E1,3.4841064E1,8.38855E0,5.9580593E0,1.9036514E1,6.160845E1,3.4406204E1,5.4017005E0,8.198389E0,4.797226E0,5.9279175E0,2.0633432E1,1.2886786E1,1.7366528E1,1.3901566E1,2.3140167E1,3.016367E1,4.3640137E0,1.1243042E1,2.7843056E1,1.7363342E1,2.5255733E1,1.468446E1,1.1910706E0,5.3111076E0,1.4260918E1,6.2302485E0,1.9212524E1,1.0082092E1,3.039856E0,7.1684723E0,7.972166E0,4.6969104E0,9.233719E0,1.5795607E1,2.328503E1,3.4345016E1,1.5395716E1,9.659592E0,0E0,0E0,0E0,0E0,0E0,0E0,0E0,0E0,0E0,0E0,0E0,0E0,0E0,0E0,0E0,0E0,0E0,0E0,0E0,0E0,0E0,0E0,0E0,0E0,0E0,0E0,0E0,0E0,0E0,0E0,0E0,0E0,0E0,0E0,0E0,0E0,0E0,0E0,0E0,0E0,0E0,0E0,0E0,0E0,0E0,0E0,0E0,0E0,0E0,0E0,0E0,0E0,0E0,0E0,0E0,0E0,0E0,0E0,0E0,0E0,0E0,0E0,0E0,0E0],"parents":[2147483647,0,0,1,1,2,2,3,3,4,4,5,5,6,6,7,7,8,8,9,9,10,10,11,11,12,12,13,13,14,14,15,15,16,16,17,17,18,18,19,19,20,20,21,21,22,22,23,23,24,24,25,25,26,26,27,27,28,28,29,29,30,30,31,31,32,32,33,33,34,34,35,35,36,36,37,37,38,38,39,39,40,40,41,41,42,42,43,43,44,44,45,45,46,46,47,47,48,48,49,49,50,50,51,51,52,52,53,53,54,54,55,55,56,56,57,57,58,58,59,59,60,60,61,61,62,62],"right_children":[2,4,6,8,10,12,14,16,18,20,22,24,26,28,30,32,34,36,38,40,42,44,46,48,50,52,54,56,58,60,62,64,66,68,70,72,74,76,78,80,82,84,86,88,90,92,94,96,98,100,102,104,106,108,110,112,114,116,118,120,122,124,126,-1,-1,-1,-1,-1,-1,-1,-1,-1,-1,-1,-1,-1,-1,-1,-1,-1,-1,-1,-1,-1,-1,-1,-1,-1,-1,-1,-1,-1,-1,-1,-1,-1,-1,-1,-1,-1,-1,-1,-1,-1,-1,-1,-1,-1,-1,-1,-1,-1,-1,-1,-1,-1,-1,-1,-1,-1,-1,-1,-1,-1,-1,-1,-1],"split_conditions":[4.3E1,1.082E1,1.276E1,3.0267E4,6.0528E4,3.1208E4,3.2093E4,1.4571E5,5.5E1,1.61819E5,3.2E1,1.15554E5,7.4E1,6.4043E4,7.6E1,6.0833E4,3.8E1,2.9E1,3.2E1,6.4E1,2.8973E4,1.913E1,5.7E1,3.0538E4,6.4E1,5.7E1,1.30103E5,2.141E1,2.1279E4,5.7E1,5.3E1,3.5E1,3.9E1,6.5E1,4.8E1,1E0,4E0,1.07517E5,6.5056E4,6.5156E4,2.8E1,7.5E1,4.2E1,6.6E1,4.8E1,1.728E1,2.395E1,1.092E1,4.0691E4,6.78E2,8E0,1E0,7.588E4,1E0,8.7354E4,4.7E1,6E1,1.97575E5,1.05E2,1.70439E5,1.975E1,1.786E1,8.9E1,-4.7160084E-3,-4.502278E-2,1.8878093E-2,-3.572103E-2,5.9475478E-2,3.6454614E-2,1.0501628E-3,4.849943E-2,2.2785852E-2,-2.533865E-3,2.2382056E-2,-1.1819032E-2,-2.8537113E-2,-6.727261E-3,-1.643496E-2,-4.3289952E-2,2.1931013E-2,4.6264756E-2,3.185491E-2,6.292394E-4,7.186277E-2,5.497011E-2,5.482776E-2,3.6689367E-2,2.5011498E-2,4.0090494E-3,4.8164368E-2,3.06966E-2,2.2426813E-3,2.6913956E-2,-1.3978009E-2,2.311842E-2,-6.6839896E-2,-2.3048887E-2,8.030962E-3,-3.6279563E-2,3.0121384E-2,-4.952672E-3,2.840135E-2,-3.9379183E-2,-1.783759E-2,-3.7845116E-2,-6.093985E-2,-4.249658E-2,-5.594919E-2,-6.961002E-2,-3.970475E-2,-5.7509657E-2,5.633765E-3,-4.6895668E-2,2.1136943E-2,-3.0010018E-2,3.1693608E-2,5.9605803E-2,2.390046E-2,-2.116373E-2,-3.7307136E-3,1.5191607E-2,-3.154007E-2,-5.926936E-3,-3.4205865E-2,-8.255863E-3,-2.9877022E-2,-4.8141778E-2],"split_indices":[0,6,6,1,1,1,1,2,4,2,0,2,4,2,4,2,0,0,0,4,1,6,4,2,0,0,2,6,1,0,0,0,0,4,7,10,4,2,1,2,0,4,4,4,4,6,6,6,2,3,4,11,2,11,1,0,0,2,4,2,6,6,4,0,0,0,0,0,0,0,0,0,0,0,0,0,0,0,0,0,0,0,0,0,0,0,0,0,0,0,0,0,0,0,0,0,0,0,0,0,0,0,0,0,0,0,0,0,0,0,0,0,0,0,0,0,0,0,0,0,0,0,0,0,0,0,0],"split_type":[0,0,0,0,0,0,0,0,0,0,0,0,0,0,0,0,0,0,0,0,0,0,0,0,0,0,0,0,0,0,0,0,0,0,0,0,0,0,0,0,0,0,0,0,0,0,0,0,0,0,0,0,0,0,0,0,0,0,0,0,0,0,0,0,0,0,0,0,0,0,0,0,0,0,0,0,0,0,0,0,0,0,0,0,0,0,0,0,0,0,0,0,0,0,0,0,0,0,0,0,0,0,0,0,0,0,0,0,0,0,0,0,0,0,0,0,0,0,0,0,0,0,0,0,0,0,0],"sum_hessian":[8.835769E3,5.00331E3,3.832458E3,1.5529038E3,3.4504065E3,1.6339132E3,2.198545E3,2.4778386E2,1.3051199E3,1.3775581E3,2.0728484E3,2.5275232E2,1.3811609E3,3.7963086E2,1.8189141E3,1.0931E2,1.3847386E2,6.698061E2,6.3531384E2,7.6427875E2,6.1327936E2,1.2620085E3,8.108397E2,8.913118E1,1.6362112E2,8.8091095E2,5.0024988E2,6.0850792E1,3.1878006E2,1.2191201E3,5.997939E2,3.645797E1,7.285203E1,1.1216175E2,2.6312115E1,3.2216162E2,3.4764444E2,3.791693E2,2.5614453E2,4.5066095E2,3.1361783E2,2.3886014E2,3.7441925E2,6.724084E2,5.896002E2,4.32981E2,3.7785873E2,2.0379333E1,6.875185E1,1.386702E2,2.495093E1,4.8575107E2,3.9515988E2,2.4553377E2,2.5471613E2,4.461657E1,1.6234222E1,1.2956316E2,1.8921689E2,6.9414545E2,5.2497473E2,2.4526714E2,3.5452676E2,2.4721554E1,1.1736416E1,6.611794E1,6.73408E0,6.732266E1,4.483909E1,1.6146236E1,1.0165877E1,1.723022E2,1.4985942E2,2.9222261E1,3.1842218E2,1.5301129E2,2.2615802E2,6.685084E1,1.892937E2,1.4863634E2,3.020246E2,1.361077E2,1.7751012E2,1.591774E2,7.968274E1,1.5525374E2,2.191655E2,4.1888214E2,2.5352621E2,2.7469073E2,3.149095E2,1.7209592E2,2.6088507E2,3.4988077E2,2.7977972E1,1.7156836E1,3.2224991E0,7.2177954E0,6.1534054E1,9.806368E1,4.0606518E1,3.245199E0,2.1705732E1,2.4682492E2,2.3892616E2,1.1192506E2,2.8323483E2,1.2417968E2,1.2135408E2,1.2302734E2,1.3168878E2,8.733143E0,3.5883427E1,9.2409935E0,6.99323E0,7.51656E1,5.4397552E1,1.6802318E2,2.1193708E1,4.3625656E2,2.5788885E2,2.7487482E2,2.5009993E2,9.0464905E1,1.5480223E2,1.1359008E2,2.4093668E2],"tree_param":{"num_deleted":"0","num_feature":"30","num_nodes":"127","size_leaf_vector":"1"}},{"base_weights":[1.1057792E-3,4.121873E-1,-3.3394232E-1,1.2983395E-1,6.791232E-1,-5.5567896E-1,-1.6040474E-2,3.4834507E-1,-1.0828976E-1,5.0386447E-1,8.8639474E-1,-7.880093E-1,-3.33173E-1,2.7256438E-1,-2.5479499E-1,2.0943794E-2,4.9137557E-1,-3.9475235E-1,1.0593369E-1,6.2074953E-1,2.2826582E-1,1.0816519E0,7.665961E-1,-6.034072E-1,-9.9423426E-1,-1.10113606E-1,-5.846301E-1,4.9866658E-1,2.0507434E-3,-6.387291E-1,-9.644395E-2,-8.351286E-1,8.351746E-2,1.7442887E-1,6.113626E-1,4.688581E-2,-4.8807454E-1,-2.6664004E-1,3.0336082E-1,6.9246054E-1,3.4724894E-1,3.493198E-1,-1.3377532E-1,6.413366E-1,1.12484E0,8.622582E-1,5.754347E-1,-3.3806384E-1,-7.849217E-1,-1.1909287E0,-8.003012E-1,6.942215E-2,-5.83107E-1,-3.7349543E-1,-7.917827E-1,2.4975161E-1,6.987086E-1,-1.5876333E-1,4.1283694E-1,-3.3943805E-1,-8.480965E-1,4.704091E-2,-4.624348E-1,-5.6219965E-2,9.206963E-3,1.0777831E-2,-9.562547E-3,3.2024533E-2,4.2709177E-3,2.1683713E-2,3.9911725E-2,2.7414411E-2,-1.156647E-2,-1.674986E-2,-3.4426752E-2,-2.2624766E-2,-3.8050867E-3,2.3582703E-2,-1.8372389E-3,3.9840978E-2,2.5844527E-2,4.2579505E-3,3.0051654E-2,1.0932726E-2,3.0056745E-2,-1.4192824E-2,2.0552365E-2,-2.6092588E-3,4.2277556E-2,6.441949E-2,5.141896E-2,4.985727E-2,3.431356E-2,1.7314024E-2,4.0857E-2,-2.2116078E-2,-1.8037033E-3,-5.4491337E-2,-3.1150982E-2,-5.399273E-2,-6.934442E-2,-1.9317256E-2,-4.4813324E-2,-1.5355288E-2,9.991287E-3,-3.2846116E-2,1.7457679E-3,-2.779288E-2,-1.02131525E-2,-3.4259766E-2,-5.521604E-2,1.8017333E-2,-3.0331848E-2,4.302815E-2,2.6242917E-2,1.5165011E-3,-1.7341351E-2,4.474039E-2,1.4203742E-2,-1.0688026E-2,-3.8017433E-2,-2.922216E-2,-5.6164052E-2,1.3248905E-2,-4.6998053E-3,-3.498217E-2,-5.7438756E-3],"categories":[],"categories_nodes":[],"categories_segments":[],"categories_sizes":[],"default_left":[0,0,0,0,0,0,0,0,0,0,0,0,0,0,0,0,0,0,0,0,0,0,0,0,0,0,0,0,0,0,0,0,0,0,0,0,0,0,0,0,0,0,0,0,0,0,0,0,0,0,0,0,0,0,0,0,0,0,0,0,0,0,0,0,0,0,0,0,0,0,0,0,0,0,0,0,0,0,0,0,0,0,0,0,0,0,0,0,0,0,0,0,0,0,0,0,0,0,0,0,0,0,0,0,0,0,0,0,0,0,0,0,0,0,0,0,0,0,0,0,0,0,0,0,0,0,0],"id":6,"left_children":[1,3,5,7,9,11,13,15,17,19,21,23,25,27,29,31,33,35,37,39,41,43,45,47,49,51,53,55,57,59,61,63,65,67,69,71,73,75,77,79,81,83,85,87,89,91,93,95,97,99,101,103,105,107,109,111,113,115,117,119,121,123,125,-1,-1,-1,-1,-1,-1,-1,-1,-1,-1,-1,-1,-1,-1,-1,-1,-1,-1,-1,-1,-1,-1,-1,-1,-1,-1,-1,-1,-1,-1,-1,-1,-1,-1,-1,-1,-1,-1,-1,-1,-1,-1,-1,-1,-1,-1,-1,-1,-1,-1,-1,-1,-1,-1,-1,-1,-1,-1,-1,-1,-1,-1,-1,-1],"loss_changes":[1.2147471E3,2.984112E2,3.425183E2,1.002462E2,7.349756E1,1.4771564E2,1.377201E2,4.7030373E1,5.66432E1,3.546295E1,2.09552E1,5.2682922E1,8.2046326E1,5.5345947E1,6.6435524E1,1.6486273E1,2.6478607E1,1.6296268E1,3.8955135E1,1.4970062E1,1.4541996E1,5.9663696E0,1.0121277E1,3.5427307E1,2.4205688E1,6.602212E1,2.97919E1,2.4369026E1,2.7347855E1,1.9714401E1,4.0749527E1,6.388672E0,1.0435431E1,7.967204E0,1.6478714E1,9.862637E0,9.774597E0,6.4667463E0,1.9816534E1,1.0827484E1,1.079781E1,8.033279E0,6.9524827E0,4.822649E0,3.7067566E0,8.453857E0,1.0609093E1,9.517017E0,2.100644E1,5.5849E0,1.2967819E1,2.7759306E1,9.78035E0,1.0458981E1,1.0780869E1,2.116718E1,7.222397E0,1.0590904E1,6.973816E0,6.8760185E0,1.2922119E1,1.7177607E1,1.7934753E1,0E0,0E0,0E0,0E0,0E0,0E0,0E0,0E0,0E0,0E0,0E0,0E0,0E0,0E0,0E0,0E0,0E0,0E0,0E0,0E0,0E0,0E0,0E0,0E0,0E0,0E0,0E0,0E0,0E0,0E0,0E0,0E0,0E0,0E0,0E0,0E0,0E0,0E0,0E0,0E0,0E0,0E0,0E0,0E0,0E0,0E0,0E0,0E0,0E0,0E0,0E0,0E0,0E0,0E0,0E0,0E0,0E0,0E0,0E0,0E0,0E0,0E0,0E0,0E0],"parents":[2147483647,0,0,1,1,2,2,3,3,4,4,5,5,6,6,7,7,8,8,9,9,10,10,11,11,12,12,13,13,14,14,15,15,16,16,17,17,18,18,19,19,20,20,21,21,22,22,23,23,24,24,25,25,26,26,27,27,28,28,29,29,30,30,31,31,32,32,33,33,34,34,35,35,36,36,37,37,38,38,39,39,40,40,41,41,42,42,43,43,44,44,45,45,46,46,47,47,48,48,49,49,50,50,51,51,52,52,53,53,54,54,55,55,56,56,57,57,58,58,59,59,60,60,61,61,62,62],"right_children":[2,4,6,8,10,12,14,16,18,20,22,24,26,28,30,32,34,36,38,40,42,44,46,48,50,52,54,56,58,60,62,64,66,68,70,72,74,76,78,80,82,84,86,88,90,92,94,96,98,100,102,104,106,108,110,112,114,116,118,120,122,124,126,-1,-1,-1,-1,-1,-1,-1,-1,-1,-1,-1,-1,-1,-1,-1,-1,-1,-1,-1,-1,-1,-1,-1,-1,-1,-1,-1,-1,-1,-1,-1,-1,-1,-1,-1,-1,-1,-1,-1,-1,-1,-1,-1,-1,-1,-1,-1,-1,-1,-1,-1,-1,-1,-1,-1,-1,-1,-1,-1,-1,-1,-1,-1,-1],"split_conditions":[3.7E1,1.511E1,1.677E1,5.5E1,1.50314E5,1.33953E5,5E1,9.3253E4,1.20529E5,7.7E1,4E1,5.3E1,5.3E1,5.7E1,8.4236E4,2.94E0,6.17E0,2.1E1,7.23E0,1E0,3.2E1,1.8E-1,3E1,4.4E1,9.45E0,8.4E1,5.6E1,1.30103E5,1.88918E5,4.7E1,8.1E1,1E0,6.5E2,3.87E2,1.81879E5,7.8E1,9E1,1.91437E5,1E0,2.9E1,3E0,6.3E-1,2.283E1,1.80079E5,4.91E2,5.98E2,2.075E1,4E0,7.33E0,1E0,2.2E1,6.28E0,2.39041E5,9.74E0,7.03E2,7.87E2,1E0,1E0,3.93E2,1E0,6E1,2.8E1,5.7E-1,-5.6219965E-2,9.206963E-3,1.0777831E-2,-9.562547E-3,3.2024533E-2,4.2709177E-3,2.1683713E-2,3.9911725E-2,2.7414411E-2,-1.156647E-2,-1.674986E-2,-3.4426752E-2,-2.2624766E-2,-3.8050867E-3,2.3582703E-2,-1.8372389E-3,3.9840978E-2,2.5844527E-2,4.2579505E-3,3.0051654E-2,1.0932726E-2,3.0056745E-2,-1.4192824E-2,2.0552365E-2,-2.6092588E-3,4.2277556E-2,6.441949E-2,5.141896E-2,4.985727E-2,3.431356E-2,1.7314024E-2,4.0857E-2,-2.2116078E-2,-1.8037033E-3,-5.4491337E-2,-3.1150982E-2,-5.399273E-2,-6.934442E-2,-1.9317256E-2,-4.4813324E-2,-1.5355288E-2,9.991287E-3,-3.2846116E-2,1.7457679E-3,-2.779288E-2,-1.02131525E-2,-3.4259766E-2,-5.521604E-2,1.8017333E-2,-3.0331848E-2,4.302815E-2,2.6242917E-2,1.5165011E-3,-1.7341351E-2,4.474039E-2,1.4203742E-2,-1.0688026E-2,-3.8017433E-2,-2.922216E-2,-5.6164052E-2,1.3248905E-2,-4.6998053E-3,-3.498217E-2,-5.7438756E-3],"split_indices":[0,6,6,4,2,2,0,2,2,4,4,0,0,4,2,6,6,0,6,16,0,8,0,4,6,4,4,2,2,4,4,24,3,3,2,4,4,2,21,0,5,8,6,2,3,3,6,5,6,21,4,6,2,6,3,3,10,10,3,16,0,4,8,0,0,0,0,0,0,0,0,0,0,0,0,0,0,0,0,0,0,0,0,0,0,0,0,0,0,0,0,0,0,0,0,0,0,0,0,0,0,0,0,0,0,0,0,0,0,0,0,0,0,0,0,0,0,0,0,0,0,0,0,0,0,0,0],"split_type":[0,0,0,0,0,0,0,0,0,0,0,0,0,0,0,0,0,0,0,0,0,0,0,0,0,0,0,0,0,0,0,0,0,0,0,0,0,0,0,0,0,0,0,0,0,0,0,0,0,0,0,0,0,0,0,0,0,0,0,0,0,0,0,0,0,0,0,0,0,0,0,0,0,0,0,0,0,0,0,0,0,0,0,0,0,0,0,0,0,0,0,0,0,0,0,0,0,0,0,0,0,0,0,0,0,0,0,0,0,0,0,0,0,0,0,0,0,0,0,0,0,0,0,0,0,0,0],"sum_hessian":[8.817638E3,3.9594402E3,4.8581978E3,1.9248759E3,2.0345645E3,2.861531E3,1.9966666E3,1.0035335E3,9.213423E2,1.1042743E3,9.302901E2,1.3986178E3,1.4629132E3,9.038985E2,1.0927682E3,3.0546378E2,6.980697E2,3.938448E2,5.274975E2,7.745324E2,3.2974188E2,3.506859E2,5.796042E2,7.400704E2,6.585474E2,7.759929E2,6.869202E2,4.9190686E2,4.1199167E2,3.1821002E2,7.745581E2,1.9965725E1,2.8549808E2,1.9237178E2,5.0569794E2,6.879181E1,3.2505298E2,1.8258412E2,3.4491336E2,6.124246E2,1.6210777E2,2.471415E2,8.2600395E1,3.274015E1,3.1794577E2,3.8395337E2,1.9565083E2,3.017807E2,4.3828967E2,3.2439377E2,3.3415366E2,5.63106E2,2.128869E2,3.4157864E2,3.453416E2,2.2018106E2,2.717258E2,2.965228E2,1.15468864E2,1.3205641E2,1.8615363E2,5.570435E2,2.1751462E2,1.547168E1,4.494045E0,1.9297836E2,9.25197E1,2.9854908E1,1.6251688E2,2.6092062E2,2.4477731E2,2.4202703E1,4.4589104E1,1.8582378E2,1.3922922E2,9.173193E1,9.085219E1,2.3047934E2,1.1443403E2,3.8189032E2,2.3053432E2,8.0405914E1,8.1701866E1,1.6394156E2,8.3199936E1,6.51364E1,1.7463995E1,7.6169844E0,2.5123167E1,1.1336991E2,2.0457585E2,2.1471597E2,1.6923738E2,1.0168178E2,9.396906E1,2.239875E2,7.7793205E1,1.500236E2,2.8826605E2,2.111948E2,1.1319897E2,6.3832306E1,2.7032135E2,1.4450542E2,4.1860062E2,1.901168E2,2.2770094E1,1.633118E2,1.7826685E2,2.5989865E2,8.5442955E1,1.9551167E2,2.466939E1,1.3867212E2,1.3305367E2,1.4827484E2,1.4824794E2,2.3090235E1,9.237863E1,1.0285371E2,2.9202702E1,9.6664E1,8.9489624E1,2.18511E2,3.385325E2,1.2867834E2,8.883627E1],"tree_param":{"num_deleted":"0","num_feature":"30","num_nodes":"127","size_leaf_vector":"1"}},{"base_weights":[1.6131711E-3,-3.9649746E-1,1.8221498E-1,8.421573E-2,-5.3885067E-1,6.404866E-1,6.2569685E-2,3.2067397E-1,-1.5216143E-1,-3.070323E-1,-7.0458615E-1,8.442281E-1,4.8711377E-1,2.6922143E-1,-1.484977E-1,1.9191293E-1,6.5565985E-1,7.26634E-2,-5.821201E-1,-1.1485369E-1,-5.155663E-1,-5.8665353E-1,-8.7799484E-1,1.0567998E0,6.8853706E-1,8.671582E-1,3.7414214E-1,7.685976E-2,3.9282078E-1,-3.1548876E-1,4.120042E-2,-3.1283356E-2,3.789751E-1,4.716862E-1,9.067831E-1,1.580419E-1,-6.242895E-1,-7.2060776E-1,-1.2326821E-1,-2.4637677E-1,1.5320703E-1,-5.896406E-1,-2.2461234E-1,-4.3710154E-1,-7.3707116E-1,-7.039153E-1,-9.8812985E-1,1.716036E-1,1.082892E0,8.1156117E-1,4.6930033E-1,7.239244E-1,1.2143396E0,1.6786207E-1,4.9435902E-1,2.558589E-1,-1.1906699E-1,4.7393763E-1,2.148847E-1,-1.746216E-1,-4.688993E-1,1.8833792E-1,-1.3105476E-1,1.0957805E-2,-1.3830386E-2,2.3664316E-2,-9.16666E-3,3.789149E-2,1.0855514E-2,3.7010275E-2,7.4495E-2,-1.6395304E-4,2.8454652E-2,-5.139749E-3,-4.4790745E-2,-4.935014E-2,-2.532852E-2,5.747055E-3,-5.0275374E-2,-1.0169944E-2,-5.3503066E-2,1.8768782E-2,-5.02987E-3,-2.7013037E-2,-6.352775E-2,3.1632972E-3,-2.754329E-2,-2.6131997E-2,-8.234275E-3,-2.7316237E-2,-4.6973582E-2,-2.4795016E-2,-4.547349E-2,-5.3089947E-2,-3.859677E-2,-1.2448142E-2,2.6546305E-2,5.6525953E-2,3.6113016E-2,5.0953425E-2,2.9561212E-2,-4.0323376E-3,2.7807504E-2,5.1545676E-2,2.9391542E-2,6.576761E-2,3.7950397E-2,1.6122198E-2,-4.920836E-3,2.5938956E-2,-2.3366401E-2,2.515961E-2,6.5278984E-3,6.9184103E-3,-1.4137732E-2,2.9861907E-2,1.7424222E-2,3.5295454E-3,2.1919705E-2,-3.7661667E-3,-1.9486642E-2,-1.4170887E-2,-3.2273617E-2,1.45082325E-2,-8.6863665E-3,-1.84471E-2,-6.5882417E-4],"categories":[],"categories_nodes":[],"categories_segments":[],"categories_sizes":[],"default_left":[0,0,0,0,0,0,0,0,0,0,0,0,0,0,0,0,0,0,0,0,0,0,0,0,0,0,0,0,0,0,0,0,0,0,0,0,0,0,0,0,0,0,0,0,0,0,0,0,0,0,0,0,0,0,0,0,0,0,0,0,0,0,0,0,0,0,0,0,0,0,0,0,0,0,0,0,0,0,0,0,0,0,0,0,0,0,0,0,0,0,0,0,0,0,0,0,0,0,0,0,0,0,0,0,0,0,0,0,0,0,0,0,0,0,0,0,0,0,0,0,0,0,0,0,0,0,0],"id":7,"left_children":[1,3,5,7,9,11,13,15,17,19,21,23,25,27,29,31,33,35,37,39,41,43,45,47,49,51,53,55,57,59,61,63,65,67,69,71,73,75,77,79,81,83,85,87,89,91,93,95,97,99,101,103,105,107,109,111,113,115,117,119,121,123,125,-1,-1,-1,-1,-1,-1,-1,-1,-1,-1,-1,-1,-1,-1,-1,-1,-1,-1,-1,-1,-1,-1,-1,-1,-1,-1,-1,-1,-1,-1,-1,-1,-1,-1,-1,-1,-1,-1,-1,-1,-1,-1,-1,-1,-1,-1,-1,-1,-1,-1,-1,-1,-1,-1,-1,-1,-1,-1,-1,-1,-1,-1,-1,-1],"loss_changes":[6.3247565E2,1.8790384E2,3.3176047E2,3.5153778E1,8.116412E1,3.8733948E1,2.0939171E2,1.3431061E1,3.0469429E1,3.539998E1,2.4727966E1,1.703302E1,3.0462143E1,5.7639984E1,7.525238E1,9.549995E0,3.5849266E0,1.2450598E1,6.7860565E0,1.6317133E1,9.006966E0,1.6272736E1,8.845306E0,5.0111237E0,8.051437E0,7.2540283E0,1.3667992E1,3.335106E1,2.1209229E1,2.7218353E1,2.8230137E1,6.5171194E0,6.681917E0,3.6389456E0,2.359087E0,1.2317374E1,3.1442738E0,4.226845E0,5.6403923E0,1.0761568E1,8.6424885E0,1.0657776E1,8.268789E0,8.591026E0,1.3629761E1,7.943138E0,3.995453E0,1.2853448E0,2.9343262E0,8.491074E0,5.525511E0,4.3348045E0,1.1307983E0,8.498177E0,8.457878E0,1.5331116E1,1.9182138E1,1.5466507E1,1.4938696E1,1.407177E1,1.9602829E1,2.2193092E1,1.4387759E1,0E0,0E0,0E0,0E0,0E0,0E0,0E0,0E0,0E0,0E0,0E0,0E0,0E0,0E0,0E0,0E0,0E0,0E0,0E0,0E0,0E0,0E0,0E0,0E0,0E0,0E0,0E0,0E0,0E0,0E0,0E0,0E0,0E0,0E0,0E0,0E0,0E0,0E0,0E0,0E0,0E0,0E0,0E0,0E0,0E0,0E0,0E0,0E0,0E0,0E0,0E0,0E0,0E0,0E0,0E0,0E0,0E0,0E0,0E0,0E0,0E0,0E0,0E0,0E0],"parents":[2147483647,0,0,1,1,2,2,3,3,4,4,5,5,6,6,7,7,8,8,9,9,10,10,11,11,12,12,13,13,14,14,15,15,16,16,17,17,18,18,19,19,20,20,21,21,22,22,23,23,24,24,25,25,26,26,27,27,28,28,29,29,30,30,31,31,32,32,33,33,34,34,35,35,36,36,37,37,38,38,39,39,40,40,41,41,42,42,43,43,44,44,45,45,46,46,47,47,48,48,49,49,50,50,51,51,52,52,53,53,54,54,55,55,56,56,57,57,58,58,59,59,60,60,61,61,62,62],"right_children":[2,4,6,8,10,12,14,16,18,20,22,24,26,28,30,32,34,36,38,40,42,44,46,48,50,52,54,56,58,60,62,64,66,68,70,72,74,76,78,80,82,84,86,88,90,92,94,96,98,100,102,104,106,108,110,112,114,116,118,120,122,124,126,-1,-1,-1,-1,-1,-1,-1,-1,-1,-1,-1,-1,-1,-1,-1,-1,-1,-1,-1,-1,-1,-1,-1,-1,-1,-1,-1,-1,-1,-1,-1,-1,-1,-1,-1,-1,-1,-1,-1,-1,-1,-1,-1,-1,-1,-1,-1,-1,-1,-1,-1,-1,-1,-1,-1,-1,-1,-1,-1,-1,-1,-1,-1,-1],"split_conditions":[1.054E1,3.9656E4,3.576E4,2.5413E4,4.6E1,4.5E1,5.4E1,1E0,7E1,1E0,9E1,2.2813E4,1.8937E4,1.687E1,1.897E1,6.17E0,6E-1,7.81E2,8.47E0,8.07E0,1E0,1E0,5.12E2,1.11E1,6.39E2,2.126E1,1.653E1,1E0,1E0,1E0,1E0,1E0,2.3539E4,5.6E1,2.3935E4,4E0,2.1E1,4.6E-1,1.023E1,8.26E2,1E0,8.15E2,1E0,1E0,1E0,1E0,1E0,5.3E-1,3.9E1,1E0,2E-1,4.58E2,7.01E2,9.1E1,1.18E2,7.2372E4,7.7783E4,9.1243E4,2.217E1,1.10895E5,8.5E1,1.05E2,2.112E1,1.0957805E-2,-1.3830386E-2,2.3664316E-2,-9.16666E-3,3.789149E-2,1.0855514E-2,3.7010275E-2,7.4495E-2,-1.6395304E-4,2.8454652E-2,-5.139749E-3,-4.4790745E-2,-4.935014E-2,-2.532852E-2,5.747055E-3,-5.0275374E-2,-1.0169944E-2,-5.3503066E-2,1.8768782E-2,-5.02987E-3,-2.7013037E-2,-6.352775E-2,3.1632972E-3,-2.754329E-2,-2.6131997E-2,-8.234275E-3,-2.7316237E-2,-4.6973582E-2,-2.4795016E-2,-4.547349E-2,-5.3089947E-2,-3.859677E-2,-1.2448142E-2,2.6546305E-2,5.6525953E-2,3.6113016E-2,5.0953425E-2,2.9561212E-2,-4.0323376E-3,2.7807504E-2,5.1545676E-2,2.9391542E-2,6.576761E-2,3.7950397E-2,1.6122198E-2,-4.920836E-3,2.5938956E-2,-2.3366401E-2,2.515961E-2,6.5278984E-3,6.9184103E-3,-1.4137732E-2,2.9861907E-2,1.7424222E-2,3.5295454E-3,2.1919705E-2,-3.7661667E-3,-1.9486642E-2,-1.4170887E-2,-3.2273617E-2,1.45082325E-2,-8.6863665E-3,-1.84471E-2,-6.5882417E-4],"split_indices":[6,1,1,1,4,4,4,19,4,10,4,1,1,6,6,6,8,3,6,6,24,11,3,6,3,6,6,11,21,10,11,11,1,4,1,5,4,8,6,3,11,3,11,19,10,11,13,8,4,10,8,3,3,4,4,1,1,1,6,1,4,4,6,0,0,0,0,0,0,0,0,0,0,0,0,0,0,0,0,0,0,0,0,0,0,0,0,0,0,0,0,0,0,0,0,0,0,0,0,0,0,0,0,0,0,0,0,0,0,0,0,0,0,0,0,0,0,0,0,0,0,0,0,0,0,0,0],"split_type":[0,0,0,0,0,0,0,0,0,0,0,0,0,0,0,0,0,0,0,0,0,0,0,0,0,0,0,0,0,0,0,0,0,0,0,0,0,0,0,0,0,0,0,0,0,0,0,0,0,0,0,0,0,0,0,0,0,0,0,0,0,0,0,0,0,0,0,0,0,0,0,0,0,0,0,0,0,0,0,0,0,0,0,0,0,0,0,0,0,0,0,0,0,0,0,0,0,0,0,0,0,0,0,0,0,0,0,0,0,0,0,0,0,0,0,0,0,0,0,0,0,0,0,0,0,0,0],"sum_hessian":[8.794658E3,2.7442217E3,6.050436E3,6.270711E2,2.1171506E3,1.2517117E3,4.7987246E3,3.133035E2,3.137676E2,8.838041E2,1.2333466E3,5.356484E2,7.1606335E2,2.4245862E3,2.3741382E3,2.274498E2,8.58537E1,2.0657881E2,1.0718879E2,4.6074564E2,4.2305847E2,7.367066E2,4.9663992E2,2.2401004E2,3.116383E2,1.6255185E2,5.535115E2,9.490972E2,1.4754891E3,1.262286E3,1.1118522E3,1.0408812E2,1.2336169E2,5.1213123E1,3.4640575E1,1.8472302E2,2.1855797E1,8.1899864E1,2.5288929E1,3.091454E2,1.5160025E2,3.3638995E2,8.66685E1,3.7137485E2,3.6533173E2,1.953155E2,3.0132443E2,6.6308336E0,2.1737921E2,1.9789072E2,1.137476E2,1.1726002E2,4.529184E1,2.0468646E2,3.48825E2,4.9581424E2,4.5328296E2,1.0123288E3,4.631603E2,6.591597E2,6.031263E2,5.9959485E2,5.1225726E2,5.155987E1,5.2528244E1,1.0577864E2,1.7583042E1,2.3180922E1,2.8032204E1,2.8708796E1,5.9317784E0,1.3337195E2,5.1351074E1,7.9553156E0,1.3900482E1,3.48783E1,4.702156E1,2.0597271E1,4.691657E0,2.9499994E2,1.4145456E1,8.058281E1,7.101743E1,3.1531665E2,2.1073309E1,4.64703E1,4.01982E1,2.8193042E2,8.944441E1,1.8998505E2,1.7534668E2,9.877284E1,9.6542656E1,2.2182533E2,7.949909E1,3.1965673E0,3.4342663E0,1.9013417E2,2.7245033E1,1.0004554E2,9.784518E1,1.5523244E1,9.822436E1,3.399707E1,8.326295E1,3.5522594E1,9.769241E0,1.2937178E2,7.5314674E1,3.4063583E2,8.189188E0,1.65707E2,3.3010724E2,1.7624818E2,2.7703476E2,5.0864807E2,5.0368073E2,2.8225635E2,1.8090396E2,4.519046E2,2.0725513E2,2.954135E2,3.077128E2,4.6813562E2,1.3145924E2,1.690241E2,3.432332E2],"tree_param":{"num_deleted":"0","num_feature":"30","num_nodes":"127","size_leaf_vector":"1"}},{"base_weights":[-2.2608603E-3,3.0361778E-1,-4.069433E-1,5.563471E-2,5.722063E-1,-6.370314E-1,-1.21198036E-1,4.9063385E-1,-7.795701E-2,8.1092465E-1,4.141326E-1,-6.549452E-2,-7.434616E-1,3.588933E-1,-2.518712E-1,1.3950413E-1,8.508516E-1,8.771353E-2,-3.6669162E-1,5.6828713E-1,1.006817E0,5.9876525E-1,1.7204225E-1,-4.563454E-1,4.5816365E-1,-6.178151E-1,-9.9027455E-1,-5.0197935E-1,5.1408505E-1,5.2971216E-3,-4.1993603E-1,2.8183147E-1,-3.970825E-1,1.1258786E0,6.423538E-1,-3.832874E-1,1.7054859E-1,-6.1632477E-2,-5.038874E-1,2.082768E-1,6.736032E-1,1.1575365E0,8.007575E-1,3.6440867E-1,6.864398E-1,3.310297E-1,-1.1409197E-1,-1.6170438E-1,-7.481744E-1,6.3995785E-1,-3.3236146E-2,-4.526629E-1,-8.2413036E-1,-1.104595E0,-8.6052865E-1,-7.438713E-1,-5.005984E-2,9.3537444E-1,3.5166186E-1,-3.044062E-1,1.1896633E-1,-2.1696849E-1,-6.6236335E-1,1.2530618E-3,2.7417788E-2,-1.1313561E-2,-5.0017487E-2,5.7816256E-2,4.705913E-4,1.3322884E-2,3.890798E-2,-2.340618E-2,8.434541E-3,2.2432666E-2,3.9117853E-4,-1.1673668E-2,9.1685E-3,-3.4943797E-2,-1.6094198E-2,-5.4790406E-3,3.7244096E-2,3.9535016E-2,2.0530054E-2,6.4311095E-2,5.04312E-2,5.029976E-2,2.6726872E-2,2.7750418E-2,1.4667561E-3,2.3250824E-2,3.8644593E-2,9.5829135E-3,3.1321507E-2,4.4707586E-3,-1.7578823E-2,-2.6749535E-2,9.356897E-3,-3.0700061E-2,-6.773451E-2,3.812295E-2,6.163261E-3,1.5094678E-2,-2.9768303E-2,-3.0766908E-2,-1.2670471E-2,-2.3351984E-2,-4.8540015E-2,-6.1235856E-2,-4.0546786E-2,-3.359128E-2,-5.2431416E-2,-2.610257E-4,-4.4866744E-2,1.0922765E-2,-5.263691E-2,3.4992557E-2,5.634577E-2,2.2917006E-2,-1.2036871E-2,-3.075618E-2,-4.5081396E-3,1.8750725E-2,-2.2781163E-3,-1.8696142E-2,7.3773027E-3,-4.337131E-2,-2.148939E-2],"categories":[],"categories_nodes":[],"categories_segments":[],"categories_sizes":[],"default_left":[0,0,0,0,0,0,0,0,0,0,0,0,0,0,0,0,0,0,0,0,0,0,0,0,0,0,0,0,0,0,0,0,0,0,0,0,0,0,0,0,0,0,0,0,0,0,0,0,0,0,0,0,0,0,0,0,0,0,0,0,0,0,0,0,0,0,0,0,0,0,0,0,0,0,0,0,0,0,0,0,0,0,0,0,0,0,0,0,0,0,0,0,0,0,0,0,0,0,0,0,0,0,0,0,0,0,0,0,0,0,0,0,0,0,0,0,0,0,0,0,0,0,0,0,0,0,0],"id":8,"left_children":[1,3,5,7,9,11,13,15,17,19,21,23,25,27,29,31,33,35,37,39,41,43,45,47,49,51,53,55,57,59,61,63,65,67,69,71,73,75,77,79,81,83,85,87,89,91,93,95,97,99,101,103,105,107,109,111,113,115,117,119,121,123,125,-1,-1,-1,-1,-1,-1,-1,-1,-1,-1,-1,-1,-1,-1,-1,-1,-1,-1,-1,-1,-1,-1,-1,-1,-1,-1,-1,-1,-1,-1,-1,-1,-1,-1,-1,-1,-1,-1,-1,-1,-1,-1,-1,-1,-1,-1,-1,-1,-1,-1,-1,-1,-1,-1,-1,-1,-1,-1,-1,-1,-1,-1,-1,-1],"loss_changes":[1.0845144E3,3.3231747E2,2.4788904E2,1.5087093E2,9.0050476E1,1.2702307E2,1.057072E2,7.7031586E1,9.505957E1,4.473358E1,6.440022E1,6.755406E1,5.3998047E1,4.843508E1,5.7223816E1,2.379263E1,1.6530563E1,4.934572E1,3.0290215E1,1.6090576E1,1.54123535E1,1.6563538E1,2.8506317E1,1.612257E1,1.2628586E1,3.9478455E1,7.8361206E0,6.0389833E0,2.0611229E1,1.8491589E1,3.9253998E1,1.6797834E1,6.514756E0,4.354355E0,8.64827E0,8.9399395E0,4.863954E1,9.552881E0,1.7504753E1,1.6854107E1,9.861435E0,4.4823914E0,1.1782822E1,1.4348078E1,1.1018555E1,1.6452332E1,1.0870062E1,1.2507136E1,6.8692856E0,6.42955E0,7.5383706E0,2.0971573E1,2.6716827E1,9.991119E0,9.3051605E0,4.0912113E0,5.736123E0,3.0256119E0,1.4169619E1,9.332981E0,1.6202885E1,2.5073988E1,1.7005783E1,0E0,0E0,0E0,0E0,0E0,0E0,0E0,0E0,0E0,0E0,0E0,0E0,0E0,0E0,0E0,0E0,0E0,0E0,0E0,0E0,0E0,0E0,0E0,0E0,0E0,0E0,0E0,0E0,0E0,0E0,0E0,0E0,0E0,0E0,0E0,0E0,0E0,0E0,0E0,0E0,0E0,0E0,0E0,0E0,0E0,0E0,0E0,0E0,0E0,0E0,0E0,0E0,0E0,0E0,0E0,0E0,0E0,0E0,0E0,0E0,0E0,0E0,0E0,0E0],"parents":[2147483647,0,0,1,1,2,2,3,3,4,4,5,5,6,6,7,7,8,8,9,9,10,10,11,11,12,12,13,13,14,14,15,15,16,16,17,17,18,18,19,19,20,20,21,21,22,22,23,23,24,24,25,25,26,26,27,27,28,28,29,29,30,30,31,31,32,32,33,33,34,34,35,35,36,36,37,37,38,38,39,39,40,40,41,41,42,42,43,43,44,44,45,45,46,46,47,47,48,48,49,49,50,50,51,51,52,52,53,53,54,54,55,55,56,56,57,57,58,58,59,59,60,60,61,61,62,62],"right_children":[2,4,6,8,10,12,14,16,18,20,22,24,26,28,30,32,34,36,38,40,42,44,46,48,50,52,54,56,58,60,62,64,66,68,70,72,74,76,78,80,82,84,86,88,90,92,94,96,98,100,102,104,106,108,110,112,114,116,118,120,122,124,126,-1,-1,-1,-1,-1,-1,-1,-1,-1,-1,-1,-1,-1,-1,-1,-1,-1,-1,-1,-1,-1,-1,-1,-1,-1,-1,-1,-1,-1,-1,-1,-1,-1,-1,-1,-1,-1,-1,-1,-1,-1,-1,-1,-1,-1,-1,-1,-1,-1,-1,-1,-1,-1,-1,-1,-1,-1,-1,-1,-1,-1,-1,-1,-1],"split_conditions":[4.3E1,1.574E1,1.599E1,3.9656E4,6.0528E4,3.1208E4,3.7632E4,1.56197E5,7E1,1.35969E5,3.1E1,1.72947E5,7.7E1,6.2855E4,4.2E1,9.1E1,4.3E1,4.42E0,2.5E1,3.9598E4,3.7135E4,7.588E4,7E1,5.5E1,6.1E1,5.7E1,9.37E0,2.164E1,2.0467E4,7.699E4,5.7E1,9.2219E4,3.7E1,8.37E2,1.85317E5,2.20423E5,2.6E1,1.61819E5,8.87E0,2.2E1,3.4E1,5.8E1,6.2E1,6.8E1,1.854E1,1.7556E5,3.7E1,9.6176E4,1.08E2,9.1E1,1E0,1.023E1,6.6211E4,1.81879E5,1E0,4.7E1,1E0,1.79106E5,1E2,1.975E1,5.2E1,1.82785E5,1.32882E5,1.2530618E-3,2.7417788E-2,-1.1313561E-2,-5.0017487E-2,5.7816256E-2,4.705913E-4,1.3322884E-2,3.890798E-2,-2.340618E-2,8.434541E-3,2.2432666E-2,3.9117853E-4,-1.1673668E-2,9.1685E-3,-3.4943797E-2,-1.6094198E-2,-5.4790406E-3,3.7244096E-2,3.9535016E-2,2.0530054E-2,6.4311095E-2,5.04312E-2,5.029976E-2,2.6726872E-2,2.7750418E-2,1.4667561E-3,2.3250824E-2,3.8644593E-2,9.5829135E-3,3.1321507E-2,4.4707586E-3,-1.7578823E-2,-2.6749535E-2,9.356897E-3,-3.0700061E-2,-6.773451E-2,3.812295E-2,6.163261E-3,1.5094678E-2,-2.9768303E-2,-3.0766908E-2,-1.2670471E-2,-2.3351984E-2,-4.8540015E-2,-6.1235856E-2,-4.0546786E-2,-3.359128E-2,-5.2431416E-2,-2.610257E-4,-4.4866744E-2,1.0922765E-2,-5.263691E-2,3.4992557E-2,5.634577E-2,2.2917006E-2,-1.2036871E-2,-3.075618E-2,-4.5081396E-3,1.8750725E-2,-2.2781163E-3,-1.8696142E-2,7.3773027E-3,-4.337131E-2,-2.148939E-2],"split_indices":[0,6,6,1,1,1,1,2,4,2,0,2,4,2,4,4,4,6,0,2,1,2,4,4,0,0,6,6,1,2,0,2,0,3,2,2,0,2,6,6,0,4,4,4,6,2,0,2,4,4,22,6,1,2,10,0,15,2,4,6,0,2,2,0,0,0,0,0,0,0,0,0,0,0,0,0,0,0,0,0,0,0,0,0,0,0,0,0,0,0,0,0,0,0,0,0,0,0,0,0,0,0,0,0,0,0,0,0,0,0,0,0,0,0,0,0,0,0,0,0,0,0,0,0,0,0,0],"split_type":[0,0,0,0,0,0,0,0,0,0,0,0,0,0,0,0,0,0,0,0,0,0,0,0,0,0,0,0,0,0,0,0,0,0,0,0,0,0,0,0,0,0,0,0,0,0,0,0,0,0,0,0,0,0,0,0,0,0,0,0,0,0,0,0,0,0,0,0,0,0,0,0,0,0,0,0,0,0,0,0,0,0,0,0,0,0,0,0,0,0,0,0,0,0,0,0,0,0,0,0,0,0,0,0,0,0,0,0,0,0,0,0,0,0,0,0,0,0,0,0,0,0,0,0,0,0,0],"sum_hessian":[8.759368E3,4.988823E3,3.7705452E3,2.5945388E3,2.3942844E3,2.0880078E3,1.6825372E3,6.0896484E2,1.9855739E3,9.52188E2,1.4420964E3,3.2803815E2,1.7599698E3,3.5960547E2,1.3229318E3,3.0907495E2,2.9988992E2,1.2621005E3,7.234735E2,4.270872E2,5.251008E2,8.1730066E2,6.2479584E2,1.8791193E2,1.401262E2,1.1685781E3,5.9139166E2,5.458416E1,3.050213E2,5.232449E2,7.996869E2,2.446558E2,6.441915E1,1.27416466E2,1.7247345E2,1.8822485E2,1.0738756E3,2.2488466E2,4.9858884E2,9.733542E1,3.2975177E2,3.0060776E2,2.2449306E2,2.2391797E2,5.933827E2,4.0153195E2,2.2326389E2,9.427879E1,9.363314E1,1.0206483E2,3.806138E1,6.508093E2,5.177688E2,3.1039026E2,2.810014E2,3.5133026E1,1.9451134E1,8.355069E1,2.2147061E2,1.4003293E2,3.8321194E2,4.36299E2,3.6338785E2,1.2516527E2,1.1949053E2,5.1275806E1,1.3143342E1,1.23999245E2,3.4172187E0,4.65606E1,1.2591284E2,1.6328128E2,2.4943565E1,3.9575482E2,6.781208E2,1.3220512E2,9.2679535E1,2.3933673E2,2.5925208E2,6.162669E1,3.5708733E1,2.2677689E2,1.0297489E2,1.5715881E2,1.4344894E2,1.2519634E2,9.929672E1,1.4231096E2,8.160702E1,1.684143E2,4.2496838E2,2.7393622E2,1.2759572E2,1.2056868E2,1.0269521E2,4.5285957E1,4.8992832E1,7.831964E1,1.5313503E1,8.211967E1,1.9945166E1,2.4135351E1,1.3926027E1,3.5714197E2,2.9366733E2,1.519667E2,3.6580212E2,2.1803279E2,9.235746E1,1.4255789E2,1.384435E2,6.221539E0,2.8911486E1,1.5959375E1,3.4917586E0,3.9560265E1,4.399043E1,1.8786627E2,3.3604336E1,5.6385643E1,8.364728E1,1.4941113E2,2.3380081E2,3.049615E2,1.3133752E2,1.9166576E2,1.7172209E2],"tree_param":{"num_deleted":"0","num_feature":"30","num_nodes":"127","size_leaf_vector":"1"}},{"base_weights":[2.018177E-3,2.9314613E-1,-3.8258696E-1,-2.7968172E-2,4.8228607E-1,-6.7763543E-1,-1.7377152E-1,-2.3809083E-1,2.0056818E-1,3.047262E-1,6.9143873E-1,-7.927216E-1,-4.14329E-1,1.08340286E-1,-3.621681E-1,-3.2110598E-2,-5.1111823E-1,5.6776285E-1,3.9283734E-2,4.9913314E-1,1.2068005E-1,8.4795666E-1,5.1729953E-1,-5.8010966E-1,-9.0610915E-1,-1.7739996E-1,-5.776766E-1,-2.3162802E-1,2.4641813E-1,-5.4712635E-1,-6.600681E-2,1.1093616E-1,-3.0328107E-1,-7.838326E-1,-3.0588096E-1,7.724213E-1,3.4534043E-1,2.3991445E-1,-1.4631169E-1,6.756852E-1,3.1605896E-1,2.836956E-1,-9.602695E-2,9.3410593E-1,6.5983224E-1,6.6818863E-1,2.601965E-1,2.537155E-2,-6.6745853E-1,-7.7433836E-1,-1.0629867E0,-3.3496144E-1,2.1910198E-1,-7.7670527E-1,-4.628627E-1,-1.2747578E-1,-8.031865E-1,4.7794572E-1,1.0170203E-1,-4.5238352E-1,-9.137229E-1,1.714667E-1,-3.0352515E-1,-3.036647E-2,8.675107E-3,-2.211629E-2,1.9831266E-3,-2.8107567E-2,-4.6233606E-2,-4.676839E-3,-2.6067693E-2,5.0203837E-2,2.6849851E-2,2.906775E-3,2.6150933E-2,-4.303791E-3,2.0798812E-2,-1.3035121E-2,7.894108E-3,2.4503797E-2,4.0709235E-2,1.9999305E-2,-1.9375187E-4,-1.0528882E-2,1.7053537E-2,-2.182357E-2,2.377878E-3,4.9921196E-2,3.6052313E-2,-9.640712E-3,3.540766E-2,1.883444E-2,3.875814E-2,5.636926E-3,2.9840982E-2,1.5423595E-2,-4.6540417E-2,-2.1839615E-2,-4.5075413E-2,-3.34375E-2,-5.402846E-2,-1.1345561E-2,-5.3946633E-2,-2.2342365E-2,6.0506584E-3,3.2423973E-2,-1.3544603E-2,-1.5434791E-2,-4.471075E-2,-1.4923162E-2,-3.1010026E-2,4.6405625E-3,-1.7850002E-2,-4.8285037E-2,4.4212835E-3,2.1216271E-2,4.7220916E-2,4.7709869E-4,3.2209154E-2,-1.4739471E-2,-3.144507E-2,-5.1502235E-2,-2.7676782E-2,-5.2245767E-3,1.770032E-2,-8.656414E-3,-3.7712626E-2],"categories":[],"categories_nodes":[],"categories_segments":[],"categories_sizes":[],"default_left":[0,0,0,0,0,0,0,0,0,0,0,0,0,0,0,0,0,0,0,0,0,0,0,0,0,0,0,0,0,0,0,0,0,0,0,0,0,0,0,0,0,0,0,0,0,0,0,0,0,0,0,0,0,0,0,0,0,0,0,0,0,0,0,0,0,0,0,0,0,0,0,0,0,0,0,0,0,0,0,0,0,0,0,0,0,0,0,0,0,0,0,0,0,0,0,0,0,0,0,0,0,0,0,0,0,0,0,0,0,0,0,0,0,0,0,0,0,0,0,0,0,0,0,0,0,0,0],"id":9,"left_children":[1,3,5,7,9,11,13,15,17,19,21,23,25,27,29,31,33,35,37,39,41,43,45,47,49,51,53,55,57,59,61,63,65,67,69,71,73,75,77,79,81,83,85,87,89,91,93,95,97,99,101,103,105,107,109,111,113,115,117,119,121,123,125,-1,-1,-1,-1,-1,-1,-1,-1,-1,-1,-1,-1,-1,-1,-1,-1,-1,-1,-1,-1,-1,-1,-1,-1,-1,-1,-1,-1,-1,-1,-1,-1,-1,-1,-1,-1,-1,-1,-1,-1,-1,-1,-1,-1,-1,-1,-1,-1,-1,-1,-1,-1,-1,-1,-1,-1,-1,-1,-1,-1,-1,-1,-1,-1],"loss_changes":[9.7981165E2,3.0251395E2,2.3216052E2,8.874911E1,1.161944E2,4.700757E1,1.17445564E2,5.4129833E1,5.24105E1,6.0660263E1,3.876648E1,2.5652527E1,1.8365883E1,4.161397E1,7.25291E1,2.1362345E1,2.2929573E1,1.202935E1,2.298101E1,2.6451569E1,3.0870125E1,1.1635498E1,2.63396E1,2.0139236E1,1.3779968E1,1.2329483E1,6.0849075E0,1.5150032E1,2.1062103E1,2.7904678E1,2.8841156E1,1.6314661E1,9.084951E0,5.0099792E0,1.0833302E1,7.0889435E0,6.6673784E0,1.705312E1,1.1201555E1,1.0374512E1,1.0926968E1,1.4209255E1,1.8379135E1,6.3526306E0,1.0059921E1,1.3118057E1,1.2560427E1,1.3532566E1,1.7559113E1,1.181073E1,4.0188293E0,7.236644E0,1.2040407E1,5.3167877E0,4.5049667E0,1.105112E1,5.7805405E0,5.6540833E0,1.94414E1,1.789264E1,6.404022E0,1.2925823E1,1.4888382E1,0E0,0E0,0E0,0E0,0E0,0E0,0E0,0E0,0E0,0E0,0E0,0E0,0E0,0E0,0E0,0E0,0E0,0E0,0E0,0E0,0E0,0E0,0E0,0E0,0E0,0E0,0E0,0E0,0E0,0E0,0E0,0E0,0E0,0E0,0E0,0E0,0E0,0E0,0E0,0E0,0E0,0E0,0E0,0E0,0E0,0E0,0E0,0E0,0E0,0E0,0E0,0E0,0E0,0E0,0E0,0E0,0E0,0E0,0E0,0E0,0E0,0E0,0E0,0E0],"parents":[2147483647,0,0,1,1,2,2,3,3,4,4,5,5,6,6,7,7,8,8,9,9,10,10,11,11,12,12,13,13,14,14,15,15,16,16,17,17,18,18,19,19,20,20,21,21,22,22,23,23,24,24,25,25,26,26,27,27,28,28,29,29,30,30,31,31,32,32,33,33,34,34,35,35,36,36,37,37,38,38,39,39,40,40,41,41,42,42,43,43,44,44,45,45,46,46,47,47,48,48,49,49,50,50,51,51,52,52,53,53,54,54,55,55,56,56,57,57,58,58,59,59,60,60,61,61,62,62],"right_children":[2,4,6,8,10,12,14,16,18,20,22,24,26,28,30,32,34,36,38,40,42,44,46,48,50,52,54,56,58,60,62,64,66,68,70,72,74,76,78,80,82,84,86,88,90,92,94,96,98,100,102,104,106,108,110,112,114,116,118,120,122,124,126,-1,-1,-1,-1,-1,-1,-1,-1,-1,-1,-1,-1,-1,-1,-1,-1,-1,-1,-1,-1,-1,-1,-1,-1,-1,-1,-1,-1,-1,-1,-1,-1,-1,-1,-1,-1,-1,-1,-1,-1,-1,-1,-1,-1,-1,-1,-1,-1,-1,-1,-1,-1,-1,-1,-1,-1,-1,-1,-1,-1,-1,-1,-1,-1],"split_conditions":[4.3E1,1.226E1,1.276E1,1.4571E5,1.49461E5,1.82785E5,4.2E1,6.3E1,2.9E1,2.9E1,5.6E1,3.9E1,5.3E1,8.807E4,1.64729E5,3.3E1,6.79E0,1E0,2.9E1,5.3E1,6.2E1,1E0,3.3E1,4.6E1,5.7E1,1E0,6.28E0,6.6E1,5.2E1,6.4E1,5.5E1,2.94E0,6.6E-1,6.4043E4,1E0,2.8E1,1.90629E5,5.96E0,1E0,1.838E1,1E0,1.382E1,5.0132E4,1E0,1.5E-1,1.608E1,2.22121E5,1E0,1E0,1E0,1.2E-1,1E0,1E0,2.4E1,5.8E1,1E0,1E0,2.402E1,2.347E1,1E0,1E0,1.838E1,1.02E2,-3.036647E-2,8.675107E-3,-2.211629E-2,1.9831266E-3,-2.8107567E-2,-4.6233606E-2,-4.676839E-3,-2.6067693E-2,5.0203837E-2,2.6849851E-2,2.906775E-3,2.6150933E-2,-4.303791E-3,2.0798812E-2,-1.3035121E-2,7.894108E-3,2.4503797E-2,4.0709235E-2,1.9999305E-2,-1.9375187E-4,-1.0528882E-2,1.7053537E-2,-2.182357E-2,2.377878E-3,4.9921196E-2,3.6052313E-2,-9.640712E-3,3.540766E-2,1.883444E-2,3.875814E-2,5.636926E-3,2.9840982E-2,1.5423595E-2,-4.6540417E-2,-2.1839615E-2,-4.5075413E-2,-3.34375E-2,-5.402846E-2,-1.1345561E-2,-5.3946633E-2,-2.2342365E-2,6.0506584E-3,3.2423973E-2,-1.3544603E-2,-1.5434791E-2,-4.471075E-2,-1.4923162E-2,-3.1010026E-2,4.6405625E-3,-1.7850002E-2,-4.8285037E-2,4.4212835E-3,2.1216271E-2,4.7220916E-2,4.7709869E-4,3.2209154E-2,-1.4739471E-2,-3.144507E-2,-5.1502235E-2,-2.7676782E-2,-5.2245767E-3,1.770032E-2,-8.656414E-3,-3.7712626E-2],"split_indices":[0,6,6,2,2,2,4,4,4,0,4,4,0,2,2,0,6,10,0,4,4,21,0,0,0,19,6,0,0,0,0,6,8,2,10,0,2,6,13,6,16,6,2,16,8,6,2,16,11,16,8,27,11,4,4,11,27,6,6,11,19,6,4,0,0,0,0,0,0,0,0,0,0,0,0,0,0,0,0,0,0,0,0,0,0,0,0,0,0,0,0,0,0,0,0,0,0,0,0,0,0,0,0,0,0,0,0,0,0,0,0,0,0,0,0,0,0,0,0,0,0,0,0,0,0,0,0],"split_type":[0,0,0,0,0,0,0,0,0,0,0,0,0,0,0,0,0,0,0,0,0,0,0,0,0,0,0,0,0,0,0,0,0,0,0,0,0,0,0,0,0,0,0,0,0,0,0,0,0,0,0,0,0,0,0,0,0,0,0,0,0,0,0,0,0,0,0,0,0,0,0,0,0,0,0,0,0,0,0,0,0,0,0,0,0,0,0,0,0,0,0,0,0,0,0,0,0,0,0,0,0,0,0,0,0,0,0,0,0,0,0,0,0,0,0,0,0,0,0,0,0,0,0,0,0,0,0],"sum_hessian":[8.748715E3,4.979617E3,3.769098E3,1.8461494E3,3.1334678E3,1.5610902E3,2.2080076E3,9.618011E2,8.843483E2,1.6960585E3,1.4374093E3,1.0848934E3,4.7619675E2,8.8427997E2,1.3237277E3,5.488497E2,4.1295142E2,2.691216E2,6.1522675E2,8.239806E2,8.720779E2,7.5496783E2,6.824414E2,3.7946967E2,7.0542377E2,1.9518086E2,2.810159E2,2.5521788E2,6.290621E2,8.143214E2,5.0940625E2,3.5969547E2,1.891542E2,1.7611493E2,2.3683649E2,1.3886992E2,1.3025171E2,2.954977E2,3.19729E2,4.180922E2,4.058884E2,4.9751688E2,3.7456097E2,5.151129E2,2.3985493E2,4.290442E2,2.533972E2,4.793126E1,3.3153842E2,3.8661713E2,3.1880667E2,1.3978748E2,5.539338E1,1.0069581E2,1.8032008E2,2.169138E2,3.830408E1,2.4107298E2,3.8798914E2,6.4886383E2,1.6545763E2,2.5486623E2,2.5454002E2,2.8123783E1,3.315717E2,1.3438052E2,5.4773685E1,7.035992E1,1.0575501E2,1.20006546E2,1.1682994E2,6.834959E1,7.052034E1,5.0289417E1,7.996228E1,1.0380565E2,1.9169208E2,2.324574E2,8.72716E1,1.8060019E2,2.37492E2,3.2134177E2,8.454663E1,5.146737E1,4.4604953E2,1.1050633E2,2.6405466E2,3.9283786E2,1.2227506E2,1.2703584E1,2.2715135E2,1.1639476E2,3.126494E2,1.7713708E2,7.626012E1,3.7504524E1,1.0426736E1,1.6841968E2,1.6311873E2,2.8985797E2,9.6759155E1,6.2516074E0,3.1255505E2,1.12261154E2,2.7526325E1,2.935042E1,2.604296E1,2.0936888E1,7.975892E1,8.959785E1,9.072223E1,1.1098808E2,1.0592572E2,3.2328472E1,5.9756093E0,2.1793172E2,2.3141258E1,3.3251672E2,5.5472412E1,3.4421808E2,3.0464575E2,1.23661606E2,4.1796017E1,1.01638954E2,1.5322726E2,1.9849802E2,5.6042004E1],"tree_param":{"num_deleted":"0","num_feature":"30","num_nodes":"127","size_leaf_vector":"1"}},{"base_weights":[-8.3132763E-4,3.3150074E-1,-3.2089877E-1,7.1559116E-2,5.3414786E-1,-4.8802927E-1,-1.1681455E-2,-1.1554111E-1,2.733635E-1,6.697104E-1,3.5170513E-1,-6.985201E-1,-2.8503668E-1,2.091028E-1,-2.1255128E-1,-8.726954E-3,-5.230568E-1,5.3873263E-2,4.2089978E-1,5.4969805E-1,8.366519E-1,2.0860675E-1,6.409324E-1,-5.599559E-1,-9.228915E-1,-1.0107133E-1,-5.2890736E-1,1.2080076E-1,6.804104E-1,4.9377818E-2,-4.2279455E-1,-1.5262207E-1,1.5681325E-1,-1.8961956E-1,-7.04798E-1,1.1779646E-1,-4.8480278E-1,7.619136E-1,3.1070447E-1,7.601317E-1,4.6882167E-1,9.795245E-1,6.8466204E-1,3.4006342E-1,-9.214316E-2,4.3928745E-1,8.921344E-1,-2.7964562E-1,-6.9102937E-1,-1.1204983E0,-7.6782656E-1,4.104084E-2,-3.919045E-1,-3.396534E-1,-7.0982814E-1,3.6069646E-1,-2.7266381E-2,7.456394E-1,-2.768461E-1,-1.9784486E-1,1.7963533E-1,-7.398337E-1,-2.864131E-1,-1.4757145E-3,-2.0303154E-2,2.1491118E-2,-1.5390271E-4,3.7486456E-2,-1.481353E-2,-2.290721E-2,-4.893707E-2,1.5610598E-2,-2.8622525E-3,-4.8008054E-3,-5.1217195E-2,4.125548E-2,2.2727925E-2,-3.0685146E-3,2.109616E-2,2.5844485E-2,4.4092663E-2,3.5413448E-2,1.9346867E-2,5.407834E-2,3.7344526E-2,4.164577E-2,2.618883E-2,2.48555E-2,7.5809523E-3,-1.8575044E-2,6.8883966E-3,3.253172E-2,9.698822E-3,5.0283957E-2,2.7535537E-2,-2.9664377E-2,-6.364701E-3,-4.4771172E-2,-2.9150857E-2,-5.0776687E-2,-6.5006405E-2,-1.270428E-2,-4.302903E-2,-7.4900487E-3,1.5309704E-2,-3.329021E-2,-1.3142643E-2,-2.443845E-2,-4.254398E-3,-4.722867E-2,-2.8028652E-2,-1.1175676E-2,2.3991548E-2,1.0477795E-2,-9.620542E-3,5.2395273E-2,2.579774E-2,-4.0244106E-2,1.7117424E-2,-1.3679886E-2,2.0812081E-2,1.5023601E-2,-3.637926E-4,-2.6349325E-2,-4.5604214E-2,-7.998995E-3,-3.178915E-2],"categories":[],"categories_nodes":[],"categories_segments":[],"categories_sizes":[],"default_left":[0,0,0,0,0,0,0,0,0,0,0,0,0,0,0,0,0,0,0,0,0,0,0,0,0,0,0,0,0,0,0,0,0,0,0,0,0,0,0,0,0,0,0,0,0,0,0,0,0,0,0,0,0,0,0,0,0,0,0,0,0,0,0,0,0,0,0,0,0,0,0,0,0,0,0,0,0,0,0,0,0,0,0,0,0,0,0,0,0,0,0,0,0,0,0,0,0,0,0,0,0,0,0,0,0,0,0,0,0,0,0,0,0,0,0,0,0,0,0,0,0,0,0,0,0,0,0],"id":10,"left_children":[1,3,5,7,9,11,13,15,17,19,21,23,25,27,29,31,33,35,37,39,41,43,45,47,49,51,53,55,57,59,61,63,65,67,69,71,73,75,77,79,81,83,85,87,89,91,93,95,97,99,101,103,105,107,109,111,113,115,117,119,121,123,125,-1,-1,-1,-1,-1,-1,-1,-1,-1,-1,-1,-1,-1,-1,-1,-1,-1,-1,-1,-1,-1,-1,-1,-1,-1,-1,-1,-1,-1,-1,-1,-1,-1,-1,-1,-1,-1,-1,-1,-1,-1,-1,-1,-1,-1,-1,-1,-1,-1,-1,-1,-1,-1,-1,-1,-1,-1,-1,-1,-1,-1,-1,-1,-1],"loss_changes":[9.2388513E2,2.2442667E2,2.2865018E2,7.055787E1,5.8982117E1,1.225199E2,6.893563E1,4.2215767E1,2.9086845E1,2.7039185E1,4.2197388E1,4.3298706E1,6.561713E1,3.0736202E1,4.483998E1,1.835446E1,1.2072163E1,1.253912E1,1.9958794E1,1.3283173E1,1.1753113E1,2.7142103E1,1.6731888E1,3.1911224E1,1.5579559E1,3.4552376E1,2.1301819E1,2.2206167E1,7.4890327E0,1.1734351E1,1.931392E1,1.284845E1,1.5643661E1,7.477648E0,8.335266E0,1.1072557E1,8.008763E0,2.1609497E0,1.6904015E1,6.0842514E0,1.112809E1,6.1376953E0,6.2550964E0,1.4052399E1,1.349742E1,9.698353E0,5.244179E0,1.3308083E1,1.2607452E1,3.0864258E0,1.4257614E1,2.8495829E1,9.523479E0,1.1704002E1,1.0708649E1,1.6710882E1,1.5188577E1,7.058834E0,2.9466999E0,5.9676185E0,5.387791E0,4.47612E0,1.3917957E1,0E0,0E0,0E0,0E0,0E0,0E0,0E0,0E0,0E0,0E0,0E0,0E0,0E0,0E0,0E0,0E0,0E0,0E0,0E0,0E0,0E0,0E0,0E0,0E0,0E0,0E0,0E0,0E0,0E0,0E0,0E0,0E0,0E0,0E0,0E0,0E0,0E0,0E0,0E0,0E0,0E0,0E0,0E0,0E0,0E0,0E0,0E0,0E0,0E0,0E0,0E0,0E0,0E0,0E0,0E0,0E0,0E0,0E0,0E0,0E0,0E0,0E0,0E0,0E0],"parents":[2147483647,0,0,1,1,2,2,3,3,4,4,5,5,6,6,7,7,8,8,9,9,10,10,11,11,12,12,13,13,14,14,15,15,16,16,17,17,18,18,19,19,20,20,21,21,22,22,23,23,24,24,25,25,26,26,27,27,28,28,29,29,30,30,31,31,32,32,33,33,34,34,35,35,36,36,37,37,38,38,39,39,40,40,41,41,42,42,43,43,44,44,45,45,46,46,47,47,48,48,49,49,50,50,51,51,52,52,53,53,54,54,55,55,56,56,57,57,58,58,59,59,60,60,61,61,62,62],"right_children":[2,4,6,8,10,12,14,16,18,20,22,24,26,28,30,32,34,36,38,40,42,44,46,48,50,52,54,56,58,60,62,64,66,68,70,72,74,76,78,80,82,84,86,88,90,92,94,96,98,100,102,104,106,108,110,112,114,116,118,120,122,124,126,-1,-1,-1,-1,-1,-1,-1,-1,-1,-1,-1,-1,-1,-1,-1,-1,-1,-1,-1,-1,-1,-1,-1,-1,-1,-1,-1,-1,-1,-1,-1,-1,-1,-1,-1,-1,-1,-1,-1,-1,-1,-1,-1,-1,-1,-1,-1,-1,-1,-1,-1,-1,-1,-1,-1,-1,-1,-1,-1,-1,-1,-1,-1,-1],"split_conditions":[3.9E1,1.382E1,1.811E1,1.4571E5,6.2E1,1.33953E5,5.2E1,9E1,7.23E0,1.56197E5,1.8086E5,5.7E1,5.5E1,2.18686E5,4.9E1,8.68E0,2.5E1,7.97E2,2.2E1,2.3E1,2.8E1,3.2E1,2.045E1,3.3E1,9.37E0,7.6E1,5.4E1,3.9E1,8.17E2,1.01354E5,8.4236E4,1E0,2.5E1,3.41E2,1E0,5.1E1,3E1,1E0,3E-1,4.1E-1,4.31E2,1E0,5.82E2,1E0,1.935E1,1E0,1.03E2,8.26E0,8.07E0,1E0,1.8E1,1.179E1,7.76E0,1.276E1,1.81879E5,4.687E4,5.16E2,4.5E-1,2.31125E5,8E-1,2.8E1,6E1,1E2,-1.4757145E-3,-2.0303154E-2,2.1491118E-2,-1.5390271E-4,3.7486456E-2,-1.481353E-2,-2.290721E-2,-4.893707E-2,1.5610598E-2,-2.8622525E-3,-4.8008054E-3,-5.1217195E-2,4.125548E-2,2.2727925E-2,-3.0685146E-3,2.109616E-2,2.5844485E-2,4.4092663E-2,3.5413448E-2,1.9346867E-2,5.407834E-2,3.7344526E-2,4.164577E-2,2.618883E-2,2.48555E-2,7.5809523E-3,-1.8575044E-2,6.8883966E-3,3.253172E-2,9.698822E-3,5.0283957E-2,2.7535537E-2,-2.9664377E-2,-6.364701E-3,-4.4771172E-2,-2.9150857E-2,-5.0776687E-2,-6.5006405E-2,-1.270428E-2,-4.302903E-2,-7.4900487E-3,1.5309704E-2,-3.329021E-2,-1.3142643E-2,-2.443845E-2,-4.254398E-3,-4.722867E-2,-2.8028652E-2,-1.1175676E-2,2.3991548E-2,1.0477795E-2,-9.620542E-3,5.2395273E-2,2.579774E-2,-4.0244106E-2,1.7117424E-2,-1.3679886E-2,2.0812081E-2,1.5023601E-2,-3.637926E-4,-2.6349325E-2,-4.5604214E-2,-7.998995E-3,-3.178915E-2],"split_indices":[0,6,6,2,4,2,0,4,6,2,2,0,0,2,4,6,0,3,4,0,0,0,6,4,6,4,4,4,3,2,2,21,0,3,11,4,0,26,8,8,3,21,3,11,6,11,4,6,6,21,4,6,6,6,2,2,3,8,2,8,4,0,4,0,0,0,0,0,0,0,0,0,0,0,0,0,0,0,0,0,0,0,0,0,0,0,0,0,0,0,0,0,0,0,0,0,0,0,0,0,0,0,0,0,0,0,0,0,0,0,0,0,0,0,0,0,0,0,0,0,0,0,0,0,0,0,0],"split_type":[0,0,0,0,0,0,0,0,0,0,0,0,0,0,0,0,0,0,0,0,0,0,0,0,0,0,0,0,0,0,0,0,0,0,0,0,0,0,0,0,0,0,0,0,0,0,0,0,0,0,0,0,0,0,0,0,0,0,0,0,0,0,0,0,0,0,0,0,0,0,0,0,0,0,0,0,0,0,0,0,0,0,0,0,0,0,0,0,0,0,0,0,0,0,0,0,0,0,0,0,0,0,0,0,0,0,0,0,0,0,0,0,0,0,0,0,0,0,0,0,0,0,0,0,0,0,0],"sum_hessian":[8.683688E3,4.260203E3,4.4234854E3,1.8668677E3,2.3933352E3,2.871094E3,1.5523911E3,9.68948E2,8.9791974E2,1.3715475E3,1.0217878E3,1.4083158E3,1.4627783E3,7.3951685E2,8.1287427E2,7.6852966E2,2.0041832E2,3.61492E2,5.3642773E2,8.004245E2,5.71123E2,6.847309E2,3.370569E2,8.727997E2,5.3551605E2,8.3460394E2,6.281743E2,6.2388495E2,1.1563193E2,3.6228763E2,4.5058664E2,4.11186E2,3.5734366E2,7.142307E1,1.2899524E2,3.238437E2,3.764831E1,1.295632E2,4.0686453E2,2.1989017E2,5.8053436E2,2.9158466E2,2.7953833E2,4.7637738E2,2.083535E2,1.8849606E2,1.4856082E2,2.790864E2,5.937133E2,2.3272157E2,3.0279446E2,5.612263E2,2.7337766E2,3.0842288E2,3.1975143E2,2.3755943E2,3.8632553E2,1.084622E2,7.1697273E0,1.24835945E2,2.3745168E2,1.3419815E2,3.163885E2,2.7750546E2,1.3368054E2,1.3136096E2,2.259827E2,6.667561E0,6.475551E1,6.928482E1,5.971042E1,1.5305954E2,1.7078415E2,2.2565702E1,1.508261E1,1.0606946E2,2.3493746E1,9.373353E1,3.13131E2,7.5086876E1,1.4480328E2,1.4598715E2,4.3454718E2,2.0014433E2,9.144034E1,1.433066E2,1.3623174E2,2.589416E2,2.1743579E2,9.378385E1,1.1456965E2,1.00370186E2,8.812588E1,1.1002508E2,3.853574E1,9.029808E1,1.887883E2,2.0275163E2,3.909617E2,1.5108829E2,8.163329E1,4.6879597E1,2.5591487E2,3.2659634E2,2.3462994E2,8.622154E1,1.8715611E2,1.939145E2,1.14508385E2,1.2221138E2,1.9754005E2,4.0090088E1,1.9746935E2,1.5860791E2,2.2771762E2,4.529344E1,6.3168755E1,3.7078588E0,3.4618685E0,1.11621E2,1.3214944E1,1.4384766E2,9.360401E1,6.184128E1,7.2356865E1,2.3338638E2,8.3002106E1],"tree_param":{"num_deleted":"0","num_feature":"30","num_nodes":"127","size_leaf_vector":"1"}},{"base_weights":[3.4998371E-3,3.0807844E-1,-2.9423448E-1,9.690264E-2,5.3832245E-1,1.4549167E-1,-4.2438006E-1,4.89769E-1,-3.72883E-2,4.335974E-1,7.89836E-1,-2.874226E-1,4.429171E-1,-7.647301E-1,-2.8031218E-1,-3.6268063E-2,6.69553E-1,1.13462046E-1,-3.064889E-1,5.43086E-1,1.8202043E-1,1.1470245E0,6.574198E-1,-5.338696E-1,6.573673E-2,6.417768E-1,1.126284E-1,-5.683093E-1,-8.743663E-1,-9.382753E-2,-4.6443692E-1,1.1588616E-1,-3.492306E-1,8.30186E-1,3.8576743E-1,4.3710306E-1,-1.0448444E-2,-5.2738434E-1,-1.3536088E-1,1.1465538E0,5.0719714E-1,4.800202E-1,1.4352916E-2,1.3017366E0,1.0137347E0,7.751347E-1,3.9824757E-1,-8.3724487E-1,-2.9883286E-1,-1.8128152E-1,3.6407655E-1,8.964412E-1,4.368018E-1,4.5178965E-1,-9.4524175E-2,-3.4470403E-1,-7.777088E-1,-9.7905266E-1,-6.490679E-1,-2.5477326E-1,9.605678E-2,-2.7876866E-1,-6.5849197E-1,1.1231094E-2,-1.7750248E-2,-3.499553E-2,8.952123E-3,9.601742E-3,4.3826006E-2,9.377878E-3,4.642411E-2,8.4385015E-3,2.9853383E-2,-1.569665E-2,5.7683242E-3,-1.6802408E-2,-3.645061E-2,2.706085E-3,-1.7511515E-2,3.2916736E-2,6.2119808E-2,3.259824E-2,1.8936817E-2,-1.1530149E-2,2.8609147E-2,1.5473388E-2,-9.841806E-3,2.5253007E-2,6.660504E-2,5.260967E-2,5.3752516E-3,4.402888E-2,1.7458512E-2,2.828665E-2,3.5338213E-3,-3.487548E-2,-6.36719E-2,-3.2760773E-2,-4.0758145E-3,8.435181E-3,-2.6450772E-2,2.7109507E-2,-2.1719879E-2,2.7790597E-2,5.3138565E-2,1.3132172E-2,3.918597E-2,3.6923226E-2,4.717913E-3,1.1179914E-3,-4.498049E-2,-7.824483E-3,-2.9290607E-2,-3.096479E-2,-4.6881814E-2,-3.2904543E-2,-5.1421314E-2,-1.5459815E-2,-3.8666163E-2,1.2067108E-3,-2.0088311E-2,1.3152018E-2,-4.4975206E-3,-4.057082E-3,-2.3340864E-2,-2.9691214E-2,-5.0670452E-2],"categories":[],"categories_nodes":[],"categories_segments":[],"categories_sizes":[],"default_left":[0,0,0,0,0,0,0,0,0,0,0,0,0,0,0,0,0,0,0,0,0,0,0,0,0,0,0,0,0,0,0,0,0,0,0,0,0,0,0,0,0,0,0,0,0,0,0,0,0,0,0,0,0,0,0,0,0,0,0,0,0,0,0,0,0,0,0,0,0,0,0,0,0,0,0,0,0,0,0,0,0,0,0,0,0,0,0,0,0,0,0,0,0,0,0,0,0,0,0,0,0,0,0,0,0,0,0,0,0,0,0,0,0,0,0,0,0,0,0,0,0,0,0,0,0,0,0],"id":11,"left_children":[1,3,5,7,9,11,13,15,17,19,21,23,25,27,29,31,33,35,37,39,41,43,45,47,49,51,53,55,57,59,61,63,65,67,69,71,73,75,77,79,81,83,85,87,89,91,93,95,97,99,101,103,105,107,109,111,113,115,117,119,121,123,125,-1,-1,-1,-1,-1,-1,-1,-1,-1,-1,-1,-1,-1,-1,-1,-1,-1,-1,-1,-1,-1,-1,-1,-1,-1,-1,-1,-1,-1,-1,-1,-1,-1,-1,-1,-1,-1,-1,-1,-1,-1,-1,-1,-1,-1,-1,-1,-1,-1,-1,-1,-1,-1,-1,-1,-1,-1,-1,-1,-1,-1,-1,-1,-1],"loss_changes":[7.9125946E2,2.0966275E2,2.525727E2,1.186871E2,5.4001892E1,1.2997119E2,1.6674054E2,5.423123E1,6.8163536E1,4.008612E1,2.7875763E1,3.583071E1,3.9214363E1,2.1297546E1,8.215294E1,7.037811E0,1.9155136E1,4.3190235E1,2.2719353E1,2.142273E1,2.217229E1,2.028656E0,1.3235397E1,1.7030151E1,1.2589182E1,1.9086334E1,1.59211235E1,1.6840866E1,1.4640045E1,3.6409264E1,4.3207153E1,5.1808586E0,9.076761E0,7.8724976E0,1.6638008E1,1.2697899E1,2.9807783E1,9.894997E0,1.3905218E1,1.8135605E0,1.7620346E1,1.0597572E1,1.7829647E1,1.0598602E0,3.0843124E0,1.3356964E1,7.680193E0,5.526184E0,1.0642775E1,1.1484086E1,1.1229407E1,8.783234E0,1.240292E1,8.728991E0,1.3300911E1,8.0086975E0,4.1796036E0,6.299469E0,8.563263E0,2.6438938E1,1.7010578E1,2.2898773E1,1.2896408E1,0E0,0E0,0E0,0E0,0E0,0E0,0E0,0E0,0E0,0E0,0E0,0E0,0E0,0E0,0E0,0E0,0E0,0E0,0E0,0E0,0E0,0E0,0E0,0E0,0E0,0E0,0E0,0E0,0E0,0E0,0E0,0E0,0E0,0E0,0E0,0E0,0E0,0E0,0E0,0E0,0E0,0E0,0E0,0E0,0E0,0E0,0E0,0E0,0E0,0E0,0E0,0E0,0E0,0E0,0E0,0E0,0E0,0E0,0E0,0E0,0E0,0E0,0E0,0E0],"parents":[2147483647,0,0,1,1,2,2,3,3,4,4,5,5,6,6,7,7,8,8,9,9,10,10,11,11,12,12,13,13,14,14,15,15,16,16,17,17,18,18,19,19,20,20,21,21,22,22,23,23,24,24,25,25,26,26,27,27,28,28,29,29,30,30,31,31,32,32,33,33,34,34,35,35,36,36,37,37,38,38,39,39,40,40,41,41,42,42,43,43,44,44,45,45,46,46,47,47,48,48,49,49,50,50,51,51,52,52,53,53,54,54,55,55,56,56,57,57,58,58,59,59,60,60,61,61,62,62],"right_children":[2,4,6,8,10,12,14,16,18,20,22,24,26,28,30,32,34,36,38,40,42,44,46,48,50,52,54,56,58,60,62,64,66,68,70,72,74,76,78,80,82,84,86,88,90,92,94,96,98,100,102,104,106,108,110,112,114,116,118,120,122,124,126,-1,-1,-1,-1,-1,-1,-1,-1,-1,-1,-1,-1,-1,-1,-1,-1,-1,-1,-1,-1,-1,-1,-1,-1,-1,-1,-1,-1,-1,-1,-1,-1,-1,-1,-1,-1,-1,-1,-1,-1,-1,-1,-1,-1,-1,-1,-1,-1,-1,-1,-1,-1,-1,-1,-1,-1,-1,-1,-1,-1,-1,-1,-1,-1],"split_conditions":[3.9E1,1.582E1,3.9187E4,4.1601E4,1.88087E5,1.32882E5,9.84E0,9.1227E4,7E1,3.2E1,3.9656E4,1.696E1,5.6E1,4.9E1,5.3E1,3.1E1,7E1,2.3E1,1.20529E5,1.9736E4,3.6E1,5.33E2,7.7E1,6.5156E4,8.5141E4,4.5E1,2.2813E4,5.4E1,1.72947E5,1.888E1,5.6E1,1E0,5.7678E4,3.17E0,2.12037E5,7.97E0,6.6E0,2.8E1,1E0,6.5156E4,4.9E1,2.1E-1,6.3866E4,3.15E2,1.14E2,1E0,3.1E1,1E0,7.97E0,5.2E1,1E2,1.12E1,1.862E1,5.98E2,1.05E2,1E0,1E0,1.5E1,6.6211E4,3.4E1,5.7E1,9.2586E4,7.63E2,1.1231094E-2,-1.7750248E-2,-3.499553E-2,8.952123E-3,9.601742E-3,4.3826006E-2,9.377878E-3,4.642411E-2,8.4385015E-3,2.9853383E-2,-1.569665E-2,5.7683242E-3,-1.6802408E-2,-3.645061E-2,2.706085E-3,-1.7511515E-2,3.2916736E-2,6.2119808E-2,3.259824E-2,1.8936817E-2,-1.1530149E-2,2.8609147E-2,1.5473388E-2,-9.841806E-3,2.5253007E-2,6.660504E-2,5.260967E-2,5.3752516E-3,4.402888E-2,1.7458512E-2,2.828665E-2,3.5338213E-3,-3.487548E-2,-6.36719E-2,-3.2760773E-2,-4.0758145E-3,8.435181E-3,-2.6450772E-2,2.7109507E-2,-2.1719879E-2,2.7790597E-2,5.3138565E-2,1.3132172E-2,3.918597E-2,3.6923226E-2,4.717913E-3,1.1179914E-3,-4.498049E-2,-7.824483E-3,-2.9290607E-2,-3.096479E-2,-4.6881814E-2,-3.2904543E-2,-5.1421314E-2,-1.5459815E-2,-3.8666163E-2,1.2067108E-3,-2.0088311E-2,1.3152018E-2,-4.4975206E-3,-4.057082E-3,-2.3340864E-2,-2.9691214E-2,-5.0670452E-2],"split_indices":[0,6,1,1,2,2,6,2,4,0,1,6,0,0,0,0,4,0,2,1,4,3,4,2,2,4,1,4,2,6,4,26,2,6,2,6,6,0,10,2,4,8,1,3,4,26,0,14,6,0,4,6,6,3,4,11,10,4,1,4,4,1,3,0,0,0,0,0,0,0,0,0,0,0,0,0,0,0,0,0,0,0,0,0,0,0,0,0,0,0,0,0,0,0,0,0,0,0,0,0,0,0,0,0,0,0,0,0,0,0,0,0,0,0,0,0,0,0,0,0,0,0,0,0,0,0,0],"split_type":[0,0,0,0,0,0,0,0,0,0,0,0,0,0,0,0,0,0,0,0,0,0,0,0,0,0,0,0,0,0,0,0,0,0,0,0,0,0,0,0,0,0,0,0,0,0,0,0,0,0,0,0,0,0,0,0,0,0,0,0,0,0,0,0,0,0,0,0,0,0,0,0,0,0,0,0,0,0,0,0,0,0,0,0,0,0,0,0,0,0,0,0,0,0,0,0,0,0,0,0,0,0,0,0,0,0,0,0,0,0,0,0,0,0,0,0,0,0,0,0,0,0,0,0,0,0,0],"sum_hessian":[8.723507E3,4.3121724E3,4.4113345E3,2.2499646E3,2.0622075E3,1.00742017E3,3.4039143E3,5.721755E2,1.6777891E3,1.4578944E3,6.0431323E2,4.1027808E2,5.971421E2,1.0110569E3,2.3928574E3,1.4594562E2,4.2622986E2,1.0758817E3,6.019073E2,1.0149989E3,4.4289548E2,1.613674E2,4.429458E2,2.4134639E2,1.689317E2,3.7214096E2,2.2500114E2,3.6439734E2,6.4665955E2,1.1895602E3,1.2032972E3,9.862595E1,4.7319656E1,2.709416E2,1.5528828E2,2.9717215E2,7.787096E2,2.6183884E2,3.4006848E2,5.523753E1,9.5976135E2,1.5879758E2,2.840979E2,7.0625175E1,9.0742226E1,3.032295E2,1.3971631E2,1.0423814E2,1.3710825E2,9.262925E1,7.6302444E1,1.6445094E2,2.0769002E2,8.4868675E1,1.4013248E2,1.7750089E2,1.8689645E2,4.392252E2,2.0743434E2,6.436562E2,5.4590405E2,6.161821E2,5.8711505E2,8.054899E1,1.8076967E1,2.8245039E1,1.907462E1,1.868879E1,2.5225279E2,1.14731674E2,4.055662E1,1.11758156E2,1.85414E2,2.2777844E2,5.5093115E2,1.3571643E2,1.2612238E2,1.8110721E2,1.5896127E2,1.0355545E1,4.4881985E1,4.4932437E2,5.1043698E2,1.8058094E1,1.4073947E2,1.1830856E2,1.6578935E2,3.2403517E0,6.738482E1,8.689356E1,3.8486652E0,2.4220662E2,6.1022873E1,9.1966995E1,4.7749317E1,8.091572E1,2.3322414E1,5.1173153E1,8.59351E1,4.6421783E1,4.620747E1,6.264856E1,1.3653886E1,5.5379765E1,1.0907118E2,1.3944394E2,6.8246086E1,4.6504276E1,3.83644E1,1.2321595E2,1.6916521E1,1.0061084E2,7.689004E1,9.6340546E1,9.05559E1,6.0468452E1,3.7875674E2,5.6467934E1,1.5096642E2,2.2243643E2,4.2121976E2,2.874439E2,2.5846014E2,3.011375E2,3.1504462E2,4.9888824E2,8.822682E1],"tree_param":{"num_deleted":"0","num_feature":"30","num_nodes":"127","size_leaf_vector":"1"}},{"base_weights":[-8.012013E-3,2.8852484E-1,-2.924213E-1,6.5705997E-1,1.790822E-1,1.3894342E-1,-4.0847173E-1,3.194297E-1,8.878375E-1,3.2127553E-1,2.9661631E-2,-2.9274666E-1,4.4373617E-1,-2.3411527E-1,-5.788164E-1,1.5988977E-1,4.9704927E-1,1.0682019E0,7.5102663E-1,4.1587523E-1,1.0901788E-1,-6.772867E-2,2.619388E-1,-6.316678E-1,-3.0720655E-2,5.9779155E-1,9.420314E-2,-8.161375E-2,-3.9777187E-1,-7.763664E-1,-4.875989E-1,6.6175723E-1,9.844485E-2,6.145161E-1,7.8297354E-2,1.1369385E0,7.508055E-1,5.4599863E-1,8.9711916E-1,2.942262E-1,5.6632596E-1,-1.2418667E-1,2.0895413E-1,-1.5597011E-1,8.346976E-2,4.8487684E-1,1.2681171E-1,-1.548142E-1,-8.0170435E-1,1.7652409E-1,-3.123489E-1,8.848879E-1,4.1138557E-1,4.940374E-2,3.4468222E-2,-3.784743E-1,-5.3547723E-3,-4.7048834E-1,-1.9352728E-1,-6.39534E-1,-9.1625893E-1,-2.7550644E-1,-6.182985E-1,-2.1072181E-3,4.2360507E-2,-4.603448E-4,1.8694164E-2,1.0358976E-2,3.731292E-2,3.184194E-2,-1.8062284E-2,6.3467264E-2,5.0893623E-2,4.0286865E-2,-1.5241328E-3,3.578701E-2,1.2732503E-2,4.6163533E-2,1.3475207E-2,2.0079741E-2,4.714723E-3,3.38629E-2,2.1478055E-2,7.0403996E-3,-2.0126874E-2,1.2067732E-2,-3.758881E-2,-1.1996417E-2,4.139014E-3,1.1057563E-2,-3.3124879E-3,3.0238463E-2,3.0591865E-3,1.4822918E-2,-2.8230834E-3,-1.6760146E-2,1.7919553E-2,-5.8869857E-2,-3.495586E-2,-2.6329514E-3,1.8775744E-2,-6.278256E-2,-1.0142831E-2,3.3149254E-2,5.3187646E-2,1.351912E-2,4.168942E-2,-9.630179E-3,1.2095822E-2,-8.31899E-3,-2.6634295E-2,7.5001568E-3,-8.74013E-3,-1.7370535E-2,-3.0481866E-2,1.7762437E-2,-1.3304437E-2,-2.7196014E-2,-4.4784497E-2,-5.4545052E-2,-4.087987E-2,-5.817134E-3,-2.2443166E-2,-2.458772E-2,-3.848022E-2],"categories":[],"categories_nodes":[],"categories_segments":[],"categories_sizes":[],"default_left":[0,0,0,0,0,0,0,0,0,0,0,0,0,0,0,0,0,0,0,0,0,0,0,0,0,0,0,0,0,0,0,0,0,0,0,0,0,0,0,0,0,0,0,0,0,0,0,0,0,0,0,0,0,0,0,0,0,0,0,0,0,0,0,0,0,0,0,0,0,0,0,0,0,0,0,0,0,0,0,0,0,0,0,0,0,0,0,0,0,0,0,0,0,0,0,0,0,0,0,0,0,0,0,0,0,0,0,0,0,0,0,0,0,0,0,0,0,0,0,0,0,0,0,0,0],"id":12,"left_children":[1,3,5,7,9,11,13,15,17,19,21,23,25,27,29,31,33,35,37,39,41,43,45,47,49,51,53,55,57,59,61,63,65,67,69,71,73,75,77,79,81,83,85,87,89,91,93,95,97,99,101,103,105,-1,107,109,111,113,115,117,119,121,123,-1,-1,-1,-1,-1,-1,-1,-1,-1,-1,-1,-1,-1,-1,-1,-1,-1,-1,-1,-1,-1,-1,-1,-1,-1,-1,-1,-1,-1,-1,-1,-1,-1,-1,-1,-1,-1,-1,-1,-1,-1,-1,-1,-1,-1,-1,-1,-1,-1,-1,-1,-1,-1,-1,-1,-1,-1,-1,-1,-1,-1,-1],"loss_changes":[7.3043506E2,1.7089722E2,2.2136212E2,7.533252E1,6.947882E1,1.23540596E2,1.033374E2,1.1130169E1,1.3408264E1,3.3602036E1,3.611843E1,3.4505684E1,2.9569107E1,4.297827E1,3.1364075E1,6.406627E0,9.13596E0,4.514099E0,9.420197E0,2.1041122E1,1.2097113E1,1.5025427E1,1.4147026E1,1.3616188E1,1.2913655E1,2.0062119E1,9.016106E0,2.0221367E1,1.2251007E1,1.0032959E1,3.33096E1,3.001236E0,5.582409E0,7.6620674E0,1.0552791E1,1.8656311E0,2.030613E0,6.7518616E0,2.896515E0,1.3760437E1,7.5523224E0,1.1563718E1,1.1479354E1,1.4269428E1,8.576002E0,8.986618E0,9.189222E0,4.358508E0,3.9821243E0,5.836891E0,9.428707E0,5.2240906E0,1.3669388E1,0E0,7.5793676E0,5.8826256E0,1.8763378E1,1.0271561E1,8.8501625E0,6.462517E0,3.7947235E0,1.27036705E1,1.3914032E1,0E0,0E0,0E0,0E0,0E0,0E0,0E0,0E0,0E0,0E0,0E0,0E0,0E0,0E0,0E0,0E0,0E0,0E0,0E0,0E0,0E0,0E0,0E0,0E0,0E0,0E0,0E0,0E0,0E0,0E0,0E0,0E0,0E0,0E0,0E0,0E0,0E0,0E0,0E0,0E0,0E0,0E0,0E0,0E0,0E0,0E0,0E0,0E0,0E0,0E0,0E0,0E0,0E0,0E0,0E0,0E0,0E0,0E0,0E0,0E0,0E0,0E0],"parents":[2147483647,0,0,1,1,2,2,3,3,4,4,5,5,6,6,7,7,8,8,9,9,10,10,11,11,12,12,13,13,14,14,15,15,16,16,17,17,18,18,19,19,20,20,21,21,22,22,23,23,24,24,25,25,26,26,27,27,28,28,29,29,30,30,31,31,32,32,33,33,34,34,35,35,36,36,37,37,38,38,39,39,40,40,41,41,42,42,43,43,44,44,45,45,46,46,47,47,48,48,49,49,50,50,51,51,52,52,54,54,55,55,56,56,57,57,58,58,59,59,60,60,61,61,62,62],"right_children":[2,4,6,8,10,12,14,16,18,20,22,24,26,28,30,32,34,36,38,40,42,44,46,48,50,52,54,56,58,60,62,64,66,68,70,72,74,76,78,80,82,84,86,88,90,92,94,96,98,100,102,104,106,-1,108,110,112,114,116,118,120,122,124,-1,-1,-1,-1,-1,-1,-1,-1,-1,-1,-1,-1,-1,-1,-1,-1,-1,-1,-1,-1,-1,-1,-1,-1,-1,-1,-1,-1,-1,-1,-1,-1,-1,-1,-1,-1,-1,-1,-1,-1,-1,-1,-1,-1,-1,-1,-1,-1,-1,-1,-1,-1,-1,-1,-1,-1,-1,-1,-1,-1,-1,-1],"split_conditions":[3.9E1,3.8675E4,3.7135E4,1.27266E5,2.8E1,1.32882E5,5.3E1,7.588E4,2.3935E4,1E0,1.85317E5,6.6215E4,5.8E1,1E0,8.4236E4,2E1,6E1,7.39E2,1.86215E5,1.49461E5,8.7035E4,1E0,7.4513E4,4.7E1,2.7167E4,2.1673E4,1.5558E4,5.8742E4,1E0,1E0,7.828E4,2.5E-1,1E0,2E0,5.22E2,1.8557E4,8.6E-1,6.34E2,2.46856E5,6.45E2,1E0,1E0,8.28E2,4E0,1E0,7.24E2,1E0,7.2E-1,4.01E2,3E0,2.8124E4,1.98419E5,6.9E-1,4.940374E-2,1.97575E5,5.24E2,9.3064E4,1E0,3.62E2,6.5E1,3.0538E4,1E0,5.9E2,-2.1072181E-3,4.2360507E-2,-4.603448E-4,1.8694164E-2,1.0358976E-2,3.731292E-2,3.184194E-2,-1.8062284E-2,6.3467264E-2,5.0893623E-2,4.0286865E-2,-1.5241328E-3,3.578701E-2,1.2732503E-2,4.6163533E-2,1.3475207E-2,2.0079741E-2,4.714723E-3,3.38629E-2,2.1478055E-2,7.0403996E-3,-2.0126874E-2,1.2067732E-2,-3.758881E-2,-1.1996417E-2,4.139014E-3,1.1057563E-2,-3.3124879E-3,3.0238463E-2,3.0591865E-3,1.4822918E-2,-2.8230834E-3,-1.6760146E-2,1.7919553E-2,-5.8869857E-2,-3.495586E-2,-2.6329514E-3,1.8775744E-2,-6.278256E-2,-1.0142831E-2,3.3149254E-2,5.3187646E-2,1.351912E-2,4.168942E-2,-9.630179E-3,1.2095822E-2,-8.31899E-3,-2.6634295E-2,7.5001568E-3,-8.74013E-3,-1.7370535E-2,-3.0481866E-2,1.7762437E-2,-1.3304437E-2,-2.7196014E-2,-4.4784497E-2,-5.4545052E-2,-4.087987E-2,-5.817134E-3,-2.2443166E-2,-2.458772E-2,-3.848022E-2],"split_indices":[0,1,1,2,0,2,0,2,1,21,2,2,0,11,2,0,7,3,2,2,2,28,1,0,1,1,1,2,19,11,1,8,19,5,3,1,8,3,2,3,10,10,3,5,11,3,10,8,3,5,1,2,8,0,2,3,1,9,3,0,2,11,3,0,0,0,0,0,0,0,0,0,0,0,0,0,0,0,0,0,0,0,0,0,0,0,0,0,0,0,0,0,0,0,0,0,0,0,0,0,0,0,0,0,0,0,0,0,0,0,0,0,0,0,0,0,0,0,0,0,0,0,0,0,0],"split_type":[0,0,0,0,0,0,0,0,0,0,0,0,0,0,0,0,0,0,0,0,0,0,0,0,0,0,0,0,0,0,0,0,0,0,0,0,0,0,0,0,0,0,0,0,0,0,0,0,0,0,0,0,0,0,0,0,0,0,0,0,0,0,0,0,0,0,0,0,0,0,0,0,0,0,0,0,0,0,0,0,0,0,0,0,0,0,0,0,0,0,0,0,0,0,0,0,0,0,0,0,0,0,0,0,0,0,0,0,0,0,0,0,0,0,0,0,0,0,0,0,0,0,0,0,0],"sum_hessian":[8.658823E3,4.239026E3,4.419797E3,9.6946454E2,3.2695613E3,9.369423E2,3.4828547E3,3.9457736E2,5.748872E2,1.6747069E3,1.5948542E3,3.877691E2,5.491732E2,1.7223333E3,1.7605215E3,2.0886902E2,1.8570833E2,2.4503621E2,3.2985098E2,1.1577555E3,5.169515E2,1.1242019E3,4.7065237E2,1.6846063E2,2.1930846E2,3.8067978E2,1.6849347E2,8.9232715E2,8.300061E2,5.537509E2,1.2067706E3,2.1717306E1,1.8715172E2,1.4466104E2,4.104729E1,1.9929424E2,4.5741974E1,1.3921387E2,1.906371E2,6.417861E2,5.159694E2,1.5500336E2,3.6194812E2,7.098767E2,4.143252E2,1.7663867E2,2.940137E2,4.4782433E1,1.236782E2,1.26553444E2,9.275501E1,1.4838895E2,2.3229083E2,9.581104E0,1.5891235E2,1.8156577E2,7.1076135E2,6.111257E2,2.1888043E2,2.8275385E2,2.7099707E2,4.613019E2,7.454686E2,4.6897445E0,1.7027561E1,1.3525537E2,5.189634E1,3.598158E1,1.0867946E2,1.7879002E1,2.3168287E1,8.978656E1,1.09507675E2,4.270792E1,3.0340538E0,8.704454E1,5.2169334E1,1.8255914E2,8.077964E0,4.1689417E2,2.2489188E2,2.8270834E2,2.3326108E2,7.965991E1,7.5343445E1,3.5086404E2,1.108407E1,5.2518634E2,1.8469037E2,2.1559123E2,1.9873396E2,1.3734639E2,