{"learner":{"attributes":{"best_iteration":"539","best_score":"0.7516331862226934"},"feature_names":["Age","Income","LoanAmount","CreditScore","MonthsEmployed","NumCreditLines","InterestRate","LoanTerm","DTIRatio","HasMortgage","HasDependents","HasCoSigner","Education_Bachelor's","Education_High_School","Education_Master's","Education_PhD","EmploymentType_Full-time","EmploymentType_Part-time","EmploymentType_Self-employed","EmploymentType_Unemployed","MaritalStatus_Divorced","MaritalStatus_Married","MaritalStatus_Single","LoanPurpose_Auto","LoanPurpose_Business","LoanPurpose_Education","LoanPurpose_Home","LoanPurpose_Other","high_dti_low_credit","stable_homeowner"],"feature_types":["int","int","int","int","int","int","float","int","float","int","int","int","int","int","int","int","int","int","int","int","int","int","int","int","int","int","int","int","int","int"],"gradient_booster":{"model":{"cats":{"enc":[],"feature_segments":[],"sorted_idx":[]},"gbtree_model_param":{"num_parallel_tree":"1","num_trees":"560"},"iteration_indptr":[0,1,2,3,4,5,6,7,8,9,10,11,12,13,14,15,16,17,18,19,20,21,22,23,24,25,26,27,28,29,30,31,32,33,34,35,36,37,38,39,40,41,42,43,44,45,46,47,48,49,50,51,52,53,54,55,56,57,58,59,60,61,62,63,64,65,66,67,68,69,70,71,72,73,74,75,76,77,78,79,80,81,82,83,84,85,86,87,88,89,90,91,92,93,94,95,96,97,98,99,100,101,102,103,104,105,106,107,108,109,110,111,112,113,114,115,116,117,118,119,120,121,122,123,124,125,126,127,128,129,130,131,132,133,134,135,136,137,138,139,140,141,142,143,144,145,146,147,148,149,150,151,152,153,154,155,156,157,158,159,160,161,162,163,164,165,166,167,168,169,170,171,172,173,174,175,176,177,178,179,180,181,182,183,184,185,186,187,188,189,190,191,192,193,194,195,196,197,198,199,200,201,202,203,204,205,206,207,208,209,210,211,212,213,214,215,216,217,218,219,220,221,222,223,224,225,226,227,228,229,230,231,232,233,234,235,236,237,238,239,240,241,242,243,244,245,246,247,248,249,250,251,252,253,254,255,256,257,258,259,260,261,262,263,264,265,266,267,268,269,270,271,272,273,274,275,276,277,278,279,280,281,282,283,284,285,286,287,288,289,290,291,292,293,294,295,296,297,298,299,300,301,302,303,304,305,306,307,308,309,310,311,312,313,314,315,316,317,318,319,320,321,322,323,324,325,326,327,328,329,330,331,332,333,334,335,336,337,338,339,340,341,342,343,344,345,346,347,348,349,350,351,352,353,354,355,356,357,358,359,360,361,362,363,364,365,366,367,368,369,370,371,372,373,374,375,376,377,378,379,380,381,382,383,384,385,386,387,388,389,390,391,392,393,394,395,396,397,398,399,400,401,402,403,404,405,406,407,408,409,410,411,412,413,414,415,416,417,418,419,420,421,422,423,424,425,426,427,428,429,430,431,432,433,434,435,436,437,438,439,440,441,442,443,444,445,446,447,448,449,450,451,452,453,454,455,456,457,458,459,460,461,462,463,464,465,466,467,468,469,470,471,472,473,474,475,476,477,478,479,480,481,482,483,484,485,486,487,488,489,490,491,492,493,494,495,496,497,498,499,500,501,502,503,504,505,506,507,508,509,510,511,512,513,514,515,516,517,518,519,520,521,522,523,524,525,526,527,528,529,530,531,532,533,534,535,536,537,538,539,540,541,542,543,544,545,546,547,548,549,550,551,552,553,554,555,556,557,558,559,560],"tree_info":[0,0,0,0,0,0,0,0,0,0,0,0,0,0,0,0,0,0,0,0,0,0,0,0,0,0,0,0,0,0,0,0,0,0,0,0,0,0,0,0,0,0,0,0,0,0,0,0,0,0,0,0,0,0,0,0,0,0,0,0,0,0,0,0,0,0,0,0,0,0,0,0,0,0,0,0,0,0,0,0,0,0,0,0,0,0,0,0,0,0,0,0,0,0,0,0,0,0,0,0,0,0,0,0,0,0,0,0,0,0,0,0,0,0,0,0,0,0,0,0,0,0,0,0,0,0,0,0,0,0,0,0,0,0,0,0,0,0,0,0,0,0,0,0,0,0,0,0,0,0,0,0,0,0,0,0,0,0,0,0,0,0,0,0,0,0,0,0,0,0,0,0,0,0,0,0,0,0,0,0,0,0,0,0,0,0,0,0,0,0,0,0,0,0,0,0,0,0,0,0,0,0,0,0,0,0,0,0,0,0,0,0,0,0,0,0,0,0,0,0,0,0,0,0,0,0,0,0,0,0,0,0,0,0,0,0,0,0,0,0,0,0,0,0,0,0,0,0,0,0,0,0,0,0,0,0,0,0,0,0,0,0,0,0,0,0,0,0,0,0,0,0,0,0,0,0,0,0,0,0,0,0,0,0,0,0,0,0,0,0,0,0,0,0,0,0,0,0,0,0,0,0,0,0,0,0,0,0,0,0,0,0,0,0,0,0,0,0,0,0,0,0,0,0,0,0,0,0,0,0,0,0,0,0,0,0,0,0,0,0,0,0,0,0,0,0,0,0,0,0,0,0,0,0,0,0,0,0,0,0,0,0,0,0,0,0,0,0,0,0,0,0,0,0,0,0,0,0,0,0,0,0,0,0,0,0,0,0,0,0,0,0,0,0,0,0,0,0,0,0,0,0,0,0,0,0,0,0,0,0,0,0,0,0,0,0,0,0,0,0,0,0,0,0,0,0,0,0,0,0,0,0,0,0,0,0,0,0,0,0,0,0,0,0,0,0,0,0,0,0,0,0,0,0,0,0,0,0,0,0,0,0,0,0,0,0,0,0,0,0,0,0,0,0,0,0,0,0,0,0,0,0,0,0,0,0,0,0,0,0,0,0,0,0,0,0,0,0,0,0,0,0,0,0,0,0,0,0,0,0,0,0,0,0,0,0,0,0,0,0,0,0,0,0,0,0,0,0,0,0,0,0,0,0,0,0,0,0,0,0,0,0,0,0,0,0,0,0,0,0,0,0,0,0,0,0,0,0,0,0],"trees":[{"base_weights":[-1.4222639E-3,4.730238E-1,-4.6121106E-1,-4.941962E-2,7.005718E-1,3.4028986E-1,-6.126753E-1,1.9756062E-2,-6.0902475E-3,3.3044063E-2,1.5948154E-2,1.2701642E-3,2.1037653E-2,-2.8696144E-2,-9.290376E-3],"categories":[],"categories_nodes":[],"categories_segments":[],"categories_sizes":[],"default_left":[0,0,0,0,0,0,0,0,0,0,0,0,0,0,0],"id":0,"left_children":[1,3,5,7,9,11,13,-1,-1,-1,-1,-1,-1,-1,-1],"loss_changes":[2.217771E3,5.9485535E2,6.2699023E2,1.847717E2,2.2537671E2,9.632423E1,4.8933228E2,0E0,0E0,0E0,0E0,0E0,0E0,0E0,0E0],"parents":[2147483647,0,0,1,1,2,2,3,3,4,4,5,5,6,6],"right_children":[2,4,6,8,10,12,14,-1,-1,-1,-1,-1,-1,-1,-1],"split_conditions":[3.9E1,1.073E1,3.1208E4,3.2939E4,3.8675E4,1.653E1,1.276E1,1.9756062E-2,-6.0902475E-3,3.3044063E-2,1.5948154E-2,1.2701642E-3,2.1037653E-2,-2.8696144E-2,-9.290376E-3],"split_indices":[0,6,1,1,1,6,6,0,0,0,0,0,0,0,0],"split_type":[0,0,0,0,0,0,0,0,0,0,0,0,0,0,0],"sum_hessian":[1.01645E4,5.0025E3,5.162E3,1.518E3,3.4845E3,8.2025E2,4.34175E3,2.7425E2,1.24375E3,8.24E2,2.6605E3,4.705E2,3.4975E2,1.8335E3,2.50825E3],"tree_param":{"num_deleted":"0","num_feature":"30","num_nodes":"15","size_leaf_vector":"1"}},{"base_weights":[-2.8892616E-3,4.6101803E-1,-4.497989E-1,2.4987528E-2,7.171874E-1,3.3296025E-1,-5.995743E-1,2.1001732E-2,-4.036161E-3,2.9953497E-2,1.5515558E-2,-1.3697505E-2,1.7567076E-2,-2.8018164E-2,-9.132027E-3],"categories":[],"categories_nodes":[],"categories_segments":[],"categories_sizes":[],"default_left":[0,0,0,0,0,0,0,0,0,0,0,0,0,0,0],"id":1,"left_children":[1,3,5,7,9,11,13,-1,-1,-1,-1,-1,-1,-1,-1],"loss_changes":[2.113228E3,5.586172E2,6.088445E2,2.1907948E2,1.8113013E2,1.9183757E2,4.651703E2,0E0,0E0,0E0,0E0,0E0,0E0,0E0,0E0],"parents":[2147483647,0,0,1,1,2,2,3,3,4,4,5,5,6,6],"right_children":[2,4,6,8,10,12,14,-1,-1,-1,-1,-1,-1,-1,-1],"split_conditions":[3.9E1,1.237E1,3.1208E4,3.3924E4,5.2979E4,9.7197E4,1.276E1,2.1001732E-2,-4.036161E-3,2.9953497E-2,1.5515558E-2,-1.3697505E-2,1.7567076E-2,-2.8018164E-2,-9.132027E-3],"split_indices":[0,6,1,1,1,2,6,0,0,0,0,0,0,0,0],"split_type":[0,0,0,0,0,0,0,0,0,0,0,0,0,0,0],"sum_hessian":[1.0190845E4,5.000316E3,5.1905283E3,1.8509235E3,3.1493928E3,8.334601E2,4.3570684E3,3.5045572E2,1.5004677E3,1.079775E3,2.0696177E3,2.147402E2,6.187199E2,1.8408722E3,2.516196E3],"tree_param":{"num_deleted":"0","num_feature":"30","num_nodes":"15","size_leaf_vector":"1"}},{"base_weights":[2.8268556E-4,3.8377625E-1,-5.050656E-1,6.794887E-2,7.277723E-1,1.1831743E-1,-6.690071E-1,1.8522715E-2,-3.2523393E-3,2.5301721E-2,1.1380521E-2,-6.312617E-3,1.21714445E-2,-2.679402E-2,-9.0929475E-3],"categories":[],"categories_nodes":[],"categories_segments":[],"categories_sizes":[],"default_left":[0,0,0,0,0,0,0,0,0,0,0,0,0,0,0],"id":2,"left_children":[1,3,5,7,9,11,13,-1,-1,-1,-1,-1,-1,-1,-1],"loss_changes":[1.9693846E3,6.2764905E2,4.4816284E2,3.1843103E2,1.439419E2,9.5647415E1,3.2771838E2,0E0,0E0,0E0,0E0,0E0,0E0,0E0,0E0],"parents":[2147483647,0,0,1,1,2,2,3,3,4,4,5,5,6,6],"right_children":[2,4,6,8,10,12,14,-1,-1,-1,-1,-1,-1,-1,-1],"split_conditions":[4.3E1,1.582E1,3.7135E4,3.9656E4,7.4E1,1.421E1,1.608E1,1.8522715E-2,-3.2523393E-3,2.5301721E-2,1.1380521E-2,-6.312617E-3,1.21714445E-2,-2.679402E-2,-9.0929475E-3],"split_indices":[0,6,1,1,4,6,6,0,0,0,0,0,0,0,0],"split_type":[0,0,0,0,0,0,0,0,0,0,0,0,0,0,0],"sum_hessian":[1.0160058E4,5.776606E3,4.383451E3,3.0122324E3,2.7643735E3,9.1280695E2,3.4706445E3,7.176292E2,2.2946033E3,1.8644928E3,8.998807E2,4.344042E2,4.7840277E2,1.9607719E3,1.5098726E3],"tree_param":{"num_deleted":"0","num_feature":"30","num_nodes":"15","size_leaf_vector":"1"}},{"base_weights":[7.807506E-4,5.670443E-1,-1.548557E-1,8.6188054E-1,3.68729E-1,1.1870974E-1,-4.450384E-1,3.0503906E-2,1.8038442E-2,1.5855702E-2,-6.933369E-4,7.158994E-3,-8.222899E-4,-8.443266E-3,-1.7538287E-2],"categories":[],"categories_nodes":[],"categories_segments":[],"categories_sizes":[],"default_left":[0,0,0,0,0,0,0,0,0,0,0,0,0,0,0],"id":3,"left_children":[1,3,5,7,9,11,13,-1,-1,-1,-1,-1,-1,-1,-1],"loss_changes":[8.963054E2,1.2788489E2,6.3333984E2,4.12005E1,9.632599E1,8.002272E1,9.7670166E1,0E0,0E0,0E0,0E0,0E0,0E0,0E0,0E0],"parents":[2147483647,0,0,1,1,2,2,3,3,4,4,5,5,6,6],"right_children":[2,4,6,8,10,12,14,-1,-1,-1,-1,-1,-1,-1,-1],"split_conditions":[3.7135E4,2.2813E4,5.6E1,5.6E1,7.6E1,1E0,8.9E1,3.0503906E-2,1.8038442E-2,1.5855702E-2,-6.933369E-4,7.158994E-3,-8.222899E-4,-8.443266E-3,-1.7538287E-2],"split_indices":[1,1,4,4,4,11,4,0,0,0,0,0,0,0,0],"split_type":[0,0,0,0,0,0,0,0,0,0,0,0,0,0,0],"sum_hessian":[1.0168123E4,2.1916042E3,7.976519E3,8.799834E2,1.311621E3,4.106123E3,3.870396E3,4.615758E2,4.1840756E2,8.889359E2,4.2268506E2,2.166111E3,1.9400121E3,2.0584727E3,1.8119232E3],"tree_param":{"num_deleted":"0","num_feature":"30","num_nodes":"15","size_leaf_vector":"1"}},{"base_weights":[4.473111E-3,4.4638923E-1,-4.222427E-1,-4.4656202E-2,6.590524E-1,1.925206E-1,-5.853956E-1,1.7257804E-2,-5.786618E-3,3.034599E-2,1.52907055E-2,1.1783799E-2,-7.6302974E-3,-2.6882716E-2,-9.225967E-3],"categories":[],"categories_nodes":[],"categories_segments":[],"categories_sizes":[],"default_left":[0,0,0,0,0,0,0,0,0,0,0,0,0,0,0],"id":4,"left_children":[1,3,5,7,9,11,13,-1,-1,-1,-1,-1,-1,-1,-1],"loss_changes":[1.9164731E3,5.213928E2,5.1871124E2,1.5502625E2,1.7312805E2,1.1001468E2,3.8146472E2,0E0,0E0,0E0,0E0,0E0,0E0,0E0,0E0],"parents":[2147483647,0,0,1,1,2,2,3,3,4,4,5,5,6,6],"right_children":[2,4,6,8,10,12,14,-1,-1,-1,-1,-1,-1,-1,-1],"split_conditions":[3.9E1,1.073E1,3.7135E4,3.4866E4,3.8675E4,5.8E1,1.276E1,1.7257804E-2,-5.786618E-3,3.034599E-2,1.52907055E-2,1.1783799E-2,-7.6302974E-3,-2.6882716E-2,-9.225967E-3],"split_indices":[0,6,1,1,1,0,6,0,0,0,0,0,0,0,0],"split_type":[0,0,0,0,0,0,0,0,0,0,0,0,0,0,0],"sum_hessian":[1.0161053E4,4.991599E3,5.169454E3,1.5087172E3,3.482882E3,1.0841552E3,4.0852988E3,2.9483527E2,1.2138818E3,8.1329254E2,2.6695896E3,7.3308417E2,3.5107098E2,1.7308079E3,2.354491E3],"tree_param":{"num_deleted":"0","num_feature":"30","num_nodes":"15","size_leaf_vector":"1"}},{"base_weights":[-9.7420515E-4,3.5919678E-1,-4.726379E-1,-1.2821189E-1,5.684856E-1,-8.3185273E-1,-2.0756917E-1,1.602075E-2,-7.393769E-3,2.4540821E-2,1.0673745E-2,-3.312153E-4,-2.698542E-2,1.0307034E-2,-1.0486817E-2],"categories":[],"categories_nodes":[],"categories_segments":[],"categories_sizes":[],"default_left":[0,0,0,0,0,0,0,0,0,0,0,0,0,0,0],"id":5,"left_children":[1,3,5,7,9,11,13,-1,-1,-1,-1,-1,-1,-1,-1],"loss_changes":[1.7260746E3,5.877696E2,4.187201E2,1.562735E2,2.2805444E2,1.7377625E2,2.302486E2,0E0,0E0,0E0,0E0,0E0,0E0,0E0,0E0],"parents":[2147483647,0,0,1,1,2,2,3,3,4,4,5,5,6,6],"right_children":[2,4,6,8,10,12,14,-1,-1,-1,-1,-1,-1,-1,-1],"split_conditions":[4.3E1,1.054E1,1.276E1,3.0267E4,6.0528E4,2.7167E4,3.7632E4,1.602075E-2,-7.393769E-3,2.4540821E-2,1.0673745E-2,-3.312153E-4,-2.698542E-2,1.0307034E-2,-1.0486817E-2],"split_indices":[0,6,6,1,1,1,1,0,0,0,0,0,0,0,0],"split_type":[0,0,0,0,0,0,0,0,0,0,0,0,0,0,0],"sum_hessian":[1.0158578E4,5.760213E3,4.398365E3,1.7304918E3,4.0297212E3,1.8666233E3,2.5317417E3,2.7542102E2,1.4550708E3,1.612844E3,2.4168772E3,2.269294E2,1.6396938E3,5.5508594E2,1.9766559E3],"tree_param":{"num_deleted":"0","num_feature":"30","num_nodes":"15","size_leaf_vector":"1"}},{"base_weights":[5.948534E-4,4.5634106E-1,-3.7102368E-1,1.6030377E-1,7.7473843E-1,-7.2489136E-1,-1.19530015E-1,1.2117975E-2,-3.5588732E-3,1.7111022E-2,2.8296573E-2,-1.39593E-2,-2.8126422E-2,4.2543993E-3,-1.2454645E-2],"categories":[],"categories_nodes":[],"categories_segments":[],"categories_sizes":[],"default_left":[0,0,0,0,0,0,0,0,0,0,0,0,0,0,0],"id":6,"left_children":[1,3,5,7,9,11,13,-1,-1,-1,-1,-1,-1,-1,-1],"loss_changes":[1.7203275E3,4.2991376E2,4.9786212E2,1.7813884E2,8.283679E1,1.4228125E2,2.7840076E2,0E0,0E0,0E0,0E0,0E0,0E0,0E0,0E0],"parents":[2147483647,0,0,1,1,2,2,3,3,4,4,5,5,6,6],"right_children":[2,4,6,8,10,12,14,-1,-1,-1,-1,-1,-1,-1,-1],"split_conditions":[3.7E1,1.582E1,1.276E1,5.5E1,1.52253E5,5.3E1,5.3E1,1.2117975E-2,-3.5588732E-3,1.7111022E-2,2.8296573E-2,-1.39593E-2,-2.8126422E-2,4.2543993E-3,-1.2454645E-2],"split_indices":[0,6,6,4,2,0,0,0,0,0,0,0,0,0,0],"split_type":[0,0,0,0,0,0,0,0,0,0,0,0,0,0,0],"sum_hessian":[1.015559E4,4.561375E3,5.594215E3,2.3644639E3,2.1969111E3,2.3233005E3,3.2709143E3,1.2267194E3,1.1377444E3,1.2158909E3,9.810203E2,1.2204539E3,1.1028467E3,1.7704043E3,1.5005101E3],"tree_param":{"num_deleted":"0","num_feature":"30","num_nodes":"15","size_leaf_vector":"1"}},{"base_weights":[-1.5321082E-3,-2.855619E-1,3.251891E-1,4.069257E-1,-4.1010085E-1,7.926081E-1,1.9061424E-1,1.5315235E-2,-2.3296627E-3,-3.7875294E-3,-1.9349642E-2,3.165816E-2,1.8674947E-2,1.3777392E-2,-1.5842246E-3],"categories":[],"categories_nodes":[],"categories_segments":[],"categories_sizes":[],"default_left":[0,0,0,0,0,0,0,0,0,0,0,0,0,0,0],"id":7,"left_children":[1,3,5,7,9,11,13,-1,-1,-1,-1,-1,-1,-1,-1],"loss_changes":[9.4169385E2,4.6833163E2,2.967E2,5.245186E1,3.4167053E2,4.5462708E1,2.6345355E2,0E0,0E0,0E0,0E0,0E0,0E0,0E0,0E0],"parents":[2147483647,0,0,1,1,2,2,3,3,4,4,5,5,6,6],"right_children":[2,4,6,8,10,12,14,-1,-1,-1,-1,-1,-1,-1,-1],"split_conditions":[1.582E1,2.9895E4,3.7632E4,9.1E1,5.4E1,2.0875E4,4.8E1,1.5315235E-2,-2.3296627E-3,-3.7875294E-3,-1.9349642E-2,3.165816E-2,1.8674947E-2,1.3777392E-2,-1.5842246E-3],"split_indices":[6,1,1,4,4,1,4,0,0,0,0,0,0,0,0],"split_type":[0,0,0,0,0,0,0,0,0,0,0,0,0,0,0],"sum_hessian":[1.0145721E4,5.4275205E3,4.7182E3,8.269686E2,4.600552E3,1.053654E3,3.6645464E3,6.5354224E2,1.7342639E2,2.2600442E3,2.3405076E3,3.1856314E2,7.350909E2,1.6755548E3,1.9889915E3],"tree_param":{"num_deleted":"0","num_feature":"30","num_nodes":"15","size_leaf_vector":"1"}},{"base_weights":[-5.373312E-3,3.3911055E-1,-4.5974898E-1,-6.574882E-2,5.5373585E-1,2.0869245E-1,-5.8630955E-1,6.922973E-3,-9.247121E-3,3.127445E-2,1.30860275E-2,-1.6287973E-2,1.4106702E-2,-2.3813743E-2,-7.6279733E-3],"categories":[],"categories_nodes":[],"categories_segments":[],"categories_sizes":[],"default_left":[0,0,0,0,0,0,0,0,0,0,0,0,0,0,0],"id":8,"left_children":[1,3,5,7,9,11,13,-1,-1,-1,-1,-1,-1,-1,-1],"loss_changes":[1.5878079E3,5.013902E2,3.7018365E2,1.5924023E2,1.9427307E2,1.553546E2,2.9072583E2,0E0,0E0,0E0,0E0,0E0,0E0,0E0,0E0],"parents":[2147483647,0,0,1,1,2,2,3,3,4,4,5,5,6,6],"right_children":[2,4,6,8,10,12,14,-1,-1,-1,-1,-1,-1,-1,-1],"split_conditions":[4.3E1,1.169E1,3.1208E4,4.8E1,2.8973E4,9.7197E4,1.608E1,6.922973E-3,-9.247121E-3,3.127445E-2,1.30860275E-2,-1.6287973E-2,1.4106702E-2,-2.3813743E-2,-7.6279733E-3],"split_indices":[0,6,1,4,1,2,6,0,0,0,0,0,0,0,0],"split_type":[0,0,0,0,0,0,0,0,0,0,0,0,0,0,0],"sum_hessian":[1.0142114E4,5.7687803E3,4.373334E3,1.9988792E3,3.7699014E3,6.9611096E2,3.6772231E3,9.1109937E2,1.0877798E3,5.625104E2,3.2073909E3,1.8636739E2,5.097436E2,2.068649E3,1.6085741E3],"tree_param":{"num_deleted":"0","num_feature":"30","num_nodes":"15","size_leaf_vector":"1"}},{"base_weights":[4.0650598E-4,-3.618705E-1,2.3934045E-1,-1.119048E-1,-6.1004823E-1,4.862973E-1,-1.3008475E-2,-8.138251E-3,7.143016E-3,-2.3971245E-2,-1.00765135E-2,8.340482E-3,2.0535538E-2,-7.6944856E-3,5.947054E-3],"categories":[],"categories_nodes":[],"categories_segments":[],"categories_sizes":[],"default_left":[0,0,0,0,0,0,0,0,0,0,0,0,0,0,0],"id":9,"left_children":[1,3,5,7,9,11,13,-1,-1,-1,-1,-1,-1,-1,-1],"loss_changes":[8.7696405E2,2.4971161E2,3.8045804E2,1.25945404E2,1.1897363E2,1.3938788E2,1.7155225E2,0E0,0E0,0E0,0E0,0E0,0E0,0E0,0E0],"parents":[2147483647,0,0,1,1,2,2,3,3,4,4,5,5,6,6],"right_children":[2,4,6,8,10,12,14,-1,-1,-1,-1,-1,-1,-1,-1],"split_conditions":[1.268E1,5.5E1,5.4E1,1.81879E5,1.43867E5,1.51234E5,1.29082E5,-8.138251E-3,7.143016E-3,-2.3971245E-2,-1.00765135E-2,8.340482E-3,2.0535538E-2,-7.6944856E-3,5.947054E-3],"split_indices":[6,4,4,2,2,2,2,0,0,0,0,0,0,0,0],"split_type":[0,0,0,0,0,0,0,0,0,0,0,0,0,0,0],"sum_hessian":[1.0129252E4,4.0253745E3,6.1038774E3,2.0061863E3,2.0191884E3,3.0844285E3,3.019449E3,1.3573011E3,6.48885E2,1.0652444E3,9.5394403E2,1.6839855E3,1.4004431E3,1.3984296E3,1.6210194E3],"tree_param":{"num_deleted":"0","num_feature":"30","num_nodes":"15","size_leaf_vector":"1"}},{"base_weights":[-5.2863965E-4,-4.2180267E-1,1.9056611E-1,-6.5579766E-1,-1.5920188E-1,3.9744082E-1,-1.05177E-1,-1.3813124E-2,-2.8624998E-2,3.564693E-3,-1.0414256E-2,4.905021E-3,1.6892157E-2,-7.3922486E-3,7.2207106E-3],"categories":[],"categories_nodes":[],"categories_segments":[],"categories_sizes":[],"default_left":[0,0,0,0,0,0,0,0,0,0,0,0,0,0,0],"id":10,"left_children":[1,3,5,7,9,11,13,-1,-1,-1,-1,-1,-1,-1,-1],"loss_changes":[8.143042E2,1.9385529E2,4.2578427E2,9.9056274E1,8.699539E1,1.7939197E2,1.5783391E2,0E0,0E0,0E0,0E0,0E0,0E0,0E0,0E0],"parents":[2147483647,0,0,1,1,2,2,3,3,4,4,5,5,6,6],"right_children":[2,4,6,8,10,12,14,-1,-1,-1,-1,-1,-1,-1,-1],"split_conditions":[1.054E1,1.44852E5,6.4E1,7.6E1,4.6E1,1.30103E5,1.85317E5,-1.3813124E-2,-2.8624998E-2,3.564693E-3,-1.0414256E-2,4.905021E-3,1.6892157E-2,-7.3922486E-3,7.2207106E-3],"split_indices":[6,2,4,4,4,2,2,0,0,0,0,0,0,0,0],"split_type":[0,0,0,0,0,0,0,0,0,0,0,0,0,0,0],"sum_hessian":[1.0113173E4,3.1555225E3,6.95765E3,1.6678546E3,1.487668E3,4.0937175E3,2.8639324E3,1.1168082E3,5.510464E2,6.2481055E2,8.628574E2,1.89502E3,2.1986975E3,2.003796E3,8.601365E2],"tree_param":{"num_deleted":"0","num_feature":"30","num_nodes":"15","size_leaf_vector":"1"}},{"base_weights":[-2.574149E-5,3.8899824E-1,-3.7674916E-1,8.0548257E-1,2.6250643E-1,1.5122163E-1,-5.3195584E-1,1.0786369E-2,3.062058E-2,1.3097658E-2,-1.3817902E-4,-1.1040427E-2,1.4960099E-2,-7.1346085E-3,-2.1267861E-2],"categories":[],"categories_nodes":[],"categories_segments":[],"categories_sizes":[],"default_left":[0,0,0,0,0,0,0,0,0,0,0,0,0,0,0],"id":11,"left_children":[1,3,5,7,9,11,13,-1,-1,-1,-1,-1,-1,-1,-1],"loss_changes":[1.4866874E3,2.6270557E2,4.2239075E2,1.3236322E2,2.0097943E2,2.3518906E2,2.3914648E2,0E0,0E0,0E0,0E0,0E0,0E0,0E0,0E0],"parents":[2147483647,0,0,1,1,2,2,3,3,4,4,5,5,6,6],"right_children":[2,4,6,8,10,12,14,-1,-1,-1,-1,-1,-1,-1,-1],"split_conditions":[3.9E1,3.8675E4,3.9187E4,1.25235E5,6.2E1,1.32882E5,4.7E1,1.0786369E-2,3.062058E-2,1.3097658E-2,-1.3817902E-4,-1.1040427E-2,1.4960099E-2,-7.1346085E-3,-2.1267861E-2],"split_indices":[0,1,1,2,4,2,4,0,0,0,0,0,0,0,0],"split_type":[0,0,0,0,0,0,0,0,0,0,0,0,0,0,0],"sum_hessian":[1.0142267E4,4.9896567E3,5.1526094E3,1.1611409E3,3.828516E3,1.1705939E3,3.9820154E3,4.473983E2,7.137426E2,2.20716E3,1.6213562E3,4.7916083E2,6.914331E2,1.7145552E3,2.2674602E3],"tree_param":{"num_deleted":"0","num_feature":"30","num_nodes":"15","size_leaf_vector":"1"}},{"base_weights":[8.2275394E-4,2.745647E-1,-5.2476925E-1,7.349747E-1,1.3592155E-1,6.2058136E-2,-6.3801646E-1,2.6553826E-2,1.5409585E-2,1.0797923E-2,-3.597365E-3,9.892458E-3,-3.6117795E-3,-1.2305024E-2,-2.2792062E-2],"categories":[],"categories_nodes":[],"categories_segments":[],"categories_sizes":[],"default_left":[0,0,0,0,0,0,0,0,0,0,0,0,0,0,0],"id":12,"left_children":[1,3,5,7,9,11,13,-1,-1,-1,-1,-1,-1,-1,-1],"loss_changes":[1.4541969E3,4.2412546E2,2.300694E2,5.8090332E1,3.2434174E2,3.0130243E1,9.597424E1,0E0,0E0,0E0,0E0,0E0,0E0,0E0,0E0],"parents":[2147483647,0,0,1,1,2,2,3,3,4,4,5,5,6,6],"right_children":[2,4,6,8,10,12,14,-1,-1,-1,-1,-1,-1,-1,-1],"split_conditions":[4.8E1,3.8675E4,3.167E4,2.5413E4,3.2E1,2.0875E4,5.7E1,2.6553826E-2,1.5409585E-2,1.0797923E-2,-3.597365E-3,9.892458E-3,-3.6117795E-3,-1.2305024E-2,-2.2792062E-2],"split_indices":[0,1,1,1,0,1,0,0,0,0,0,0,0,0,0],"split_type":[0,0,0,0,0,0,0,0,0,0,0,0,0,0,0],"sum_hessian":[1.0105251E4,6.644895E3,3.460356E3,1.5368802E3,5.1080146E3,5.598359E2,2.9005203E3,7.665072E2,7.70373E2,2.653088E3,2.4549268E3,2.2284013E2,3.3699576E2,1.2679626E3,1.6325576E3],"tree_param":{"num_deleted":"0","num_feature":"30","num_nodes":"15","size_leaf_vector":"1"}},{"base_weights":[-1.0423597E-3,3.219005E-1,-4.2699137E-1,5.168488E-2,6.0881454E-1,-7.39114E-1,-2.0151103E-1,7.033574E-3,-8.27417E-3,2.1368107E-2,8.933928E-3,-1.4023326E-2,-2.5803419E-2,3.2507498E-3,-1.1701859E-2],"categories":[],"categories_nodes":[],"categories_segments":[],"categories_sizes":[],"default_left":[0,0,0,0,0,0,0,0,0,0,0,0,0,0,0],"id":13,"left_children":[1,3,5,7,9,11,13,-1,-1,-1,-1,-1,-1,-1,-1],"loss_changes":[1.3964344E3,4.4761798E2,3.079411E2,1.9787088E2,1.15516846E2,7.453467E1,1.671899E2,0E0,0E0,0E0,0E0,0E0,0E0,0E0,0E0],"parents":[2147483647,0,0,1,1,2,2,3,3,4,4,5,5,6,6],"right_children":[2,4,6,8,10,12,14,-1,-1,-1,-1,-1,-1,-1,-1],"split_conditions":[4.3E1,1.566E1,1.276E1,7E1,3.4E1,5.3E1,4.2E1,7.033574E-3,-8.27417E-3,2.1368107E-2,8.933928E-3,-1.4023326E-2,-2.5803419E-2,3.2507498E-3,-1.1701859E-2],"split_indices":[0,6,6,4,0,0,4,0,0,0,0,0,0,0,0],"split_type":[0,0,0,0,0,0,0,0,0,0,0,0,0,0,0],"sum_hessian":[1.0149665E4,5.7729883E3,4.376677E3,2.9736167E3,2.7993716E3,1.8347015E3,2.5419753E3,1.8940968E3,1.0795199E3,1.9004341E3,8.989374E2,7.3420483E2,1.1004967E3,1.01157715E3,1.5303982E3],"tree_param":{"num_deleted":"0","num_feature":"30","num_nodes":"15","size_leaf_vector":"1"}},{"base_weights":[2.5622805E-3,2.6113883E-1,-4.9719355E-1,4.2220764E-3,5.428478E-1,9.878666E-2,-6.12393E-1,1.502023E-2,-4.3347375E-3,2.094352E-2,8.618376E-3,-2.6173204E-2,8.954811E-3,-2.5499996E-2,-1.1574161E-2],"categories":[],"categories_nodes":[],"categories_segments":[],"categories_sizes":[],"default_left":[0,0,0,0,0,0,0,0,0,0,0,0,0,0,0],"id":14,"left_children":[1,3,5,7,9,11,13,-1,-1,-1,-1,-1,-1,-1,-1],"loss_changes":[1.305361E3,4.818064E2,2.365412E2,2.837739E2,1.4575714E2,1.2225005E2,1.674253E2,0E0,0E0,0E0,0E0,0E0,0E0,0E0,0E0],"parents":[2147483647,0,0,1,1,2,2,3,3,4,4,5,5,6,6],"right_children":[2,4,6,8,10,12,14,-1,-1,-1,-1,-1,-1,-1,-1],"split_conditions":[4.8E1,1.574E1,3.167E4,3.8675E4,3.3E1,6.6215E4,1.276E1,1.502023E-2,-4.3347375E-3,2.094352E-2,8.618376E-3,-2.6173204E-2,8.954811E-3,-2.5499996E-2,-1.1574161E-2],"split_indices":[0,6,1,1,0,2,6,0,0,0,0,0,0,0,0],"split_type":[0,0,0,0,0,0,0,0,0,0,0,0,0,0,0],"sum_hessian":[1.0099442E4,6.656044E3,3.443398E3,3.4817375E3,3.1743064E3,5.5779724E2,2.8856008E3,8.009055E2,2.680832E3,1.77035E3,1.4039565E3,9.684309E1,4.6095413E2,1.2227687E3,1.6628322E3],"tree_param":{"num_deleted":"0","num_feature":"30","num_nodes":"15","size_leaf_vector":"1"}},{"base_weights":[3.5439064E-3,2.6611182E-1,-4.6541867E-1,6.8688077E-1,1.3950273E-1,1.1137847E-1,-5.690595E-1,9.659084E-3,2.9948872E-2,9.818932E-3,-3.8121582E-3,-2.034883E-2,1.1745134E-2,-1.0723066E-2,-2.1074664E-2],"categories":[],"categories_nodes":[],"categories_segments":[],"categories_sizes":[],"default_left":[0,0,0,0,0,0,0,0,0,0,0,0,0,0,0],"id":15,"left_children":[1,3,5,7,9,11,13,-1,-1,-1,-1,-1,-1,-1,-1],"loss_changes":[1.2438204E3,3.4488235E2,2.168045E2,1.8870447E2,2.780003E2,1.3707086E2,1.00307495E2,0E0,0E0,0E0,0E0,0E0,0E0,0E0,0E0],"parents":[2147483647,0,0,1,1,2,2,3,3,4,4,5,5,6,6],"right_children":[2,4,6,8,10,12,14,-1,-1,-1,-1,-1,-1,-1,-1],"split_conditions":[4.7E1,3.8675E4,3.0267E4,1.57137E5,3.3E1,9.7197E4,5.7E1,9.659084E-3,2.9948872E-2,9.818932E-3,-3.8121582E-3,-2.034883E-2,1.1745134E-2,-1.0723066E-2,-2.1074664E-2],"split_indices":[0,1,1,2,0,2,0,0,0,0,0,0,0,0,0],"split_type":[0,0,0,0,0,0,0,0,0,0,0,0,0,0,0],"sum_hessian":[1.0099308E4,6.474645E3,3.6246626E3,1.4965681E3,4.9780767E3,5.520787E2,3.072584E3,7.6369507E2,7.3287305E2,2.8464216E3,2.1316553E3,1.4697803E2,4.0510065E2,1.4350663E3,1.6375176E3],"tree_param":{"num_deleted":"0","num_feature":"30","num_nodes":"15","size_leaf_vector":"1"}},{"base_weights":[-2.8392626E-3,3.7181023E-1,-3.0822226E-1,-4.6018634E-2,5.351347E-1,-5.281376E-1,1.111206E-2,1.6588114E-2,-4.6131257E-3,1.0525498E-2,2.1638311E-2,4.2388155E-3,-1.7897172E-2,1.2456916E-2,-4.941808E-3],"categories":[],"categories_nodes":[],"categories_segments":[],"categories_sizes":[],"default_left":[0,0,0,0,0,0,0,0,0,0,0,0,0,0,0],"id":16,"left_children":[1,3,5,7,9,11,13,-1,-1,-1,-1,-1,-1,-1,-1],"loss_changes":[1.1502467E3,3.0812073E2,3.8897693E2,9.212322E1,1.20112915E2,2.1935992E2,1.7711145E2,0E0,0E0,0E0,0E0,0E0,0E0,0E0,0E0],"parents":[2147483647,0,0,1,1,2,2,3,3,4,4,5,5,6,6],"right_children":[2,4,6,8,10,12,14,-1,-1,-1,-1,-1,-1,-1,-1],"split_conditions":[3.7E1,1.015E1,1.687E1,2.9895E4,1.58124E5,2.7167E4,4.8136E4,1.6588114E-2,-4.6131257E-3,1.0525498E-2,2.1638311E-2,4.2388155E-3,-1.7897172E-2,1.2456916E-2,-4.941808E-3],"split_indices":[0,6,6,1,2,1,1,0,0,0,0,0,0,0,0],"split_type":[0,0,0,0,0,0,0,0,0,0,0,0,0,0,0],"sum_hessian":[1.0051585E4,4.5137793E3,5.537805E3,1.2687322E3,3.245047E3,3.2790051E3,2.2588003E3,1.9681892E2,1.0719133E3,1.8592274E3,1.3858197E3,4.1772372E2,2.8612812E3,6.823424E2,1.5764579E3],"tree_param":{"num_deleted":"0","num_feature":"30","num_nodes":"15","size_leaf_vector":"1"}},{"base_weights":[-3.1146928E-4,5.410454E-1,-1.0016462E-1,-9.7845376E-2,7.556265E-1,-2.61835E-1,6.863515E-2,-7.988616E-3,7.394225E-3,1.5607516E-2,2.8277628E-2,-5.276388E-3,-1.4732489E-2,9.389769E-3,-2.0392605E-3],"categories":[],"categories_nodes":[],"categories_segments":[],"categories_sizes":[],"default_left":[0,0,0,0,0,0,0,0,0,0,0,0,0,0,0],"id":17,"left_children":[1,3,5,7,9,11,13,-1,-1,-1,-1,-1,-1,-1,-1],"loss_changes":[5.4540234E2,2.1547668E2,2.3248274E2,2.5786552E1,5.718744E1,8.509195E1,1.5198558E2,0E0,0E0,0E0,0E0,0E0,0E0,0E0,0E0],"parents":[2147483647,0,0,1,1,2,2,3,3,4,4,5,5,6,6],"right_children":[2,4,6,8,10,12,14,-1,-1,-1,-1,-1,-1,-1,-1],"split_conditions":[3.0267E4,9.1227E4,1.37973E5,6.5156E4,1.88918E5,1E0,6.7367E4,-7.988616E-3,7.394225E-3,1.5607516E-2,2.8277628E-2,-5.276388E-3,-1.4732489E-2,9.389769E-3,-2.0392605E-3],"split_indices":[1,2,2,2,2,16,1,0,0,0,0,0,0,0,0],"split_type":[0,0,0,0,0,0,0,0,0,0,0,0,0,0,0],"sum_hessian":[1.0087543E4,1.5702059E3,8.517337E3,3.9492014E2,1.1752858E3,4.350261E3,4.167076E3,2.6168222E2,1.3323793E2,6.238813E2,5.514044E2,3.340298E3,1.009963E3,1.4574324E3,2.7096438E3],"tree_param":{"num_deleted":"0","num_feature":"30","num_nodes":"15","size_leaf_vector":"1"}},{"base_weights":[2.5868912E-3,2.4954964E-1,-4.3748945E-1,-3.4108893E-3,5.295038E-1,-6.9705105E-1,-2.087354E-1,7.0522204E-3,-7.6531493E-3,1.9231362E-2,6.80263E-3,-1.611339E-2,-2.7622271E-2,1.0222461E-3,-1.3508692E-2],"categories":[],"categories_nodes":[],"categories_segments":[],"categories_sizes":[],"default_left":[0,0,0,0,0,0,0,0,0,0,0,0,0,0,0],"id":18,"left_children":[1,3,5,7,9,11,13,-1,-1,-1,-1,-1,-1,-1,-1],"loss_changes":[1.0964708E3,4.5764124E2,2.1518085E2,2.2516786E2,1.286217E2,6.0385925E1,1.2478073E2,0E0,0E0,0E0,0E0,0E0,0E0,0E0,0E0],"parents":[2147483647,0,0,1,1,2,2,3,3,4,4,5,5,6,6],"right_children":[2,4,6,8,10,12,14,-1,-1,-1,-1,-1,-1,-1,-1],"split_conditions":[4.7E1,1.582E1,1.392E1,5.5E1,7.4E1,7.8E1,5.7E1,7.0522204E-3,-7.6531493E-3,1.9231362E-2,6.80263E-3,-1.611339E-2,-2.7622271E-2,1.0222461E-3,-1.3508692E-2],"split_indices":[0,6,6,4,4,4,4,0,0,0,0,0,0,0,0],"split_type":[0,0,0,0,0,0,0,0,0,0,0,0,0,0,0],"sum_hessian":[1.0086751E4,6.4612495E3,3.6255017E3,3.394784E3,3.0664656E3,1.6974264E3,1.9280752E3,1.744311E3,1.6504729E3,2.0501694E3,1.0162962E3,1.1412031E3,5.562233E2,1.0022295E3,9.258457E2],"tree_param":{"num_deleted":"0","num_feature":"30","num_nodes":"15","size_leaf_vector":"1"}},{"base_weights":[-5.3083127E-6,3.6007407E-1,-2.9444143E-1,5.793978E-1,1.727408E-1,1.8563735E-1,-4.2292136E-1,2.3532182E-2,1.1945691E-2,1.6572557E-2,1.4566944E-3,-9.196744E-3,1.525047E-2,-5.405263E-3,-1.909409E-2],"categories":[],"categories_nodes":[],"categories_segments":[],"categories_sizes":[],"default_left":[0,0,0,0,0,0,0,0,0,0,0,0,0,0,0],"id":19,"left_children":[1,3,5,7,9,11,13,-1,-1,-1,-1,-1,-1,-1,-1],"loss_changes":[1.0656227E3,1.8567432E2,3.4114597E2,8.17464E1,1.210788E2,2.0694055E2,2.5048114E2,0E0,0E0,0E0,0E0,0E0,0E0,0E0,0E0],"parents":[2147483647,0,0,1,1,2,2,3,3,4,4,5,5,6,6],"right_children":[2,4,6,8,10,12,14,-1,-1,-1,-1,-1,-1,-1,-1],"split_conditions":[3.7E1,4.8E1,3.7135E4,6.0528E4,3.8675E4,1.32882E5,5.7E1,2.3532182E-2,1.1945691E-2,1.6572557E-2,1.4566944E-3,-9.196744E-3,1.525047E-2,-5.405263E-3,-1.909409E-2],"split_indices":[0,4,1,1,1,2,4,0,0,0,0,0,0,0,0],"split_type":[0,0,0,0,0,0,0,0,0,0,0,0,0,0,0],"sum_hessian":[1.0049112E4,4.5205283E3,5.5285835E3,2.081492E3,2.4390364E3,1.16711E3,4.3614736E3,8.2374023E2,1.2577517E3,5.5977203E2,1.8792643E3,4.7509515E2,6.920149E2,2.2378894E3,2.1235842E3],"tree_param":{"num_deleted":"0","num_feature":"30","num_nodes":"15","size_leaf_vector":"1"}},{"base_weights":[-3.1248457E-3,-3.8637865E-1,1.671184E-1,-1.2725867E-1,-5.740404E-1,3.2324463E-1,-1.5087274E-1,-8.555625E-3,7.375801E-4,-1.3241665E-2,-2.2114016E-2,4.572528E-3,1.37289865E-2,-9.090468E-3,1.4736152E-3],"categories":[],"categories_nodes":[],"categories_segments":[],"categories_sizes":[],"default_left":[0,0,0,0,0,0,0,0,0,0,0,0,0,0,0],"id":20,"left_children":[1,3,5,7,9,11,13,-1,-1,-1,-1,-1,-1,-1,-1],"loss_changes":[6.557918E2,1.5025516E2,3.4556818E2,3.4322914E1,3.9266968E1,1.1995331E2,7.7801544E1,0E0,0E0,0E0,0E0,0E0,0E0,0E0,0E0],"parents":[2147483647,0,0,1,1,2,2,3,3,4,4,5,5,6,6],"right_children":[2,4,6,8,10,12,14,-1,-1,-1,-1,-1,-1,-1,-1],"split_conditions":[1.043E1,4.6E1,7.5E1,6.17E0,9.3E1,1.829E1,1.913E1,-8.555625E-3,7.375801E-4,-1.3241665E-2,-2.2114016E-2,4.572528E-3,1.37289865E-2,-9.090468E-3,1.4736152E-3],"split_indices":[6,4,4,6,4,6,6,0,0,0,0,0,0,0,0],"split_type":[0,0,0,0,0,0,0,0,0,0,0,0,0,0,0],"sum_hessian":[1.0049019E4,3.0904617E3,6.9585566E3,1.2987916E3,1.7916699E3,4.667102E3,2.2914546E3,6.103494E2,6.8844226E2,1.1586135E3,6.330564E2,2.2953374E3,2.3717646E3,1.2535526E3,1.037902E3],"tree_param":{"num_deleted":"0","num_feature":"30","num_nodes":"15","size_leaf_vector":"1"}},{"base_weights":[-6.376916E-3,-3.6395144E-1,1.6173907E-1,2.7696225E-1,-4.5719388E-1,6.587944E-1,7.8165285E-2,-5.887681E-3,2.202945E-2,-1.764657E-2,-8.141609E-3,-3.0272338E-3,2.3272155E-2,-2.7966953E-3,6.857069E-3],"categories":[],"categories_nodes":[],"categories_segments":[],"categories_sizes":[],"default_left":[0,0,0,0,0,0,0,0,0,0,0,0,0,0,0],"id":21,"left_children":[1,3,5,7,9,11,13,-1,-1,-1,-1,-1,-1,-1,-1],"loss_changes":[6.019584E2,1.9150027E2,2.828946E2,9.753655E1,7.7230835E1,1.1736603E2,1.6647046E2,0E0,0E0,0E0,0E0,0E0,0E0,0E0,0E0],"parents":[2147483647,0,0,1,1,2,2,3,3,4,4,5,5,6,6],"right_children":[2,4,6,8,10,12,14,-1,-1,-1,-1,-1,-1,-1,-1],"split_conditions":[1.073E1,2.7167E4,2.8973E4,1.61819E5,1.37973E5,6.6215E4,1.829E1,-5.887681E-3,2.202945E-2,-1.764657E-2,-8.141609E-3,-3.0272338E-3,2.3272155E-2,-2.7966953E-3,6.857069E-3],"split_indices":[6,1,1,2,2,2,6,0,0,0,0,0,0,0,0],"split_type":[0,0,0,0,0,0,0,0,0,0,0,0,0,0,0],"sum_hessian":[1.0011636E4,3.2013516E3,6.8102837E3,4.063415E2,2.79501E3,9.792585E2,5.8310254E3,2.0585915E2,2.0048236E2,1.4424607E3,1.3525493E3,1.663289E2,8.1292957E2,2.7941743E3,3.036851E3],"tree_param":{"num_deleted":"0","num_feature":"30","num_nodes":"15","size_leaf_vector":"1"}},{"base_weights":[-4.1962243E-3,-3.754717E-1,1.5763348E-1,-1.1789217E-1,-5.547771E-1,3.0703154E-1,-1.4621775E-1,5.295955E-4,-7.70356E-3,-1.2735583E-2,-2.0803183E-2,4.3727322E-3,1.3029043E-2,-9.119956E-3,1.8718217E-3],"categories":[],"categories_nodes":[],"categories_segments":[],"categories_sizes":[],"default_left":[0,0,0,0,0,0,0,0,0,0,0,0,0,0,0],"id":22,"left_children":[1,3,5,7,9,11,13,-1,-1,-1,-1,-1,-1,-1,-1],"loss_changes":[6.023548E2,1.4048999E2,3.1699307E2,2.5928991E1,3.3582336E1,1.07508514E2,8.4490555E1,0E0,0E0,0E0,0E0,0E0,0E0,0E0,0E0],"parents":[2147483647,0,0,1,1,2,2,3,3,4,4,5,5,6,6],"right_children":[2,4,6,8,10,12,14,-1,-1,-1,-1,-1,-1,-1,-1],"split_conditions":[1.033E1,4.5E1,7.5E1,1E0,9E1,1.829E1,1.913E1,5.295955E-4,-7.70356E-3,-1.2735583E-2,-2.0803183E-2,4.3727322E-3,1.3029043E-2,-9.119956E-3,1.8718217E-3],"split_indices":[6,4,4,11,4,6,6,0,0,0,0,0,0,0,0],"split_type":[0,0,0,0,0,0,0,0,0,0,0,0,0,0,0],"sum_hessian":[1.0023326E4,3.0422856E3,6.9810405E3,1.2492886E3,1.792997E3,4.6799736E3,2.3010671E3,6.587187E2,5.905699E2,1.1058589E3,6.8713806E2,2.3064102E3,2.3735632E3,1.2653965E3,1.0356707E3],"tree_param":{"num_deleted":"0","num_feature":"30","num_nodes":"15","size_leaf_vector":"1"}},{"base_weights":[9.235542E-4,2.0369469E-1,-5.0037915E-1,-1.4895478E-1,3.6375755E-1,-8.231721E-1,-3.628953E-1,3.283657E-3,-1.023347E-2,1.5906842E-2,4.461915E-3,-1.6451268E-2,-2.8094988E-2,-1.526936E-2,-1.5461233E-3],"categories":[],"categories_nodes":[],"categories_segments":[],"categories_sizes":[],"default_left":[0,0,0,0,0,0,0,0,0,0,0,0,0,0,0],"id":23,"left_children":[1,3,5,7,9,11,13,-1,-1,-1,-1,-1,-1,-1,-1],"loss_changes":[1.0208904E3,4.0368884E2,1.280633E2,1.2355446E2,1.9732062E2,3.374121E1,1.07775085E2,0E0,0E0,0E0,0E0,0E0,0E0,0E0,0E0],"parents":[2147483647,0,0,1,1,2,2,3,3,4,4,5,5,6,6],"right_children":[2,4,6,8,10,12,14,-1,-1,-1,-1,-1,-1,-1,-1],"split_conditions":[5.1E1,1.073E1,8.4236E4,4.7E1,3.3E1,4.5E1,1.803E1,3.283657E-3,-1.023347E-2,1.5906842E-2,4.461915E-3,-1.6451268E-2,-2.8094988E-2,-1.526936E-2,-1.5461233E-3],"split_indices":[0,6,2,4,0,4,6,0,0,0,0,0,0,0,0],"split_type":[0,0,0,0,0,0,0,0,0,0,0,0,0,0,0],"sum_hessian":[1.0041217E4,7.1497993E3,2.8914175E3,2.2321064E3,4.917693E3,8.621714E2,2.029246E3,9.878943E2,1.2442122E3,2.5438325E3,2.3738604E3,3.421137E2,5.200577E2,1.3027699E3,7.264761E2],"tree_param":{"num_deleted":"0","num_feature":"30","num_nodes":"15","size_leaf_vector":"1"}},{"base_weights":[4.7649043E-3,2.3516847E-1,-4.0788847E-1,3.562831E-2,5.053363E-1,1.812117E-1,-4.8966065E-1,1.3467372E-2,-2.8576988E-3,1.811857E-2,6.117279E-3,-1.6403634E-2,1.2672816E-2,-9.674293E-3,-2.2433829E-2],"categories":[],"categories_nodes":[],"categories_segments":[],"categories_sizes":[],"default_left":[0,0,0,0,0,0,0,0,0,0,0,0,0,0,0],"id":24,"left_children":[1,3,5,7,9,11,13,-1,-1,-1,-1,-1,-1,-1,-1],"loss_changes":[9.521761E2,3.464329E2,1.7294208E2,2.1893156E2,1.02646484E2,8.7247894E1,1.4045642E2,0E0,0E0,0E0,0E0,0E0,0E0,0E0,0E0],"parents":[2147483647,0,0,1,1,2,2,3,3,4,4,5,5,6,6],"right_children":[2,4,6,8,10,12,14,-1,-1,-1,-1,-1,-1,-1,-1],"split_conditions":[4.7E1,1.687E1,2.6715E4,3.9656E4,7.7E1,9.4184E4,7.6E1,1.3467372E-2,-2.8576988E-3,1.811857E-2,6.117279E-3,-1.6403634E-2,1.2672816E-2,-9.674293E-3,-2.2433829E-2],"split_indices":[0,6,1,1,4,2,4,0,0,0,0,0,0,0,0],"split_type":[0,0,0,0,0,0,0,0,0,0,0,0,0,0,0],"sum_hessian":[1.0012801E4,6.4255483E3,3.5872524E3,3.6965142E3,2.7290344E3,4.3709964E2,3.1501528E3,8.767858E2,2.8197283E3,1.8885104E3,8.4052405E2,1.12435974E2,3.2466367E2,2.08896E3,1.0611929E3],"tree_param":{"num_deleted":"0","num_feature":"30","num_nodes":"15","size_leaf_vector":"1"}},{"base_weights":[-8.385069E-3,3.265598E-1,-2.8109714E-1,1.0923291E-1,5.670936E-1,3.2598662E-1,-3.6917147E-1,1.4799464E-2,-5.4969365E-4,1.1801642E-2,2.1693645E-2,-1.3834586E-2,1.6148271E-2,-1.603221E-2,-2.7000343E-3],"categories":[],"categories_nodes":[],"categories_segments":[],"categories_sizes":[],"default_left":[0,0,0,0,0,0,0,0,0,0,0,0,0,0,0],"id":25,"left_children":[1,3,5,7,9,11,13,-1,-1,-1,-1,-1,-1,-1,-1],"loss_changes":[9.127051E2,2.343552E2,2.946061E2,1.2393576E2,6.2758118E1,1.3595471E2,2.5412769E2,0E0,0E0,0E0,0E0,0E0,0E0,0E0,0E0],"parents":[2147483647,0,0,1,1,2,2,3,3,4,4,5,5,6,6],"right_children":[2,4,6,8,10,12,14,-1,-1,-1,-1,-1,-1,-1,-1],"split_conditions":[3.7E1,1.582E1,2.7167E4,3.9656E4,1.52253E5,8.7035E4,1.687E1,1.4799464E-2,-5.4969365E-4,1.1801642E-2,2.1693645E-2,-1.3834586E-2,1.6148271E-2,-1.603221E-2,-2.7000343E-3],"split_indices":[0,6,1,1,2,2,6,0,0,0,0,0,0,0,0],"split_type":[0,0,0,0,0,0,0,0,0,0,0,0,0,0,0],"sum_hessian":[9.990003E3,4.483353E3,5.50665E3,2.356061E3,2.127292E3,6.973328E2,4.809317E3,5.622997E2,1.7937614E3,1.1855677E3,9.4172424E2,1.5890358E2,5.384292E2,2.8270457E3,1.9822711E3],"tree_param":{"num_deleted":"0","num_feature":"30","num_nodes":"15","size_leaf_vector":"1"}},{"base_weights":[-7.600958E-3,-3.5898316E-1,1.400573E-1,-1.7804826E-2,-5.093712E-1,2.820269E-1,-1.6258298E-1,-1.2390479E-2,9.615627E-3,-1.0381175E-2,-2.1296175E-2,1.4626855E-2,2.9721179E-3,6.2545002E-3,-8.603371E-3],"categories":[],"categories_nodes":[],"categories_segments":[],"categories_sizes":[],"default_left":[0,0,0,0,0,0,0,0,0,0,0,0,0,0,0],"id":26,"left_children":[1,3,5,7,9,11,13,-1,-1,-1,-1,-1,-1,-1,-1],"loss_changes":[5.167081E2,1.5118115E2,3.0132996E2,1.333701E2,7.02486E1,1.9557602E2,1.1871274E2,0E0,0E0,0E0,0E0,0E0,0E0,0E0,0E0],"parents":[2147483647,0,0,1,1,2,2,3,3,4,4,5,5,6,6],"right_children":[2,4,6,8,10,12,14,-1,-1,-1,-1,-1,-1,-1,-1],"split_conditions":[1.015E1,4.9684E4,7.6E1,1.38735E5,7.1E1,6.6786E4,4.3256E4,-1.2390479E-2,9.615627E-3,-1.0381175E-2,-2.1296175E-2,1.4626855E-2,2.9721179E-3,6.2545002E-3,-8.603371E-3],"split_indices":[6,1,4,2,4,1,1,0,0,0,0,0,0,0,0],"split_type":[0,0,0,0,0,0,0,0,0,0,0,0,0,0,0],"sum_hessian":[9.95685E3,2.9456526E3,7.0111973E3,9.0152454E2,2.044128E3,4.772479E3,2.2387183E3,4.1464307E2,4.8688147E2,1.2666523E3,7.7747577E2,2.078936E3,2.6935432E3,5.968389E2,1.6418793E3],"tree_param":{"num_deleted":"0","num_feature":"30","num_nodes":"15","size_leaf_vector":"1"}},{"base_weights":[6.8633026E-3,1.8226947E-1,-5.0735444E-1,-2.7412314E-2,4.169452E-1,-6.9008166E-1,-3.1105778E-1,-5.0875796E-3,8.269426E-3,1.7306516E-2,5.973708E-3,-2.8840447E-2,-1.6054729E-2,-1.5285319E-2,-4.2993426E-3],"categories":[],"categories_nodes":[],"categories_segments":[],"categories_sizes":[],"default_left":[0,0,0,0,0,0,0,0,0,0,0,0,0,0,0],"id":27,"left_children":[1,3,5,7,9,11,13,-1,-1,-1,-1,-1,-1,-1,-1],"loss_changes":[8.985201E2,3.655202E2,9.066882E1,1.8768356E2,1.376784E2,5.304895E1,4.3964027E1,0E0,0E0,0E0,0E0,0E0,0E0,0E0,0E0],"parents":[2147483647,0,0,1,1,2,2,3,3,4,4,5,5,6,6],"right_children":[2,4,6,8,10,12,14,-1,-1,-1,-1,-1,-1,-1,-1],"split_conditions":[5.3E1,1.582E1,1.40907E5,1.82785E5,3.4E1,9.45E0,1.276E1,-5.0875796E-3,8.269426E-3,1.7306516E-2,5.973708E-3,-2.8840447E-2,-1.6054729E-2,-1.5285319E-2,-4.2993426E-3],"split_indices":[0,6,2,2,0,6,6,0,0,0,0,0,0,0,0],"split_type":[0,0,0,0,0,0,0,0,0,0,0,0,0,0,0],"sum_hessian":[9.95973E3,7.4269497E3,2.532781E3,3.9228145E3,3.5041353E3,1.3104257E3,1.2223553E3,2.6587659E3,1.2640488E3,1.8322089E3,1.6719264E3,3.716157E2,9.3880994E2,5.086677E2,7.136877E2],"tree_param":{"num_deleted":"0","num_feature":"30","num_nodes":"15","size_leaf_vector":"1"}},{"base_weights":[-1.147645E-3,1.687562E-1,-4.9918258E-1,6.5340734E-1,8.0181934E-2,5.1860824E-2,-5.7492906E-1,2.15118E-2,7.8062424E-3,9.156739E-3,-3.6084815E-3,1.814349E-2,-9.1459625E-4,-7.1860556E-3,-1.9808536E-2],"categories":[],"categories_nodes":[],"categories_segments":[],"categories_sizes":[],"default_left":[0,0,0,0,0,0,0,0,0,0,0,0,0,0,0],"id":28,"left_children":[1,3,5,7,9,11,13,-1,-1,-1,-1,-1,-1,-1,-1],"loss_changes":[8.4107574E2,3.1809796E2,1.055625E2,4.33656E1,3.1152505E2,1.5028637E1,8.529297E1,0E0,0E0,0E0,0E0,0E0,0E0,0E0,0E0],"parents":[2147483647,0,0,1,1,2,2,3,3,4,4,5,5,6,6],"right_children":[2,4,6,8,10,12,14,-1,-1,-1,-1,-1,-1,-1,-1],"split_conditions":[5.3E1,2.9895E4,2.7167E4,9.1E1,3.2E1,1.6232E4,2.9E1,2.15118E-2,7.8062424E-3,9.156739E-3,-3.6084815E-3,1.814349E-2,-9.1459625E-4,-7.1860556E-3,-1.9808536E-2],"split_indices":[0,1,1,4,0,1,4,0,0,0,0,0,0,0,0],"split_type":[0,0,0,0,0,0,0,0,0,0,0,0,0,0,0],"sum_hessian":[9.937677E3,7.4103193E3,2.527358E3,1.1440505E3,6.2662686E3,3.0546503E2,2.2218928E3,9.046249E2,2.3942569E2,2.8947144E3,3.3715542E3,3.7562077E1,2.6790295E2,5.986281E2,1.6232648E3],"tree_param":{"num_deleted":"0","num_feature":"30","num_nodes":"15","size_leaf_vector":"1"}},{"base_weights":[3.2281352E-3,3.171144E-1,-2.5289717E-1,7.419641E-1,2.4278468E-1,-4.4312634E-2,-4.7722098E-1,2.3665916E-2,1.06200725E-2,1.1406087E-2,9.05985E-4,4.869174E-3,-8.598723E-3,-1.5321062E-3,-1.6803876E-2],"categories":[],"categories_nodes":[],"categories_segments":[],"categories_sizes":[],"default_left":[0,0,0,0,0,0,0,0,0,0,0,0,0,0,0],"id":29,"left_children":[1,3,5,7,9,11,13,-1,-1,-1,-1,-1,-1,-1,-1],"loss_changes":[7.99461E2,1.4092358E2,2.5620245E2,2.1102661E1,1.25860245E2,1.5675119E2,1.24474365E2,0E0,0E0,0E0,0E0,0E0,0E0,0E0,0E0],"parents":[2147483647,0,0,1,1,2,2,3,3,4,4,5,5,6,6],"right_children":[2,4,6,8,10,12,14,-1,-1,-1,-1,-1,-1,-1,-1],"split_conditions":[3.7E1,2.9434E4,5.7E1,9.3E1,6.2E1,5.3E1,3.7135E4,2.3665916E-2,1.06200725E-2,1.1406087E-2,9.05985E-4,4.869174E-3,-8.598723E-3,-1.5321062E-3,-1.6803876E-2],"split_indices":[0,1,4,4,4,0,1,0,0,0,0,0,0,0,0],"split_type":[0,0,0,0,0,0,0,0,0,0,0,0,0,0,0],"sum_hessian":[9.942262E3,4.467284E3,5.474977E3,6.638584E2,3.803426E3,2.8376362E3,2.637341E3,5.363983E2,1.2746009E2,2.1818345E3,1.6215916E3,1.5453726E3,1.2922635E3,5.4958466E2,2.0877563E3],"tree_param":{"num_deleted":"0","num_feature":"30","num_nodes":"15","size_leaf_vector":"1"}},{"base_weights":[1.9610035E-3,2.5364205E-1,-3.0515224E-1,4.8825136E-1,9.4414085E-2,-5.9428442E-2,-4.7879073E-1,5.3219777E-3,2.102571E-2,6.488367E-3,-5.808867E-3,7.857826E-3,-5.893033E-3,-1.7657459E-2,-4.827918E-3],"categories":[],"categories_nodes":[],"categories_segments":[],"categories_sizes":[],"default_left":[0,0,0,0,0,0,0,0,0,0,0,0,0,0,0],"id":30,"left_children":[1,3,5,7,9,11,13,-1,-1,-1,-1,-1,-1,-1,-1],"loss_changes":[7.673431E2,2.0377603E2,1.907514E2,1.651471E2,1.2874815E2,9.1201706E1,1.1327081E2,0E0,0E0,0E0,0E0,0E0,0E0,0E0,0E0],"parents":[2147483647,0,0,1,1,2,2,3,3,4,4,5,5,6,6],"right_children":[2,4,6,8,10,12,14,-1,-1,-1,-1,-1,-1,-1,-1],"split_conditions":[4.2E1,6.2126E4,4.5E1,1.35969E5,7.7E1,4.8654E4,1.82785E5,5.3219777E-3,2.102571E-2,6.488367E-3,-5.808867E-3,7.857826E-3,-5.893033E-3,-1.7657459E-2,-4.827918E-3],"split_indices":[0,1,4,2,4,1,2,0,0,0,0,0,0,0,0],"split_type":[0,0,0,0,0,0,0,0,0,0,0,0,0,0,0],"sum_hessian":[9.925512E3,5.4551553E3,4.470357E3,2.2046777E3,3.2504775E3,1.8515234E3,2.6188335E3,9.9583026E2,1.2088475E3,2.24802E3,1.00245734E3,5.647871E2,1.2867363E3,1.8038076E3,8.1502576E2],"tree_param":{"num_deleted":"0","num_feature":"30","num_nodes":"15","size_leaf_vector":"1"}},{"base_weights":[-9.3371826E-5,1.592975E-1,-4.664845E-1,5.1978815E-1,5.279712E-2,1.2254037E-1,-5.2569175E-1,5.513292E-3,2.5015162E-2,7.7537005E-3,-3.8116006E-3,-2.1745926E-2,9.56897E-3,-1.917374E-2,-1.038752E-2],"categories":[],"categories_nodes":[],"categories_segments":[],"categories_sizes":[],"default_left":[0,0,0,0,0,0,0,0,0,0,0,0,0,0,0],"id":31,"left_children":[1,3,5,7,9,11,13,-1,-1,-1,-1,-1,-1,-1,-1],"loss_changes":[7.382853E2,2.8414557E2,8.82829E1,1.9638983E2,2.3302585E2,4.3856815E1,5.4050354E1,0E0,0E0,0E0,0E0,0E0,0E0,0E0,0E0],"parents":[2147483647,0,0,1,1,2,2,3,3,4,4,5,5,6,6],"right_children":[2,4,6,8,10,12,14,-1,-1,-1,-1,-1,-1,-1,-1],"split_conditions":[5.3E1,3.8675E4,2.3935E4,1.59966E5,3.2E1,6.5156E4,1.40907E5,5.513292E-3,2.5015162E-2,7.7537005E-3,-3.8116006E-3,-2.1745926E-2,9.56897E-3,-1.917374E-2,-1.038752E-2],"split_indices":[0,1,1,2,0,2,2,0,0,0,0,0,0,0,0],"split_type":[0,0,0,0,0,0,0,0,0,0,0,0,0,0,0],"sum_hessian":[9.9294E3,7.400806E3,2.5285942E3,1.6869177E3,5.7138887E3,2.3085522E2,2.297739E3,8.8109705E2,8.058207E2,2.627567E3,3.0863215E3,4.4253773E1,1.8660146E2,1.2063959E3,1.0913431E3],"tree_param":{"num_deleted":"0","num_feature":"30","num_nodes":"15","size_leaf_vector":"1"}},{"base_weights":[-2.1037238E-3,1.518923E-1,-4.564885E-1,3.3928543E-1,-3.916082E-2,-3.2417786E-1,-7.218887E-1,1.5639868E-2,6.116596E-3,5.1980214E-3,-6.3499957E-3,-5.0396565E-3,-1.38042215E-2,-1.8055787E-2,-2.5310505E-2],"categories":[],"categories_nodes":[],"categories_segments":[],"categories_sizes":[],"default_left":[0,0,0,0,0,0,0,0,0,0,0,0,0,0,0],"id":32,"left_children":[1,3,5,7,9,11,13,-1,-1,-1,-1,-1,-1,-1,-1],"loss_changes":[6.9459656E2,2.6544702E2,8.799866E1,9.748566E1,1.4894026E2,3.9413055E1,1.1737518E1,0E0,0E0,0E0,0E0,0E0,0E0,0E0,0E0],"parents":[2147483647,0,0,1,1,2,2,3,3,4,4,5,5,6,6],"right_children":[2,4,6,8,10,12,14,-1,-1,-1,-1,-1,-1,-1,-1],"split_conditions":[5.3E1,5.4E1,7.6E1,2.9E1,3.2E1,1E0,1.05E2,1.5639868E-2,6.116596E-3,5.1980214E-3,-6.3499957E-3,-5.0396565E-3,-1.38042215E-2,-1.8055787E-2,-2.5310505E-2],"split_indices":[0,4,4,0,0,11,4,0,0,0,0,0,0,0,0],"split_type":[0,0,0,0,0,0,0,0,0,0,0,0,0,0,0],"sum_hessian":[9.924583E3,7.4129263E3,2.5116572E3,3.741917E3,3.6710093E3,1.6775603E3,8.340968E2,1.4010745E3,2.3408425E3,1.6632305E3,2.0077789E3,8.7195807E2,8.056023E2,5.4382385E2,2.9027292E2],"tree_param":{"num_deleted":"0","num_feature":"30","num_nodes":"15","size_leaf_vector":"1"}},{"base_weights":[-6.2089623E-3,-1.8789274E-1,2.4655937E-1,1.7763098E-1,-2.9804826E-1,6.843415E-1,1.6764066E-1,-7.291161E-3,1.35926725E-2,-1.6664598E-2,-5.6549213E-3,1.1534828E-2,2.642199E-2,1.8970878E-3,1.1165978E-2],"categories":[],"categories_nodes":[],"categories_segments":[],"categories_sizes":[],"default_left":[0,0,0,0,0,0,0,0,0,0,0,0,0,0,0],"id":33,"left_children":[1,3,5,7,9,11,13,-1,-1,-1,-1,-1,-1,-1,-1],"loss_changes":[4.547809E2,2.3204044E2,1.4296454E2,1.7268109E2,1.2633484E2,4.2368103E1,7.9356346E1,0E0,0E0,0E0,0E0,0E0,0E0,0E0,0E0],"parents":[2147483647,0,0,1,1,2,2,3,3,4,4,5,5,6,6],"right_children":[2,4,6,8,10,12,14,-1,-1,-1,-1,-1,-1,-1,-1],"split_conditions":[1.687E1,3.9656E4,3.0267E4,1.28031E5,6.39E0,1.47514E5,1.81879E5,-7.291161E-3,1.35926725E-2,-1.6664598E-2,-5.6549213E-3,1.1534828E-2,2.642199E-2,1.8970878E-3,1.1165978E-2],"split_indices":[6,1,1,2,6,2,2,0,0,0,0,0,0,0,0],"split_type":[0,0,0,0,0,0,0,0,0,0,0,0,0,0,0],"sum_hessian":[9.900915E3,5.7605947E3,4.14032E3,1.3338693E3,4.4267256E3,6.3120337E2,3.5091165E3,5.4435626E2,7.8951294E2,1.1460571E3,3.2806685E3,2.9320123E2,3.380021E2,2.4164292E3,1.0926871E3],"tree_param":{"num_deleted":"0","num_feature":"30","num_nodes":"15","size_leaf_vector":"1"}},{"base_weights":[-2.5722705E-4,2.574748E-1,-2.4971867E-1,-1.0407181E-1,3.721405E-1,-4.081423E-1,2.6853928E-2,3.4000934E-3,-8.692155E-3,7.3422682E-3,1.8017503E-2,-3.3227354E-3,-1.5391108E-2,5.361425E-3,-8.404374E-3],"categories":[],"categories_nodes":[],"categories_segments":[],"categories_sizes":[],"default_left":[0,0,0,0,0,0,0,0,0,0,0,0,0,0,0],"id":34,"left_children":[1,3,5,7,9,11,13,-1,-1,-1,-1,-1,-1,-1,-1],"loss_changes":[6.3607025E2,2.0176428E2,2.2028183E2,5.247617E1,1.0982626E2,1.2210614E2,9.477659E1,0E0,0E0,0E0,0E0,0E0,0E0,0E0,0E0],"parents":[2147483647,0,0,1,1,2,2,3,3,4,4,5,5,6,6],"right_children":[2,4,6,8,10,12,14,-1,-1,-1,-1,-1,-1,-1,-1],"split_conditions":[3.9E1,8.97E0,1.795E1,5.1E1,1.85317E5,3.3E1,5.8E1,3.4000934E-3,-8.692155E-3,7.3422682E-3,1.8017503E-2,-3.3227354E-3,-1.5391108E-2,5.361425E-3,-8.404374E-3],"split_indices":[0,6,6,4,2,4,0,0,0,0,0,0,0,0,0],"split_type":[0,0,0,0,0,0,0,0,0,0,0,0,0,0,0],"sum_hessian":[9.89112E3,4.864899E3,5.0262207E3,1.1714263E3,3.6934727E3,3.1953918E3,1.830829E3,5.544297E2,6.169966E2,2.5595938E3,1.1338789E3,9.908025E2,2.2045894E3,1.2200015E3,6.108276E2],"tree_param":{"num_deleted":"0","num_feature":"30","num_nodes":"15","size_leaf_vector":"1"}},{"base_weights":[-2.172995E-3,1.7894028E-1,-1.9604917E-1,4.1499737E-1,2.8848084E-2,3.5974562E-1,-2.682751E-1,-1.761776E-3,1.7394194E-2,4.402193E-3,-3.1176703E-3,1.690096E-3,2.446126E-2,-1.2883221E-2,-3.5991985E-3],"categories":[],"categories_nodes":[],"categories_segments":[],"categories_sizes":[],"default_left":[0,0,0,0,0,0,0,0,0,0,0,0,0,0,0],"id":35,"left_children":[1,3,5,7,9,11,13,-1,-1,-1,-1,-1,-1,-1,-1],"loss_changes":[3.4570236E2,1.8033493E2,1.9097902E2,1.833085E2,5.389004E1,8.1718864E1,1.09477264E2,0E0,0E0,0E0,0E0,0E0,0E0,0E0,0E0],"parents":[2147483647,0,0,1,1,2,2,3,3,4,4,5,5,6,6],"right_children":[2,4,6,8,10,12,14,-1,-1,-1,-1,-1,-1,-1,-1],"split_conditions":[5.6E1,6.0528E4,2.5909E4,9.4184E4,1E0,1.85317E5,1.20529E5,-1.761776E-3,1.7394194E-2,4.402193E-3,-3.1176703E-3,1.690096E-3,2.446126E-2,-1.2883221E-2,-3.5991985E-3],"split_indices":[4,1,1,2,11,2,2,0,0,0,0,0,0,0,0],"split_type":[0,0,0,0,0,0,0,0,0,0,0,0,0,0,0],"sum_hessian":[9.8432705E3,5.0891846E3,4.754086E3,1.9774271E3,3.1117576E3,5.462891E2,4.207797E3,5.7282794E2,1.4045991E3,1.6308262E3,1.4809314E3,3.4115927E2,2.0512984E2,1.8388274E3,2.3689695E3],"tree_param":{"num_deleted":"0","num_feature":"30","num_nodes":"15","size_leaf_vector":"1"}},{"base_weights":[-3.0260424E-3,1.4311622E-1,-4.3347004E-1,-1.3122971E-1,2.659218E-1,-7.1719927E-1,-3.1352457E-1,2.2882514E-3,-9.557336E-3,1.3966764E-2,3.8376406E-3,-1.8327646E-2,-2.6990823E-2,-4.54904E-3,-1.1618525E-2],"categories":[],"categories_nodes":[],"categories_segments":[],"categories_sizes":[],"default_left":[0,0,0,0,0,0,0,0,0,0,0,0,0,0,0],"id":36,"left_children":[1,3,5,7,9,11,13,-1,-1,-1,-1,-1,-1,-1,-1],"loss_changes":[6.200199E2,2.4793858E2,8.4793365E1,9.7960724E1,1.4920706E2,1.2119965E1,2.5264297E1,0E0,0E0,0E0,0E0,0E0,0E0,0E0,0E0],"parents":[2147483647,0,0,1,1,2,2,3,3,4,4,5,5,6,6],"right_children":[2,4,6,8,10,12,14,-1,-1,-1,-1,-1,-1,-1,-1],"split_conditions":[5.3E1,9.1227E4,8.4236E4,3.3E1,2.9E1,1E0,5.9E1,2.2882514E-3,-9.557336E-3,1.3966764E-2,3.8376406E-3,-1.8327646E-2,-2.6990823E-2,-4.54904E-3,-1.1618525E-2],"split_indices":[0,2,2,0,0,16,0,0,0,0,0,0,0,0,0],"split_type":[0,0,0,0,0,0,0,0,0,0,0,0,0,0,0],"sum_hessian":[9.854296E3,7.3571123E3,2.4971836E3,2.2749148E3,5.0821973E3,7.405187E2,1.756665E3,1.1163077E3,1.1586072E3,1.882345E3,3.1998523E3,5.5992645E2,1.8059222E2,6.640625E2,1.0926024E3],"tree_param":{"num_deleted":"0","num_feature":"30","num_nodes":"15","size_leaf_vector":"1"}},{"base_weights":[6.910231E-3,1.6985452E-1,-3.6730024E-1,-1.5898581E-1,3.0522895E-1,-2.3197077E-1,-6.396447E-1,2.573043E-3,-1.0128317E-2,1.2823828E-2,2.8322125E-3,-1.6357863E-2,-2.5590884E-3,-2.1507572E-2,-1.2373551E-2],"categories":[],"categories_nodes":[],"categories_segments":[],"categories_sizes":[],"default_left":[0,0,0,0,0,0,0,0,0,0,0,0,0,0,0],"id":37,"left_children":[1,3,5,7,9,11,13,-1,-1,-1,-1,-1,-1,-1,-1],"loss_changes":[6.022999E2,3.0638174E2,1.1028723E2,9.795186E1,1.4456598E2,9.718728E1,2.2993103E1,0E0,0E0,0E0,0E0,0E0,0E0,0E0,0E0],"parents":[2147483647,0,0,1,1,2,2,3,3,4,4,5,5,6,6],"right_children":[2,4,6,8,10,12,14,-1,-1,-1,-1,-1,-1,-1,-1],"split_conditions":[5E1,1.015E1,7.6E1,4.7E1,6.4E1,9.84E0,1.795E1,2.573043E-3,-1.0128317E-2,1.2823828E-2,2.8322125E-3,-1.6357863E-2,-2.5590884E-3,-2.1507572E-2,-1.2373551E-2],"split_indices":[0,6,4,4,4,6,6,0,0,0,0,0,0,0,0],"split_type":[0,0,0,0,0,0,0,0,0,0,0,0,0,0,0],"sum_hessian":[9.87572E3,6.8803306E3,2.9953896E3,2.006393E3,4.8739375E3,2.0022916E3,9.930981E2,8.832315E2,1.1231614E3,2.8681545E3,2.005783E3,5.8867487E2,1.4136168E3,6.3829016E2,3.548079E2],"tree_param":{"num_deleted":"0","num_feature":"30","num_nodes":"15","size_leaf_vector":"1"}},{"base_weights":[1.3022064E-3,2.9331014E-1,-1.998062E-1,1.3535687E-1,4.8006433E-1,-7.263707E-2,-4.7370094E-1,7.87227E-3,-2.6179542E-4,1.6403032E-2,8.02546E-3,-1.0053677E-2,1.6192988E-3,-1.7580329E-2,-6.601192E-3],"categories":[],"categories_nodes":[],"categories_segments":[],"categories_sizes":[],"default_left":[0,0,0,0,0,0,0,0,0,0,0,0,0,0,0],"id":38,"left_children":[1,3,5,7,9,11,13,-1,-1,-1,-1,-1,-1,-1,-1],"loss_changes":[5.774215E2,1.18224915E2,2.0277074E2,4.411785E1,3.4386444E1,1.4385469E2,6.3476776E1,0E0,0E0,0E0,0E0,0E0,0E0,0E0,0E0],"parents":[2147483647,0,0,1,1,2,2,3,3,4,4,5,5,6,6],"right_children":[2,4,6,8,10,12,14,-1,-1,-1,-1,-1,-1,-1,-1],"split_conditions":[3.5E1,1.49461E5,5.7E1,2.6E1,2.9E1,9.2219E4,1.67509E5,7.87227E-3,-2.6179542E-4,1.6403032E-2,8.02546E-3,-1.0053677E-2,1.6192988E-3,-1.7580329E-2,-6.601192E-3],"split_indices":[0,2,0,0,0,2,2,0,0,0,0,0,0,0,0],"split_type":[0,0,0,0,0,0,0,0,0,0,0,0,0,0,0],"sum_hessian":[9.830596E3,4.0090403E3,5.8215557E3,2.172936E3,1.8361042E3,3.9765237E3,1.8450317E3,1.1017151E3,1.071221E3,1.2433696E3,5.927346E2,1.2574712E3,2.7190525E3,1.16219E3,6.8284186E2],"tree_param":{"num_deleted":"0","num_feature":"30","num_nodes":"15","size_leaf_vector":"1"}},{"base_weights":[8.251437E-4,1.3772838E-1,-4.0387735E-1,-5.219538E-2,3.52633E-1,-6.959871E-1,-2.804486E-1,1.4148884E-2,-3.5129085E-3,1.7321737E-2,6.49103E-3,-2.4205623E-2,-1.2413263E-2,-3.9317864E-3,-1.6253972E-2],"categories":[],"categories_nodes":[],"categories_segments":[],"categories_sizes":[],"default_left":[0,0,0,0,0,0,0,0,0,0,0,0,0,0,0],"id":39,"left_children":[1,3,5,7,9,11,13,-1,-1,-1,-1,-1,-1,-1,-1],"loss_changes":[5.4535297E2,3.0021478E2,8.951071E1,1.516641E2,1.0970584E2,2.8927673E1,7.211154E1,0E0,0E0,0E0,0E0,0E0,0E0,0E0,0E0],"parents":[2147483647,0,0,1,1,2,2,3,3,4,4,5,5,6,6],"right_children":[2,4,6,8,10,12,14,-1,-1,-1,-1,-1,-1,-1,-1],"split_conditions":[5.3E1,1.582E1,9.84E0,2.5413E4,5.2474E4,1.67509E5,7.6E1,1.4148884E-2,-3.5129085E-3,1.7321737E-2,6.49103E-3,-2.4205623E-2,-1.2413263E-2,-3.9317864E-3,-1.6253972E-2],"split_indices":[0,6,6,1,1,2,4,0,0,0,0,0,0,0,0],"split_type":[0,0,0,0,0,0,0,0,0,0,0,0,0,0,0],"sum_hessian":[9.84101E3,7.3539624E3,2.4870474E3,3.9042798E3,3.4496829E3,7.373579E2,1.7496895E3,4.4648834E2,3.4577913E3,1.1375913E3,2.3120916E3,4.6473538E2,2.7262253E2,1.1721635E3,5.7752606E2],"tree_param":{"num_deleted":"0","num_feature":"30","num_nodes":"15","size_leaf_vector":"1"}},{"base_weights":[-6.360348E-4,2.5614887E-1,-2.1043609E-1,-1.4047296E-1,3.5598525E-1,-3.8452965E-1,3.46906E-2,-8.713906E-3,1.69998E-3,7.0460183E-3,1.7161274E-2,-1.4695823E-2,-2.6898268E-3,6.632937E-3,-5.378018E-3],"categories":[],"categories_nodes":[],"categories_segments":[],"categories_sizes":[],"default_left":[0,0,0,0,0,0,0,0,0,0,0,0,0,0,0],"id":40,"left_children":[1,3,5,7,9,11,13,-1,-1,-1,-1,-1,-1,-1,-1],"loss_changes":[5.2952155E2,1.7505438E2,2.3085834E2,2.9334528E1,9.435849E1,1.195665E2,9.913835E1,0E0,0E0,0E0,0E0,0E0,0E0,0E0,0E0],"parents":[2147483647,0,0,1,1,2,2,3,3,4,4,5,5,6,6],"right_children":[2,4,6,8,10,12,14,-1,-1,-1,-1,-1,-1,-1,-1],"split_conditions":[3.7E1,7.86E0,1.687E1,1.49461E5,1.85317E5,1.82785E5,5.7E1,-8.713906E-3,1.69998E-3,7.0460183E-3,1.7161274E-2,-1.4695823E-2,-2.6898268E-3,6.632937E-3,-5.378018E-3],"split_indices":[0,6,6,2,2,2,4,0,0,0,0,0,0,0,0],"split_type":[0,0,0,0,0,0,0,0,0,0,0,0,0,0,0],"sum_hessian":[9.826982E3,4.418606E3,5.4083765E3,8.884875E2,3.5301184E3,3.1620562E3,2.2463203E3,4.8688046E2,4.01607E2,2.44395E3,1.0861683E3,2.1821316E3,9.7992456E2,1.191E3,1.0553202E3],"tree_param":{"num_deleted":"0","num_feature":"30","num_nodes":"15","size_leaf_vector":"1"}},{"base_weights":[1.1430576E-3,1.4357871E-1,-3.5499626E-1,6.401227E-1,8.028287E-2,7.323527E-2,-4.4077355E-1,2.267576E-2,1.5551624E-2,8.760956E-3,-1.2666539E-3,1.05456775E-2,-2.9407318E-3,-8.978616E-3,-1.6124493E-2],"categories":[],"categories_nodes":[],"categories_segments":[],"categories_sizes":[],"default_left":[0,0,0,0,0,0,0,0,0,0,0,0,0,0,0],"id":41,"left_children":[1,3,5,7,9,11,13,-1,-1,-1,-1,-1,-1,-1,-1],"loss_changes":[4.9777252E2,2.2024849E2,1.0300723E2,1.1217712E1,1.756621E2,2.450378E1,3.640802E1,0E0,0E0,0E0,0E0,0E0,0E0,0E0,0E0],"parents":[2147483647,0,0,1,1,2,2,3,3,4,4,5,5,6,6],"right_children":[2,4,6,8,10,12,14,-1,-1,-1,-1,-1,-1,-1,-1],"split_conditions":[5.1E1,2.5413E4,3.2093E4,2.9E1,2.8E1,2.0875E4,6E1,2.267576E-2,1.5551624E-2,8.760956E-3,-1.2666539E-3,1.05456775E-2,-2.9407318E-3,-8.978616E-3,-1.6124493E-2],"split_indices":[0,1,1,0,0,1,0,0,0,0,0,0,0,0,0],"split_type":[0,0,0,0,0,0,0,0,0,0,0,0,0,0,0],"sum_hessian":[9.81078E3,7.008409E3,2.8023716E3,7.913447E2,6.2170645E3,4.6768134E2,2.3346902E3,2.9955457E2,4.917902E2,2.2057266E3,4.011338E3,1.7406923E2,2.936121E2,1.1588967E3,1.1757935E3],"tree_param":{"num_deleted":"0","num_feature":"30","num_nodes":"15","size_leaf_vector":"1"}},{"base_weights":[1.4672922E-3,-1.4194411E-1,2.6466218E-1,3.545249E-1,-2.1614355E-1,3.158868E-2,3.7981766E-1,-6.4053717E-3,1.7238416E-2,-1.2598916E-2,-3.172423E-3,4.0816227E-3,-6.034209E-3,1.741829E-2,6.3233664E-3],"categories":[],"categories_nodes":[],"categories_segments":[],"categories_sizes":[],"default_left":[0,0,0,0,0,0,0,0,0,0,0,0,0,0,0],"id":42,"left_children":[1,3,5,7,9,11,13,-1,-1,-1,-1,-1,-1,-1,-1],"loss_changes":[3.6875064E2,2.3302963E2,9.2470276E1,1.1887171E2,1.300694E2,3.0898312E1,8.3961395E1,0E0,0E0,0E0,0E0,0E0,0E0,0E0,0E0],"parents":[2147483647,0,0,1,1,2,2,3,3,4,4,5,5,6,6],"right_children":[2,4,6,8,10,12,14,-1,-1,-1,-1,-1,-1,-1,-1],"split_conditions":[1.829E1,2.7167E4,9.6176E4,1.0446E5,7.86E0,1E0,6.0528E4,-6.4053717E-3,1.7238416E-2,-1.2598916E-2,-3.172423E-3,4.0816227E-3,-6.034209E-3,1.741829E-2,6.3233664E-3],"split_indices":[6,1,2,2,6,21,1,0,0,0,0,0,0,0,0],"split_type":[0,0,0,0,0,0,0,0,0,0,0,0,0,0,0],"sum_hessian":[9.767489E3,6.3227617E3,3.444728E3,8.216068E2,5.501155E3,1.139555E3,2.305173E3,2.4736867E2,5.7423816E2,1.7484703E3,3.7526846E3,7.816239E2,3.5793112E2,9.378043E2,1.3673688E3],"tree_param":{"num_deleted":"0","num_feature":"30","num_nodes":"15","size_leaf_vector":"1"}},{"base_weights":[-2.6990336E-3,2.6483455E-1,-1.8653856E-1,-8.553088E-2,3.6766976E-1,1.1590962E-1,-3.1052497E-1,2.7619035E-3,-8.323178E-3,1.420748E-2,5.487692E-3,-1.7674082E-3,1.043054E-2,-1.7307334E-2,-5.244697E-3],"categories":[],"categories_nodes":[],"categories_segments":[],"categories_sizes":[],"default_left":[0,0,0,0,0,0,0,0,0,0,0,0,0,0,0],"id":43,"left_children":[1,3,5,7,9,11,13,-1,-1,-1,-1,-1,-1,-1,-1],"loss_changes":[4.8172083E2,1.4376062E2,2.1772935E2,3.4052628E1,7.025351E1,7.4931755E1,1.5430847E2,0E0,0E0,0E0,0E0,0E0,0E0,0E0,0E0],"parents":[2147483647,0,0,1,1,2,2,3,3,4,4,5,5,6,6],"right_children":[2,4,6,8,10,12,14,-1,-1,-1,-1,-1,-1,-1,-1],"split_conditions":[3.5E1,8.47E0,4.7161E4,1E0,6.2E1,1.696E1,1.015E1,2.7619035E-3,-8.323178E-3,1.420748E-2,5.487692E-3,-1.7674082E-3,1.043054E-2,-1.7307334E-2,-5.244697E-3],"split_indices":[0,6,1,10,4,6,6,0,0,0,0,0,0,0,0],"split_type":[0,0,0,0,0,0,0,0,0,0,0,0,0,0,0],"sum_hessian":[9.792404E3,3.9881638E3,5.80424E3,9.049877E2,3.0831763E3,1.6876093E3,4.116631E3,4.8045004E2,4.245376E2,1.7697592E3,1.3134171E3,9.8573474E2,7.0187445E2,1.2342223E3,2.8824087E3],"tree_param":{"num_deleted":"0","num_feature":"30","num_nodes":"15","size_leaf_vector":"1"}},{"base_weights":[2.7258124E-3,2.5773036E-1,-1.7279871E-1,8.065334E-2,4.5759255E-1,-4.0612543E-1,-1.6469873E-2,6.4541996E-3,-5.0241076E-3,9.446809E-3,1.8325368E-2,-5.123877E-3,-1.6492963E-2,3.461575E-3,-8.631193E-3],"categories":[],"categories_nodes":[],"categories_segments":[],"categories_sizes":[],"default_left":[0,0,0,0,0,0,0,0,0,0,0,0,0,0,0],"id":44,"left_children":[1,3,5,7,9,11,13,-1,-1,-1,-1,-1,-1,-1,-1],"loss_changes":[4.3711752E2,1.4087256E2,2.109835E2,7.888354E1,4.345883E1,9.0159515E1,1.3645753E2,0E0,0E0,0E0,0E0,0E0,0E0,0E0,0E0],"parents":[2147483647,0,0,1,1,2,2,3,3,4,4,5,5,6,6],"right_children":[2,4,6,8,10,12,14,-1,-1,-1,-1,-1,-1,-1,-1],"split_conditions":[3.5E1,1.582E1,1.268E1,7E1,1.59063E5,6.7367E4,7.6E1,6.4541996E-3,-5.0241076E-3,9.446809E-3,1.8325368E-2,-5.123877E-3,-1.6492963E-2,3.461575E-3,-8.631193E-3],"split_indices":[0,6,6,4,2,1,4,0,0,0,0,0,0,0,0],"split_type":[0,0,0,0,0,0,0,0,0,0,0,0,0,0,0],"sum_hessian":[9.76391E3,3.9805059E3,5.7834043E3,2.1113035E3,1.8692023E3,2.3196462E3,3.463758E3,1.3477058E3,7.635977E2,1.1095623E3,7.5963995E2,1.0004886E3,1.3191577E3,2.3379695E3,1.1257886E3],"tree_param":{"num_deleted":"0","num_feature":"30","num_nodes":"15","size_leaf_vector":"1"}},{"base_weights":[1.3899493E-3,1.2032854E-1,-1.289531E-1,1.8217205E-1,-9.089701E-2,-6.2701695E-2,-3.508924E-1,6.911402E-3,-1.7803795E-4,3.4301288E-3,-5.1806746E-3,4.0491736E-3,-3.0649821E-3,-8.116082E-3,-1.5663376E-2],"categories":[],"categories_nodes":[],"categories_segments":[],"categories_sizes":[],"default_left":[0,0,0,0,0,0,0,0,0,0,0,0,0,0,0],"id":45,"left_children":[1,3,5,7,9,11,13,-1,-1,-1,-1,-1,-1,-1,-1],"loss_changes":[1.5097887E2,6.6535164E1,6.830113E1,4.448369E1,2.2081995E1,3.2718277E1,1.3909866E1,0E0,0E0,0E0,0E0,0E0,0E0,0E0,0E0],"parents":[2147483647,0,0,1,1,2,2,3,3,4,4,5,5,6,6],"right_children":[2,4,6,8,10,12,14,-1,-1,-1,-1,-1,-1,-1,-1],"split_conditions":[1E0,1E0,1E0,7.1E2,4.56E2,3.93E2,7.03E2,6.911402E-3,-1.7803795E-4,3.4301288E-3,-5.1806746E-3,4.0491736E-3,-3.0649821E-3,-8.116082E-3,-1.5663376E-2],"split_indices":[11,16,16,3,3,3,3,0,0,0,0,0,0,0,0],"split_type":[0,0,0,0,0,0,0,0,0,0,0,0,0,0,0],"sum_hessian":[9.736801E3,5.091166E3,4.6456343E3,3.938247E3,1.1529191E3,3.5786492E3,1.0669849E3,2.987593E3,9.5065393E2,3.4612506E2,8.06794E2,6.409937E2,2.9376555E3,8.000788E2,2.669061E2],"tree_param":{"num_deleted":"0","num_feature":"30","num_nodes":"15","size_leaf_vector":"1"}},{"base_weights":[6.0970354E-4,-1.3722643E-1,2.3792711E-1,-4.0813422E-1,-1.4051038E-2,4.8010963E-1,1.2741597E-1,-6.919743E-3,-1.845033E-2,8.796525E-3,-5.4272227E-3,6.010297E-3,1.939597E-2,9.9795E-3,-6.8922737E-4],"categories":[],"categories_nodes":[],"categories_segments":[],"categories_sizes":[],"default_left":[0,0,0,0,0,0,0,0,0,0,0,0,0,0,0],"id":46,"left_children":[1,3,5,7,9,11,13,-1,-1,-1,-1,-1,-1,-1,-1],"loss_changes":[3.1983646E2,2.063904E2,9.608635E1,7.615753E1,2.4131662E2,6.0321472E1,8.311458E1,0E0,0E0,0E0,0E0,0E0,0E0,0E0,0E0],"parents":[2147483647,0,0,1,1,2,2,3,3,4,4,5,5,6,6],"right_children":[2,4,6,8,10,12,14,-1,-1,-1,-1,-1,-1,-1,-1],"split_conditions":[1.795E1,9.1227E4,5.0865E4,6.5E1,5.2979E4,1.30103E5,4.2E1,-6.919743E-3,-1.845033E-2,8.796525E-3,-5.4272227E-3,6.010297E-3,1.939597E-2,9.9795E-3,-6.8922737E-4],"split_indices":[6,2,1,4,1,2,4,0,0,0,0,0,0,0,0],"split_type":[0,0,0,0,0,0,0,0,0,0,0,0,0,0,0],"sum_hessian":[9.77567E3,6.184233E3,3.5914375E3,1.9322325E3,4.2520005E3,1.1242739E3,2.4671636E3,1.140581E3,7.916514E2,1.5022229E3,2.7497773E3,4.7880435E2,6.4546954E2,9.999987E2,1.4671649E3],"tree_param":{"num_deleted":"0","num_feature":"30","num_nodes":"15","size_leaf_vector":"1"}},{"base_weights":[2.7894143E-3,1.2497832E-1,-3.616393E-1,1.1484748E-2,3.6984196E-1,1.7780688E-1,-4.1822588E-1,4.62541E-3,-5.678988E-3,2.2748092E-2,6.0759527E-3,-1.9257892E-2,1.0540924E-2,-3.933833E-3,-1.4970018E-2],"categories":[],"categories_nodes":[],"categories_segments":[],"categories_sizes":[],"default_left":[0,0,0,0,0,0,0,0,0,0,0,0,0,0,0],"id":47,"left_children":[1,3,5,7,9,11,13,-1,-1,-1,-1,-1,-1,-1,-1],"loss_changes":[4.3378635E2,2.0274109E2,7.474289E1,1.579748E2,1.5473315E2,3.826034E1,6.5851166E1,0E0,0E0,0E0,0E0,0E0,0E0,0E0,0E0],"parents":[2147483647,0,0,1,1,2,2,3,3,4,4,5,5,6,6],"right_children":[2,4,6,8,10,12,14,-1,-1,-1,-1,-1,-1,-1,-1],"split_conditions":[5.3E1,1.82785E5,2.3935E4,6.4E1,3.9187E4,6.5156E4,2.9E1,4.62541E-3,-5.678988E-3,2.2748092E-2,6.0759527E-3,-1.9257892E-2,1.0540924E-2,-3.933833E-3,-1.4970018E-2],"split_indices":[0,2,1,4,1,2,4,0,0,0,0,0,0,0,0],"split_type":[0,0,0,0,0,0,0,0,0,0,0,0,0,0,0],"sum_hessian":[9.739612E3,7.294503E3,2.445109E3,4.9850117E3,2.3094912E3,2.3193214E2,2.2131768E3,2.9060957E3,2.078916E3,6.197601E2,1.6897312E3,4.2073204E1,1.8985895E2,6.0844464E2,1.6047322E3],"tree_param":{"num_deleted":"0","num_feature":"30","num_nodes":"15","size_leaf_vector":"1"}},{"base_weights":[1.9017383E-3,2.7683493E-1,-1.5579168E-1,-8.20165E-2,3.6806884E-1,2.587238E-2,-3.3352843E-1,3.943403E-3,-7.5672674E-3,2.0908486E-2,8.843176E-3,-9.407063E-3,3.6393763E-3,1.1018194E-3,-1.2100363E-2],"categories":[],"categories_nodes":[],"categories_segments":[],"categories_sizes":[],"default_left":[0,0,0,0,0,0,0,0,0,0,0,0,0,0,0],"id":48,"left_children":[1,3,5,7,9,11,13,-1,-1,-1,-1,-1,-1,-1,-1],"loss_changes":[4.228379E2,1.16417145E2,2.0013023E2,2.9111399E1,5.9976562E1,1.107687E2,1.0534506E2,0E0,0E0,0E0,0E0,0E0,0E0,0E0,0E0],"parents":[2147483647,0,0,1,1,2,2,3,3,4,4,5,5,6,6],"right_children":[2,4,6,8,10,12,14,-1,-1,-1,-1,-1,-1,-1,-1],"split_conditions":[3.3E1,7.86E0,5.4E1,4.8E1,2.8973E4,8.37E0,3.4866E4,3.943403E-3,-7.5672674E-3,2.0908486E-2,8.843176E-3,-9.407063E-3,3.6393763E-3,1.1018194E-3,-1.2100363E-2],"split_indices":[0,6,4,4,1,6,1,0,0,0,0,0,0,0,0],"split_type":[0,0,0,0,0,0,0,0,0,0,0,0,0,0,0],"sum_hessian":[9.750892E3,3.5539475E3,6.1969443E3,7.2041833E2,2.833529E3,3.0650366E3,3.1319077E3,3.2718732E2,3.93231E2,3.892167E2,2.4443125E3,6.809936E2,2.384043E3,6.11947E2,2.5199607E3],"tree_param":{"num_deleted":"0","num_feature":"30","num_nodes":"15","size_leaf_vector":"1"}},{"base_weights":[-5.3754764E-5,-3.1166658E-1,1.00772336E-1,-4.3765668E-2,-4.3379205E-1,3.033789E-1,-2.791671E-2,5.030728E-3,-4.602721E-3,-8.353473E-3,-1.6725758E-2,1.8084655E-2,6.138384E-3,-4.146037E-3,4.085518E-3],"categories":[],"categories_nodes":[],"categories_segments":[],"categories_sizes":[],"default_left":[0,0,0,0,0,0,0,0,0,0,0,0,0,0,0],"id":49,"left_children":[1,3,5,7,9,11,13,-1,-1,-1,-1,-1,-1,-1,-1],"loss_changes":[3.0561887E2,7.778209E1,1.9162929E2,1.9298721E1,3.49003E1,8.31322E1,9.022324E1,0E0,0E0,0E0,0E0,0E0,0E0,0E0,0E0],"parents":[2147483647,0,0,1,1,2,2,3,3,4,4,5,5,6,6],"right_children":[2,4,6,8,10,12,14,-1,-1,-1,-1,-1,-1,-1,-1],"split_conditions":[8.87E0,4.9684E4,6.0528E4,2.4689E4,1E0,2.2813E4,1.927E1,5.030728E-3,-4.602721E-3,-8.353473E-3,-1.6725758E-2,1.8084655E-2,6.138384E-3,-4.146037E-3,4.085518E-3],"split_indices":[6,1,1,1,10,1,6,0,0,0,0,0,0,0,0],"split_type":[0,0,0,0,0,0,0,0,0,0,0,0,0,0,0],"sum_hessian":[9.725291E3,2.3769634E3,7.3483276E3,7.4470264E2,1.6322609E3,2.8538699E3,4.4944575E3,2.5905206E2,4.8565057E2,8.4808826E2,7.8417255E2,6.0122675E2,2.252643E3,2.6659282E3,1.8285295E3],"tree_param":{"num_deleted":"0","num_feature":"30","num_nodes":"15","size_leaf_vector":"1"}},{"base_weights":[1.8290052E-3,1.536834E-1,-2.7503458E-1,5.110102E-2,3.9250112E-1,-5.611068E-1,-1.5655775E-1,6.826128E-3,-2.0118784E-3,2.081802E-2,5.8465074E-3,-1.2726042E-2,-2.0753067E-2,2.7736698E-3,-1.0109667E-2],"categories":[],"categories_nodes":[],"categories_segments":[],"categories_sizes":[],"default_left":[0,0,0,0,0,0,0,0,0,0,0,0,0,0,0],"id":50,"left_children":[1,3,5,7,9,11,13,-1,-1,-1,-1,-1,-1,-1,-1],"loss_changes":[4.087001E2,1.5377574E2,1.1661371E2,1.0042563E2,1.190712E2,1.8956451E1,1.2216438E2,0E0,0E0,0E0,0E0,0E0,0E0,0E0,0E0],"parents":[2147483647,0,0,1,1,2,2,3,3,4,4,5,5,6,6],"right_children":[2,4,6,8,10,12,14,-1,-1,-1,-1,-1,-1,-1,-1],"split_conditions":[4.7E1,1.86215E5,8.4236E4,2.8E1,5.1948E4,6E1,6.6211E4,6.826128E-3,-2.0118784E-3,2.081802E-2,5.8465074E-3,-1.2726042E-2,-2.0753067E-2,2.7736698E-3,-1.0109667E-2],"split_indices":[0,2,2,0,1,0,1,0,0,0,0,0,0,0,0],"split_type":[0,0,0,0,0,0,0,0,0,0,0,0,0,0,0],"sum_hessian":[9.719008E3,6.2767666E3,3.4422415E3,4.391601E3,1.8851655E3,1.0070058E3,2.4352356E3,1.7241901E3,2.667411E3,6.736591E2,1.2115065E3,5.962072E2,4.107986E2,1.0663845E3,1.3688511E3],"tree_param":{"num_deleted":"0","num_feature":"30","num_nodes":"15","size_leaf_vector":"1"}},{"base_weights":[-3.4818605E-3,1.1452834E-1,-3.5617512E-1,-5.0579277E-3,3.6600408E-1,-5.4113716E-1,-1.9222635E-1,3.7994373E-3,-6.9231433E-3,1.6464485E-2,6.8265903E-3,-2.0223226E-2,-1.0842835E-2,-2.2871858E-3,-1.606442E-2],"categories":[],"categories_nodes":[],"categories_segments":[],"categories_sizes":[],"default_left":[0,0,0,0,0,0,0,0,0,0,0,0,0,0,0],"id":51,"left_children":[1,3,5,7,9,11,13,-1,-1,-1,-1,-1,-1,-1,-1],"loss_changes":[4.047222E2,2.1911517E2,7.382291E1,1.6205414E2,6.2645233E1,3.0627777E1,5.3698963E1,0E0,0E0,0E0,0E0,0E0,0E0,0E0,0E0],"parents":[2147483647,0,0,1,1,2,2,3,3,4,4,5,5,6,6],"right_children":[2,4,6,8,10,12,14,-1,-1,-1,-1,-1,-1,-1,-1],"split_conditions":[5.3E1,1.897E1,1.421E1,7E1,3.9E1,1.33953E5,8.9E1,3.7994373E-3,-6.9231433E-3,1.6464485E-2,6.8265903E-3,-2.0223226E-2,-1.0842835E-2,-2.2871858E-3,-1.606442E-2],"split_indices":[0,6,6,4,4,2,4,0,0,0,0,0,0,0,0],"split_type":[0,0,0,0,0,0,0,0,0,0,0,0,0,0,0],"sum_hessian":[9.721916E3,7.2850376E3,2.4368784E3,4.937872E3,2.347166E3,1.1439773E3,1.2929012E3,3.1219724E3,1.8158994E3,8.8068787E2,1.466478E3,5.599364E2,5.8404083E2,9.9350775E2,2.993935E2],"tree_param":{"num_deleted":"0","num_feature":"30","num_nodes":"15","size_leaf_vector":"1"}},{"base_weights":[-2.4623112E-4,2.3114213E-1,-1.6008529E-1,-1.0960101E-1,3.1830078E-1,3.712185E-1,-2.1763414E-1,6.720128E-3,-6.1189746E-3,6.034227E-3,1.604371E-2,-1.3902444E-2,1.5602766E-2,-1.22635765E-2,-2.172084E-3],"categories":[],"categories_nodes":[],"categories_segments":[],"categories_sizes":[],"default_left":[0,0,0,0,0,0,0,0,0,0,0,0,0,0,0],"id":52,"left_children":[1,3,5,7,9,11,13,-1,-1,-1,-1,-1,-1,-1,-1],"loss_changes":[3.57871E2,1.1744173E2,1.7506299E2,2.917698E1,8.191901E1,8.4487755E1,1.54903E2,0E0,0E0,0E0,0E0,0E0,0E0,0E0,0E0],"parents":[2147483647,0,0,1,1,2,2,3,3,4,4,5,5,6,6],"right_children":[2,4,6,8,10,12,14,-1,-1,-1,-1,-1,-1,-1,-1],"split_conditions":[3.5E1,7.86E0,2.3935E4,3.9656E4,1.85317E5,6.5156E4,1.276E1,6.720128E-3,-6.1189746E-3,6.034227E-3,1.604371E-2,-1.3902444E-2,1.5602766E-2,-1.22635765E-2,-2.172084E-3],"split_indices":[0,6,1,1,2,2,6,0,0,0,0,0,0,0,0],"split_type":[0,0,0,0,0,0,0,0,0,0,0,0,0,0,0],"sum_hessian":[9.674139E3,3.9522637E3,5.721875E3,8.049781E2,3.1472856E3,5.58669E2,5.163206E3,1.8718665E2,6.1779144E2,2.188843E3,9.5844257E2,9.4477066E1,4.6419193E2,2.0665793E3,3.096627E3],"tree_param":{"num_deleted":"0","num_feature":"30","num_nodes":"15","size_leaf_vector":"1"}},{"base_weights":[-1.9954087E-3,1.09759316E-1,-3.3786356E-1,-2.237541E-2,3.3238816E-1,-5.035373E-1,-1.8128887E-1,-8.200828E-3,2.7871812E-3,1.4749049E-2,6.0969684E-3,-2.2499477E-2,-1.1333636E-2,1.8256089E-3,-1.1084642E-2],"categories":[],"categories_nodes":[],"categories_segments":[],"categories_sizes":[],"default_left":[0,0,0,0,0,0,0,0,0,0,0,0,0,0,0],"id":53,"left_children":[1,3,5,7,9,11,13,-1,-1,-1,-1,-1,-1,-1,-1],"loss_changes":[3.6383395E2,2.1396332E2,6.268518E1,1.4515749E2,5.9199646E1,3.5319214E1,6.326632E1,0E0,0E0,0E0,0E0,0E0,0E0,0E0,0E0],"parents":[2147483647,0,0,1,1,2,2,3,3,4,4,5,5,6,6],"right_children":[2,4,6,8,10,12,14,-1,-1,-1,-1,-1,-1,-1,-1],"split_conditions":[5.3E1,1.786E1,1.33953E5,9.1227E4,3E1,9.45E0,6.7976E4,-8.200828E-3,2.7871812E-3,1.4749049E-2,6.0969684E-3,-2.2499477E-2,-1.1333636E-2,1.8256089E-3,-1.1084642E-2],"split_indices":[0,6,2,2,0,6,1,0,0,0,0,0,0,0,0],"split_type":[0,0,0,0,0,0,0,0,0,0,0,0,0,0,0],"sum_hessian":[9.691242E3,7.2722056E3,2.4190364E3,4.564175E3,2.7080308E3,1.1742893E3,1.2447471E3,1.4226218E3,3.1415532E3,1.0602699E3,1.6477609E3,3.1805826E2,8.56231E2,5.700719E2,6.746751E2],"tree_param":{"num_deleted":"0","num_feature":"30","num_nodes":"15","size_leaf_vector":"1"}},{"base_weights":[7.869507E-4,-2.3428147E-1,1.0769644E-1,-9.93856E-2,-4.217835E-1,3.788349E-1,-3.029279E-2,-4.950853E-3,2.7641857E-3,-8.056015E-3,-1.6324557E-2,2.0490529E-2,8.227001E-3,1.7553185E-3,-9.734978E-3],"categories":[],"categories_nodes":[],"categories_segments":[],"categories_sizes":[],"default_left":[0,0,0,0,0,0,0,0,0,0,0,0,0,0,0],"id":54,"left_children":[1,3,5,7,9,11,13,-1,-1,-1,-1,-1,-1,-1,-1],"loss_changes":[2.425394E2,7.627043E1,2.4821275E2,2.5528515E1,2.627472E1,6.85376E1,1.2542723E2,0E0,0E0,0E0,0E0,0E0,0E0,0E0,0E0],"parents":[2147483647,0,0,1,1,2,2,3,3,4,4,5,5,6,6],"right_children":[2,4,6,8,10,12,14,-1,-1,-1,-1,-1,-1,-1,-1],"split_conditions":[9.1227E4,6.4E1,5.1364E4,1E0,1E0,2.0875E4,8.9E1,-4.950853E-3,2.7641857E-3,-8.056015E-3,-1.6324557E-2,2.0490529E-2,8.227001E-3,1.7553185E-3,-9.734978E-3],"split_indices":[2,4,1,19,11,1,4,0,0,0,0,0,0,0,0],"split_type":[0,0,0,0,0,0,0,0,0,0,0,0,0,0,0],"sum_hessian":[9.648984E3,3.016103E3,6.632881E3,1.7550126E3,1.2610905E3,2.2365273E3,4.3963535E3,1.2742759E3,4.8073663E2,6.548571E2,6.0623334E2,4.7044843E2,1.766079E3,3.3944895E3,1.00186426E3],"tree_param":{"num_deleted":"0","num_feature":"30","num_nodes":"15","size_leaf_vector":"1"}},{"base_weights":[3.3682593E-4,1.5823224E-1,-2.2733743E-1,5.354749E-1,9.357137E-2,1.965915E-1,-2.8830782E-1,2.156827E-2,1.2838811E-2,7.3400997E-3,-7.853775E-4,9.706509E-3,-7.5202977E-4,-4.681969E-3,-1.24421995E-2],"categories":[],"categories_nodes":[],"categories_segments":[],"categories_sizes":[],"default_left":[0,0,0,0,0,0,0,0,0,0,0,0,0,0,0],"id":55,"left_children":[1,3,5,7,9,11,13,-1,-1,-1,-1,-1,-1,-1,-1],"loss_changes":[3.470193E2,1.3899109E2,1.022327E2,1.5391739E1,9.639467E1,1.5921221E1,6.3316986E1,0E0,0E0,0E0,0E0,0E0,0E0,0E0,0E0],"parents":[2147483647,0,0,1,1,2,2,3,3,4,4,5,5,6,6],"right_children":[2,4,6,8,10,12,14,-1,-1,-1,-1,-1,-1,-1,-1],"split_conditions":[4.4E1,2.9895E4,2.6715E4,1.8557E4,2.8E1,5.8E1,5.7E1,2.156827E-2,1.2838811E-2,7.3400997E-3,-7.853775E-4,9.706509E-3,-7.5202977E-4,-4.681969E-3,-1.24421995E-2],"split_indices":[0,1,1,1,0,0,0,0,0,0,0,0,0,0,0],"split_type":[0,0,0,0,0,0,0,0,0,0,0,0,0,0,0],"sum_hessian":[9.651174E3,5.699082E3,3.9520916E3,8.3284424E2,4.866238E3,4.966494E2,3.4554421E3,2.3130719E2,6.0153705E2,2.06961E3,2.7966277E3,3.0189688E2,1.9475253E2,1.8765886E3,1.5788535E3],"tree_param":{"num_deleted":"0","num_feature":"30","num_nodes":"15","size_leaf_vector":"1"}},{"base_weights":[-1.4082318E-3,1.0356933E-1,-3.1643644E-1,-1.2488319E-1,2.3021601E-1,-5.8286315E-1,-2.0603424E-1,2.1552255E-3,-8.105907E-3,-8.02689E-5,9.56033E-3,-1.8665582E-2,-5.9965495E-3,9.476286E-4,-1.1234016E-2],"categories":[],"categories_nodes":[],"categories_segments":[],"categories_sizes":[],"default_left":[0,0,0,0,0,0,0,0,0,0,0,0,0,0,0],"id":56,"left_children":[1,3,5,7,9,11,13,-1,-1,-1,-1,-1,-1,-1,-1],"loss_changes":[3.1876675E2,2.0920465E2,7.0743576E1,8.222833E1,1.1347035E2,1.8528488E1,7.648367E1,0E0,0E0,0E0,0E0,0E0,0E0,0E0,0E0],"parents":[2147483647,0,0,1,1,2,2,3,3,4,4,5,5,6,6],"right_children":[2,4,6,8,10,12,14,-1,-1,-1,-1,-1,-1,-1,-1],"split_conditions":[5.3E1,1.169E1,8.4236E4,4.7E1,9.1227E4,2.2E1,6.6211E4,2.1552255E-3,-8.105907E-3,-8.02689E-5,9.56033E-3,-1.8665582E-2,-5.9965495E-3,9.476286E-4,-1.1234016E-2],"split_indices":[0,6,2,4,2,6,1,0,0,0,0,0,0,0,0],"split_type":[0,0,0,0,0,0,0,0,0,0,0,0,0,0,0],"sum_hessian":[9.636901E3,7.228727E3,2.408174E3,2.5781416E3,4.6505854E3,7.042857E2,1.7038883E3,1.1411385E3,1.437003E3,1.4418679E3,3.2087175E3,5.9099304E2,1.1329264E2,7.490132E2,9.5487506E2],"tree_param":{"num_deleted":"0","num_feature":"30","num_nodes":"15","size_leaf_vector":"1"}},{"base_weights":[7.7740994E-4,2.0226257E-1,-1.6416281E-1,7.5126976E-2,4.1841805E-1,-4.1270662E-2,-4.1758662E-1,8.232258E-3,-1.9216923E-3,1.6322346E-2,8.352692E-3,-6.2762904E-3,3.5438011E-3,-1.5454182E-2,-4.1625057E-3],"categories":[],"categories_nodes":[],"categories_segments":[],"categories_sizes":[],"default_left":[0,0,0,0,0,0,0,0,0,0,0,0,0,0,0],"id":57,"left_children":[1,3,5,7,9,11,13,-1,-1,-1,-1,-1,-1,-1,-1],"loss_changes":[3.197891E2,1.1900183E2,1.6476993E2,8.290167E1,3.0780792E1,1.0531879E2,5.804123E1,0E0,0E0,0E0,0E0,0E0,0E0,0E0,0E0],"parents":[2147483647,0,0,1,1,2,2,3,3,4,4,5,5,6,6],"right_children":[2,4,6,8,10,12,14,-1,-1,-1,-1,-1,-1,-1,-1],"split_conditions":[3.7E1,1.786E1,7.6E1,6.2126E4,4.8E1,1.33953E5,1.913E1,8.232258E-3,-1.9216923E-3,1.6322346E-2,8.352692E-3,-6.2762904E-3,3.5438011E-3,-1.5454182E-2,-4.1625057E-3],"split_indices":[0,6,4,1,4,2,6,0,0,0,0,0,0,0,0],"split_type":[0,0,0,0,0,0,0,0,0,0,0,0,0,0,0],"sum_hessian":[9.620637E3,4.330466E3,5.2901704E3,2.7275547E3,1.602911E3,3.5633618E3,1.7268088E3,1.0918914E3,1.6356635E3,7.2082983E2,8.820812E2,1.7132715E3,1.8500902E3,1.1857844E3,5.4102454E2],"tree_param":{"num_deleted":"0","num_feature":"30","num_nodes":"15","size_leaf_vector":"1"}},{"base_weights":[2.9340123E-3,-2.7847582E-1,9.3241304E-2,-1.2216586E-2,-3.8962245E-1,2.4878445E-1,-6.529962E-2,5.209394E-3,-4.5702755E-3,-8.637055E-3,-1.9637186E-2,1.2095064E-2,3.4115922E-3,6.6795526E-3,-4.182912E-3],"categories":[],"categories_nodes":[],"categories_segments":[],"categories_sizes":[],"default_left":[0,0,0,0,0,0,0,0,0,0,0,0,0,0,0],"id":58,"left_children":[1,3,5,7,9,11,13,-1,-1,-1,-1,-1,-1,-1,-1],"loss_changes":[2.4439551E2,6.913739E1,1.7955106E2,1.9869968E1,4.2596268E1,8.304877E1,8.770259E1,0E0,0E0,0E0,0E0,0E0,0E0,0E0,0E0],"parents":[2147483647,0,0,1,1,2,2,3,3,4,4,5,5,6,6],"right_children":[2,4,6,8,10,12,14,-1,-1,-1,-1,-1,-1,-1,-1],"split_conditions":[8.87E0,4.7161E4,5.4E1,4.6E1,9E1,6.6786E4,3.7135E4,5.209394E-3,-4.5702755E-3,-8.637055E-3,-1.9637186E-2,1.2095064E-2,3.4115922E-3,6.6795526E-3,-4.182912E-3],"split_indices":[6,1,4,4,4,1,1,0,0,0,0,0,0,0,0],"split_type":[0,0,0,0,0,0,0,0,0,0,0,0,0,0,0],"sum_hessian":[9.61479E3,2.3353713E3,7.279419E3,6.880975E2,1.6472738E3,3.6741614E3,3.6052578E3,2.9692572E2,3.9117178E2,1.2766272E3,3.7064664E2,1.5605461E3,2.1136152E3,7.6921E2,2.8360479E3],"tree_param":{"num_deleted":"0","num_feature":"30","num_nodes":"15","size_leaf_vector":"1"}},{"base_weights":[-2.0227781E-3,-2.4456275E-1,9.9117346E-2,-7.5944313E-3,-3.51585E-1,5.43286E-1,5.408974E-2,-4.761548E-3,3.7619402E-3,-6.277304E-3,-1.407313E-2,1.2986443E-2,2.237902E-2,4.822512E-3,-2.0800026E-3],"categories":[],"categories_nodes":[],"categories_segments":[],"categories_sizes":[],"default_left":[0,0,0,0,0,0,0,0,0,0,0,0,0,0,0],"id":59,"left_children":[1,3,5,7,9,11,13,-1,-1,-1,-1,-1,-1,-1,-1],"loss_changes":[2.365528E2,7.1967804E1,1.3607681E2,1.9635412E1,3.629338E1,1.2962311E1,9.011468E1,0E0,0E0,0E0,0E0,0E0,0E0,0E0,0E0],"parents":[2147483647,0,0,1,1,2,2,3,3,4,4,5,5,6,6],"right_children":[2,4,6,8,10,12,14,-1,-1,-1,-1,-1,-1,-1,-1],"split_conditions":[1.015E1,4.9684E4,2.3935E4,5.96E0,1E0,2.126E1,1E0,-4.761548E-3,3.7619402E-3,-6.277304E-3,-1.407313E-2,1.2986443E-2,2.237902E-2,4.822512E-3,-2.0800026E-3],"split_indices":[6,1,1,6,11,6,11,0,0,0,0,0,0,0,0],"split_type":[0,0,0,0,0,0,0,0,0,0,0,0,0,0,0],"sum_hessian":[9.641215E3,2.836854E3,6.804361E3,8.8293445E2,1.9539196E3,6.252824E2,6.179078E3,4.120593E2,4.7087512E2,1.01299835E3,9.4092114E2,4.5945145E2,1.6583095E2,3.2440962E3,2.934982E3],"tree_param":{"num_deleted":"0","num_feature":"30","num_nodes":"15","size_leaf_vector":"1"}},{"base_weights":[-6.081247E-3,7.240677E-2,-2.887769E-1,-1.6078265E-1,1.6431235E-1,-4.8209766E-1,-1.4413774E-1,7.436378E-5,-9.6198805E-3,1.1103384E-2,4.1296805E-4,-9.942662E-3,-1.7789695E-2,5.2694995E-3,-7.858711E-3],"categories":[],"categories_nodes":[],"categories_segments":[],"categories_sizes":[],"default_left":[0,0,0,0,0,0,0,0,0,0,0,0,0,0,0],"id":60,"left_children":[1,3,5,7,9,11,13,-1,-1,-1,-1,-1,-1,-1,-1],"loss_changes":[2.1320222E2,1.6120769E2,5.831642E1,6.1225487E1,1.816009E2,1.6643906E1,5.160782E1,0E0,0E0,0E0,0E0,0E0,0E0,0E0,0E0],"parents":[2147483647,0,0,1,1,2,2,3,3,4,4,5,5,6,6],"right_children":[2,4,6,8,10,12,14,-1,-1,-1,-1,-1,-1,-1,-1],"split_conditions":[9E1,8.3311E4,1.21529E5,1E0,6.0528E4,1E0,4.3256E4,7.436378E-5,-9.6198805E-3,1.1103384E-2,4.1296805E-4,-9.942662E-3,-1.7789695E-2,5.2694995E-3,-7.858711E-3],"split_indices":[4,2,2,10,1,10,1,0,0,0,0,0,0,0,0],"split_type":[0,0,0,0,0,0,0,0,0,0,0,0,0,0,0],"sum_hessian":[9.606859E3,7.519797E3,2.087063E3,2.125663E3,5.394134E3,8.922169E2,1.1948462E3,1.1034453E3,1.0222176E3,2.1577693E3,3.2363643E3,4.5968225E2,4.325347E2,3.406395E2,8.5420667E2],"tree_param":{"num_deleted":"0","num_feature":"30","num_nodes":"15","size_leaf_vector":"1"}},{"base_weights":[3.3078496E-3,2.4987912E-1,-1.2503608E-1,3.9459944E-1,1.2830216E-1,-2.9412827E-2,-4.0390393E-1,1.7386049E-2,8.976988E-3,1.6224891E-2,2.1213368E-3,1.8488433E-3,-7.7890977E-3,-4.25463E-3,-1.4121938E-2],"categories":[],"categories_nodes":[],"categories_segments":[],"categories_sizes":[],"default_left":[0,0,0,0,0,0,0,0,0,0,0,0,0,0,0],"id":61,"left_children":[1,3,5,7,9,11,13,-1,-1,-1,-1,-1,-1,-1,-1],"loss_changes":[3.0388593E2,5.7787643E1,1.6839716E2,2.5589478E1,4.2438538E1,1.0786201E2,3.723703E1,0E0,0E0,0E0,0E0,0E0,0E0,0E0,0E0],"parents":[2147483647,0,0,1,1,2,2,3,3,4,4,5,5,6,6],"right_children":[2,4,6,8,10,12,14,-1,-1,-1,-1,-1,-1,-1,-1],"split_conditions":[3.2E1,4.8E1,8.5E1,4.39E2,2.5413E4,5.7E1,4.3256E4,1.7386049E-2,8.976988E-3,1.6224891E-2,2.1213368E-3,1.8488433E-3,-7.7890977E-3,-4.25463E-3,-1.4121938E-2],"split_indices":[0,4,4,3,1,0,1,0,0,0,0,0,0,0,0],"split_type":[0,0,0,0,0,0,0,0,0,0,0,0,0,0,0],"sum_hessian":[9.600701E3,3.2862634E3,6.3144375E3,1.4993053E3,1.7869581E3,4.702921E3,1.6115168E3,4.0608487E2,1.0932205E3,1.9424681E2,1.5927113E3,3.3915757E3,1.311345E3,4.2396402E2,1.1875529E3],"tree_param":{"num_deleted":"0","num_feature":"30","num_nodes":"15","size_leaf_vector":"1"}},{"base_weights":[6.878181E-4,2.402988E-1,-1.23998635E-1,8.990223E-2,3.938942E-1,-2.460961E-1,9.794297E-2,-6.475901E-4,9.898965E-3,8.040582E-3,1.5261133E-2,-1.0256561E-2,-2.7399261E-5,1.3791381E-2,8.8520825E-4],"categories":[],"categories_nodes":[],"categories_segments":[],"categories_sizes":[],"default_left":[0,0,0,0,0,0,0,0,0,0,0,0,0,0,0],"id":62,"left_children":[1,3,5,7,9,11,13,-1,-1,-1,-1,-1,-1,-1,-1],"loss_changes":[2.8634164E2,7.574165E1,1.708504E2,4.797667E1,2.5473022E1,1.12846146E2,5.768098E1,0E0,0E0,0E0,0E0,0E0,0E0,0E0,0E0],"parents":[2147483647,0,0,1,1,2,2,3,3,4,4,5,5,6,6],"right_children":[2,4,6,8,10,12,14,-1,-1,-1,-1,-1,-1,-1,-1],"split_conditions":[3.2E1,1.511E1,1.829E1,1.86215E5,1.49461E5,1.82785E5,3.0267E4,-6.475901E-4,9.898965E-3,8.040582E-3,1.5261133E-2,-1.0256561E-2,-2.7399261E-5,1.3791381E-2,8.8520825E-4],"split_indices":[0,6,6,2,2,2,1,0,0,0,0,0,0,0,0],"split_type":[0,0,0,0,0,0,0,0,0,0,0,0,0,0,0],"sum_hessian":[9.582263E3,3.2793608E3,6.3029014E3,1.6577354E3,1.6216254E3,4.0659683E3,2.2369333E3,1.1531792E3,5.0455612E2,9.037423E2,7.178831E2,2.781267E3,1.284701E3,3.302598E2,1.9066736E3],"tree_param":{"num_deleted":"0","num_feature":"30","num_nodes":"15","size_leaf_vector":"1"}},{"base_weights":[2.9179333E-3,8.525803E-2,-3.602994E-1,-2.7472576E-2,2.9270357E-1,-7.389197E-2,-4.600757E-1,2.819518E-3,-7.2173704E-3,1.3434523E-2,5.2299495E-3,-1.0001677E-2,3.819586E-3,-2.7560575E-3,-1.4525015E-2],"categories":[],"categories_nodes":[],"categories_segments":[],"categories_sizes":[],"default_left":[0,0,0,0,0,0,0,0,0,0,0,0,0,0,0],"id":63,"left_children":[1,3,5,7,9,11,13,-1,-1,-1,-1,-1,-1,-1,-1],"loss_changes":[2.860752E2,1.8235959E2,5.04812E1,1.4377718E2,5.3398758E1,2.6339619E1,2.3173615E1,0E0,0E0,0E0,0E0,0E0,0E0,0E0,0E0],"parents":[2147483647,0,0,1,1,2,2,3,3,4,4,5,5,6,6],"right_children":[2,4,6,8,10,12,14,-1,-1,-1,-1,-1,-1,-1,-1],"split_conditions":[5.7E1,1.829E1,2.7E1,7.1E1,6.0528E4,1.401E1,2.6715E4,2.819518E-3,-7.2173704E-3,1.3434523E-2,5.2299495E-3,-1.0001677E-2,3.819586E-3,-2.7560575E-3,-1.4525015E-2],"split_indices":[0,6,4,4,1,6,1,0,0,0,0,0,0,0,0],"split_type":[0,0,0,0,0,0,0,0,0,0,0,0,0,0,0],"sum_hessian":[9.563354E3,7.7966465E3,1.7667069E3,5.0520923E3,2.7445537E3,4.5690457E2,1.3098024E3,3.2384817E3,1.8136107E3,1.0443936E3,1.7001603E3,1.9570616E2,2.6119843E2,1.5518544E2,1.154617E3],"tree_param":{"num_deleted":"0","num_feature":"30","num_nodes":"15","size_leaf_vector":"1"}},{"base_weights":[-2.1196718E-3,2.3278819E-1,-1.2335444E-1,-8.243517E-2,3.1213847E-1,-2.2904526E-1,1.0109314E-1,2.872765E-3,-8.21018E-3,2.463268E-3,1.1132309E-2,-1.3349333E-2,-3.578279E-3,1.0290857E-2,-3.9618444E-3],"categories":[],"categories_nodes":[],"categories_segments":[],"categories_sizes":[],"default_left":[0,0,0,0,0,0,0,0,0,0,0,0,0,0,0],"id":64,"left_children":[1,3,5,7,9,11,13,-1,-1,-1,-1,-1,-1,-1,-1],"loss_changes":[2.723104E2,8.144179E1,1.4963448E2,2.464436E1,4.567627E1,1.0603027E2,1.2572567E2,0E0,0E0,0E0,0E0,0E0,0E0,0E0,0E0],"parents":[2147483647,0,0,1,1,2,2,3,3,4,4,5,5,6,6],"right_children":[2,4,6,8,10,12,14,-1,-1,-1,-1,-1,-1,-1,-1],"split_conditions":[3.2E1,7.76E0,1.81879E5,1E0,7.588E4,1.043E1,6.7367E4,2.872765E-3,-8.21018E-3,2.463268E-3,1.1132309E-2,-1.3349333E-2,-3.578279E-3,1.0290857E-2,-3.9618444E-3],"split_indices":[0,6,2,10,2,6,1,0,0,0,0,0,0,0,0],"split_type":[0,0,0,0,0,0,0,0,0,0,0,0,0,0,0],"sum_hessian":[9.559789E3,3.2539414E3,6.305847E3,6.543723E2,2.599569E3,4.2870737E3,2.0187739E3,3.460793E2,3.0829303E2,6.667525E2,1.9328165E3,1.297768E3,2.9893057E3,9.696844E2,1.0490895E3],"tree_param":{"num_deleted":"0","num_feature":"30","num_nodes":"15","size_leaf_vector":"1"}},{"base_weights":[5.1536196E-4,1.0551549E-1,-2.2055343E-1,-1.2236684E-1,1.9403523E-1,-3.2621342E-1,9.166346E-3,5.8265164E-4,-7.8858575E-3,1.6172659E-2,4.0133316E-3,2.969317E-3,-1.086692E-2,1.8108742E-2,-8.347014E-4],"categories":[],"categories_nodes":[],"categories_segments":[],"categories_sizes":[],"default_left":[0,0,0,0,0,0,0,0,0,0,0,0,0,0,0],"id":65,"left_children":[1,3,5,7,9,11,13,-1,-1,-1,-1,-1,-1,-1,-1],"loss_changes":[2.216651E2,1.3062537E2,7.4642624E1,3.9813576E1,9.276518E1,4.9386E1,2.3303415E1,0E0,0E0,0E0,0E0,0E0,0E0,0E0,0E0],"parents":[2147483647,0,0,1,1,2,2,3,3,4,4,5,5,6,6],"right_children":[2,4,6,8,10,12,14,-1,-1,-1,-1,-1,-1,-1,-1],"split_conditions":[7.6E1,9.84E0,1.913E1,1E0,2.7651E4,2.5413E4,2.0467E4,5.8265164E-4,-7.8858575E-3,1.6172659E-2,4.0133316E-3,2.969317E-3,-1.086692E-2,1.8108742E-2,-8.347014E-4],"split_indices":[4,6,6,10,1,1,1,0,0,0,0,0,0,0,0],"split_type":[0,0,0,0,0,0,0,0,0,0,0,0,0,0,0],"sum_hessian":[9.547484E3,6.473375E3,3.0741094E3,1.810948E3,4.6624272E3,2.1053362E3,9.6877313E2,9.397955E2,8.7115247E2,5.8385406E2,4.078573E3,2.3643161E2,1.8689047E3,5.5170788E1,9.1360236E2],"tree_param":{"num_deleted":"0","num_feature":"30","num_nodes":"15","size_leaf_vector":"1"}},{"base_weights":[1.0384482E-3,9.777669E-2,-2.8980303E-1,3.5033E-5,3.115791E-1,-5.3663474E-1,-1.8962228E-1,3.5815896E-3,-3.915254E-3,1.6025143E-2,7.3767253E-3,-1.3513083E-2,-2.1135792E-2,-8.193522E-3,-2.008522E-3],"categories":[],"categories_nodes":[],"categories_segments":[],"categories_sizes":[],"default_left":[0,0,0,0,0,0,0,0,0,0,0,0,0,0,0],"id":66,"left_children":[1,3,5,7,9,11,13,-1,-1,-1,-1,-1,-1,-1,-1],"loss_changes":[2.683279E2,1.4955414E2,5.87601E1,8.45434E1,2.9675507E1,8.501816E0,1.9665546E1,0E0,0E0,0E0,0E0,0E0,0E0,0E0,0E0],"parents":[2147483647,0,0,1,1,2,2,3,3,4,4,5,5,6,6],"right_children":[2,4,6,8,10,12,14,-1,-1,-1,-1,-1,-1,-1,-1],"split_conditions":[5.3E1,1.82785E5,8.4236E4,1E0,2.3E1,6.6E1,1.81879E5,3.5815896E-3,-3.915254E-3,1.6025143E-2,7.3767253E-3,-1.3513083E-2,-2.1135792E-2,-8.193522E-3,-2.008522E-3],"split_indices":[0,2,2,10,0,0,2,0,0,0,0,0,0,0,0],"split_type":[0,0,0,0,0,0,0,0,0,0,0,0,0,0,0],"sum_hessian":[9.534983E3,7.155591E3,2.379393E3,4.911332E3,2.2442585E3,6.85661E2,1.693732E3,2.565661E3,2.3456714E3,3.9222476E2,1.8520338E3,5.257256E2,1.5993544E2,9.315672E2,7.621648E2],"tree_param":{"num_deleted":"0","num_feature":"30","num_nodes":"15","size_leaf_vector":"1"}},{"base_weights":[-7.534522E-4,-1.0781877E-1,1.9661364E-1,5.1593672E-2,-2.2737946E-1,7.144258E-1,1.625388E-1,9.232366E-3,-4.5103865E-4,-2.6943162E-3,-1.0555981E-2,2.8968202E-2,1.758514E-2,6.4494894E-3,-1.6962939E-3],"categories":[],"categories_nodes":[],"categories_segments":[],"categories_sizes":[],"default_left":[0,0,0,0,0,0,0,0,0,0,0,0,0,0,0],"id":67,"left_children":[1,3,5,7,9,11,13,-1,-1,-1,-1,-1,-1,-1,-1],"loss_changes":[2.0148238E2,1.17828636E2,5.905063E1,4.8550587E1,6.686427E1,5.4859543E0,4.429693E1,0E0,0E0,0E0,0E0,0E0,0E0,0E0,0E0],"parents":[2147483647,0,0,1,1,2,2,3,3,4,4,5,5,6,6],"right_children":[2,4,6,8,10,12,14,-1,-1,-1,-1,-1,-1,-1,-1],"split_conditions":[1.829E1,6.6211E4,2.0875E4,2.2813E4,1E0,1.6232E4,1E0,9.232366E-3,-4.5103865E-4,-2.6943162E-3,-1.0555981E-2,2.8968202E-2,1.758514E-2,6.4494894E-3,-1.6962939E-3],"split_indices":[6,1,1,1,10,1,16,0,0,0,0,0,0,0,0],"split_type":[0,0,0,0,0,0,0,0,0,0,0,0,0,0,0],"sum_hessian":[9.532839E3,6.180545E3,3.3522937E3,2.649066E3,3.5314792E3,2.05746E2,3.1465476E3,5.255578E2,2.123508E3,1.8268557E3,1.7046235E3,4.848468E1,1.5726132E2,2.4475652E3,6.989825E2],"tree_param":{"num_deleted":"0","num_feature":"30","num_nodes":"15","size_leaf_vector":"1"}},{"base_weights":[-5.224258E-4,1.9769277E-1,-1.377899E-1,2.853391E-1,7.384702E-3,2.9571143E-1,-1.846112E-1,1.1834399E-2,4.073783E-3,1.2526546E-2,-1.8585117E-3,1.1409013E-2,-3.5377478E-3,-1.6843928E-3,-9.161696E-3],"categories":[],"categories_nodes":[],"categories_segments":[],"categories_sizes":[],"default_left":[0,0,0,0,0,0,0,0,0,0,0,0,0,0,0],"id":68,"left_children":[1,3,5,7,9,11,13,-1,-1,-1,-1,-1,-1,-1,-1],"loss_changes":[2.5831583E2,6.4791916E1,1.13908264E2,4.896103E1,3.8367043E1,2.3917145E1,8.6678085E1,0E0,0E0,0E0,0E0,0E0,0E0,0E0,0E0],"parents":[2147483647,0,0,1,1,2,2,3,3,4,4,5,5,6,6],"right_children":[2,4,6,8,10,12,14,-1,-1,-1,-1,-1,-1,-1,-1],"split_conditions":[3.5E1,1E0,2.3935E4,1E0,2.9895E4,6.1E1,1E0,1.1834399E-2,4.073783E-3,1.2526546E-2,-1.8585117E-3,1.1409013E-2,-3.5377478E-3,-1.6843928E-3,-9.161696E-3],"split_indices":[0,21,1,10,1,0,11,0,0,0,0,0,0,0,0],"split_type":[0,0,0,0,0,0,0,0,0,0,0,0,0,0,0],"sum_hessian":[9.4919375E3,3.8835803E3,5.6083574E3,2.6586436E3,1.2249368E3,5.461781E2,5.062179E3,1.3939232E3,1.2647202E3,1.7548297E2,1.0494539E3,4.3778537E2,1.0839272E2,2.6353787E3,2.4268005E3],"tree_param":{"num_deleted":"0","num_feature":"30","num_nodes":"15","size_leaf_vector":"1"}},{"base_weights":[-2.7913563E-3,-1.078449E-1,1.9085906E-1,-2.6064223E-1,4.2279217E-2,3.9173278E-1,7.026726E-2,-4.5682085E-3,-1.3615549E-2,7.498467E-3,-4.218419E-3,5.7031657E-3,1.400558E-2,6.9595436E-3,-1.4089213E-3],"categories":[],"categories_nodes":[],"categories_segments":[],"categories_sizes":[],"default_left":[0,0,0,0,0,0,0,0,0,0,0,0,0,0,0],"id":69,"left_children":[1,3,5,7,9,11,13,-1,-1,-1,-1,-1,-1,-1,-1],"loss_changes":[1.9329268E2,1.4130667E2,8.091888E1,6.636754E1,1.3021494E2,2.369069E1,4.3380142E1,0E0,0E0,0E0,0E0,0E0,0E0,0E0,0E0],"parents":[2147483647,0,0,1,1,2,2,3,3,4,4,5,5,6,6],"right_children":[2,4,6,8,10,12,14,-1,-1,-1,-1,-1,-1,-1,-1],"split_conditions":[1.829E1,1.37973E5,3.9E1,7.6E1,6.7367E4,9.6176E4,6.3364E4,-4.5682085E-3,-1.3615549E-2,7.498467E-3,-4.218419E-3,5.7031657E-3,1.400558E-2,6.9595436E-3,-1.4089213E-3],"split_indices":[6,2,4,4,1,2,1,0,0,0,0,0,0,0,0],"split_type":[0,0,0,0,0,0,0,0,0,0,0,0,0,0,0],"sum_hessian":[9.499359E3,6.158742E3,3.3406167E3,3.0518313E3,3.106911E3,1.2523268E3,2.08829E3,2.0841223E3,9.67709E2,1.4384414E3,1.6684695E3,4.2681085E2,8.255159E2,8.5172577E2,1.2365641E3],"tree_param":{"num_deleted":"0","num_feature":"30","num_nodes":"15","size_leaf_vector":"1"}},{"base_weights":[2.9923655E-3,1.109027E-1,-2.4841501E-1,1.6912745E-2,3.250997E-1,-3.444107E-1,-4.335049E-2,-4.355984E-3,4.50752E-3,1.1239201E-2,2.151227E-3,-1.7026022E-2,-7.4052643E-3,1.3685325E-2,-3.9179805E-3],"categories":[],"categories_nodes":[],"categories_segments":[],"categories_sizes":[],"default_left":[0,0,0,0,0,0,0,0,0,0,0,0,0,0,0],"id":70,"left_children":[1,3,5,7,9,11,13,-1,-1,-1,-1,-1,-1,-1,-1],"loss_changes":[2.5796558E2,1.3393556E2,5.6199524E1,1.1055075E2,3.473555E1,4.15103E1,4.4815243E1,0E0,0E0,0E0,0E0,0E0,0E0,0E0,0E0],"parents":[2147483647,0,0,1,1,2,2,3,3,4,4,5,5,6,6],"right_children":[2,4,6,8,10,12,14,-1,-1,-1,-1,-1,-1,-1,-1],"split_conditions":[5E1,1.927E1,1.81879E5,1.28031E5,1E0,9.07E0,2.6275E4,-4.355984E-3,4.50752E-3,1.1239201E-2,2.151227E-3,-1.7026022E-2,-7.4052643E-3,1.3685325E-2,-3.9179805E-3],"split_indices":[0,6,2,2,16,6,1,0,0,0,0,0,0,0,0],"split_type":[0,0,0,0,0,0,0,0,0,0,0,0,0,0,0],"sum_hessian":[9.506675E3,6.6520205E3,2.8546548E3,4.6240566E3,2.0279636E3,1.9439602E3,9.1069464E2,2.0996394E3,2.5244172E3,1.5904603E3,4.3750336E2,4.8880637E2,1.4551538E3,1.3804617E2,7.7264844E2],"tree_param":{"num_deleted":"0","num_feature":"30","num_nodes":"15","size_leaf_vector":"1"}},{"base_weights":[1.098293E-3,9.1980144E-2,-2.7166447E-1,2.7160075E-1,-1.606151E-2,-1.8504854E-1,-5.689759E-1,1.6045523E-3,1.0530875E-2,-5.1310332E-3,2.9849913E-3,-1.0354129E-3,-9.874118E-3,-3.227371E-3,-1.8090779E-2],"categories":[],"categories_nodes":[],"categories_segments":[],"categories_sizes":[],"default_left":[0,0,0,0,0,0,0,0,0,0,0,0,0,0,0],"id":71,"left_children":[1,3,5,7,9,11,13,-1,-1,-1,-1,-1,-1,-1,-1],"loss_changes":[2.3478146E2,1.3787009E2,6.084999E1,5.589691E1,8.761887E1,4.3886093E1,1.5676804E1,0E0,0E0,0E0,0E0,0E0,0E0,0E0,0E0],"parents":[2147483647,0,0,1,1,2,2,3,3,4,4,5,5,6,6],"right_children":[2,4,6,8,10,12,14,-1,-1,-1,-1,-1,-1,-1,-1],"split_conditions":[5.3E1,3.9E1,8.9E1,9.1227E4,1.20529E5,1E0,2.6275E4,1.6045523E-3,1.0530875E-2,-5.1310332E-3,2.9849913E-3,-1.0354129E-3,-9.874118E-3,-3.227371E-3,-1.8090779E-2],"split_indices":[0,4,4,2,2,11,1,0,0,0,0,0,0,0,0],"split_type":[0,0,0,0,0,0,0,0,0,0,0,0,0,0,0],"sum_hessian":[9.469117E3,7.103098E3,2.3660193E3,2.6672493E3,4.435849E3,1.8334899E3,5.3252936E2,8.304222E2,1.8368271E3,1.881852E3,2.553997E3,9.530983E2,8.8039154E2,6.655946E1,4.659699E2],"tree_param":{"num_deleted":"0","num_feature":"30","num_nodes":"15","size_leaf_vector":"1"}},{"base_weights":[9.234717E-3,2.5745E-1,-8.5416034E-2,1.23782955E-1,4.1878745E-1,1.23878084E-1,-1.9192186E-1,5.9788236E-3,-6.0296427E-3,1.6622018E-2,8.929442E-3,-3.628988E-3,6.3387305E-3,-8.250585E-3,5.854157E-4],"categories":[],"categories_nodes":[],"categories_segments":[],"categories_sizes":[],"default_left":[0,0,0,0,0,0,0,0,0,0,0,0,0,0,0],"id":72,"left_children":[1,3,5,7,9,11,13,-1,-1,-1,-1,-1,-1,-1,-1],"loss_changes":[2.2293076E2,5.64386E1,1.5315242E2,4.11923E1,2.037619E1,5.7129147E1,9.391791E1,0E0,0E0,0E0,0E0,0E0,0E0,0E0,0E0],"parents":[2147483647,0,0,1,1,2,2,3,3,4,4,5,5,6,6],"right_children":[2,4,6,8,10,12,14,-1,-1,-1,-1,-1,-1,-1,-1],"split_conditions":[2.9E1,1.49461E5,3.5E1,9.1E1,4.1E1,8.3311E4,1.82785E5,5.9788236E-3,-6.0296427E-3,1.6622018E-2,8.929442E-3,-3.628988E-3,6.3387305E-3,-8.250585E-3,5.854157E-4],"split_indices":[0,2,4,4,4,2,2,0,0,0,0,0,0,0,0],"split_type":[0,0,0,0,0,0,0,0,0,0,0,0,0,0,0],"sum_hessian":[9.486997E3,2.6184822E3,6.8685146E3,1.4330098E3,1.1854723E3,2.3164014E3,4.5521133E3,1.141516E3,2.914938E2,4.645104E2,7.209619E2,6.511629E2,1.6652385E3,3.1239026E3,1.4282107E3],"tree_param":{"num_deleted":"0","num_feature":"30","num_nodes":"15","size_leaf_vector":"1"}},{"base_weights":[-6.632744E-4,1.3676028E-1,-1.7058568E-1,-2.2504807E-1,1.9722214E-1,-3.8512802E-1,-6.647632E-2,-1.4847949E-2,-3.762776E-3,1.5430682E-2,4.090202E-3,-6.8190102E-3,-1.5487883E-2,1.5306134E-2,-3.30391E-3],"categories":[],"categories_nodes":[],"categories_segments":[],"categories_sizes":[],"default_left":[0,0,0,0,0,0,0,0,0,0,0,0,0,0,0],"id":73,"left_children":[1,3,5,7,9,11,13,-1,-1,-1,-1,-1,-1,-1,-1],"loss_changes":[2.2138179E2,1.1470483E2,9.465614E1,2.0591938E1,8.310208E1,3.175119E1,8.482329E1,0E0,0E0,0E0,0E0,0E0,0E0,0E0,0E0],"parents":[2147483647,0,0,1,1,2,2,3,3,4,4,5,5,6,6],"right_children":[2,4,6,8,10,12,14,-1,-1,-1,-1,-1,-1,-1,-1],"split_conditions":[4.2E1,6.17E0,9.5093E4,3.07E0,2.9434E4,1E0,2.0875E4,-1.4847949E-2,-3.762776E-3,1.5430682E-2,4.090202E-3,-6.8190102E-3,-1.5487883E-2,1.5306134E-2,-3.30391E-3],"split_indices":[0,6,2,6,1,11,1,0,0,0,0,0,0,0,0],"split_type":[0,0,0,0,0,0,0,0,0,0,0,0,0,0,0],"sum_hessian":[9.478475E3,5.2404736E3,4.238001E3,7.499564E2,4.490517E3,1.3837509E3,2.8542502E3,1.7897383E2,5.7098254E2,6.085346E2,3.8819827E3,7.185901E2,6.651607E2,2.1492542E2,2.639325E3],"tree_param":{"num_deleted":"0","num_feature":"30","num_nodes":"15","size_leaf_vector":"1"}},{"base_weights":[-1.7386635E-3,-2.8196266E-1,6.970535E-2,-3.7003455E-1,-9.055943E-2,-1.2675808E-1,1.5895803E-1,-6.5905997E-3,-1.48740355E-2,8.45859E-3,-8.480931E-3,6.164124E-4,-8.164018E-3,1.01635745E-2,7.774812E-4],"categories":[],"categories_nodes":[],"categories_segments":[],"categories_sizes":[],"default_left":[0,0,0,0,0,0,0,0,0,0,0,0,0,0,0],"id":74,"left_children":[1,3,5,7,9,11,13,-1,-1,-1,-1,-1,-1,-1,-1],"loss_changes":[1.8987218E2,3.2445984E1,1.3253566E2,2.76026E1,4.870601E1,5.5783672E1,1.3489656E2,0E0,0E0,0E0,0E0,0E0,0E0,0E0,0E0],"parents":[2147483647,0,0,1,1,2,2,3,3,4,4,5,5,6,6],"right_children":[2,4,6,8,10,12,14,-1,-1,-1,-1,-1,-1,-1,-1],"split_conditions":[7.86E0,1.82785E5,9.1227E4,1E0,4.9197E4,1E0,6.0528E4,-6.5905997E-3,-1.48740355E-2,8.45859E-3,-8.480931E-3,6.164124E-4,-8.164018E-3,1.01635745E-2,7.774812E-4],"split_indices":[6,2,2,10,1,10,1,0,0,0,0,0,0,0,0],"split_type":[0,0,0,0,0,0,0,0,0,0,0,0,0,0,0],"sum_hessian":[9.481987E3,1.9257388E3,7.556248E3,1.3182354E3,6.075034E2,2.3603076E3,5.1959404E3,6.873175E2,6.3091785E2,2.1128769E2,3.9621576E2,1.222331E3,1.1379766E3,2.0809387E3,3.115002E3],"tree_param":{"num_deleted":"0","num_feature":"30","num_nodes":"15","size_leaf_vector":"1"}},{"base_weights":[-3.8440584E-3,1.9640048E-1,-1.0747677E-1,-1.5036237E-1,2.5266212E-1,-2.2859901E-1,5.7444487E-2,7.9537474E-4,-1.0077887E-2,4.756674E-3,1.3097921E-2,-2.7737808E-3,-1.054164E-2,8.160264E-3,-1.1596974E-3],"categories":[],"categories_nodes":[],"categories_segments":[],"categories_sizes":[],"default_left":[0,0,0,0,0,0,0,0,0,0,0,0,0,0,0],"id":75,"left_children":[1,3,5,7,9,11,13,-1,-1,-1,-1,-1,-1,-1,-1],"loss_changes":[1.9672627E2,6.311187E1,1.24799225E2,1.6334127E1,4.9268555E1,6.656105E1,5.928115E1,0E0,0E0,0E0,0E0,0E0,0E0,0E0,0E0],"parents":[2147483647,0,0,1,1,2,2,3,3,4,4,5,5,6,6],"right_children":[2,4,6,8,10,12,14,-1,-1,-1,-1,-1,-1,-1,-1],"split_conditions":[3.2E1,6.06E0,1.687E1,1E0,1.86215E5,1E0,4.8654E4,7.9537474E-4,-1.0077887E-2,4.756674E-3,1.3097921E-2,-2.7737808E-3,-1.054164E-2,8.160264E-3,-1.1596974E-3],"split_indices":[0,6,6,10,2,11,1,0,0,0,0,0,0,0,0],"split_type":[0,0,0,0,0,0,0,0,0,0,0,0,0,0,0],"sum_hessian":[9.477906E3,3.2319905E3,6.2459155E3,4.5094785E2,2.7810425E3,3.6009229E3,2.6449927E3,2.4040106E2,2.105468E2,1.9634409E3,8.176016E2,1.8624744E3,1.7384484E3,7.9393823E2,1.8510544E3],"tree_param":{"num_deleted":"0","num_feature":"30","num_nodes":"15","size_leaf_vector":"1"}},{"base_weights":[-2.3284222E-3,6.567598E-2,-3.0426615E-1,-2.718503E-1,1.2374246E-1,-5.7837304E-2,-3.9918235E-1,-1.112045E-3,-1.0661213E-2,7.254527E-3,-4.8542206E-4,-9.385128E-3,4.1090706E-3,-1.4536985E-2,-6.186639E-3],"categories":[],"categories_nodes":[],"categories_segments":[],"categories_sizes":[],"default_left":[0,0,0,0,0,0,0,0,0,0,0,0,0,0,0],"id":76,"left_children":[1,3,5,7,9,11,13,-1,-1,-1,-1,-1,-1,-1,-1],"loss_changes":[1.9407265E2,1.512254E2,4.061606E1,2.6789116E1,1.2080212E2,2.6521856E1,2.507277E1,0E0,0E0,0E0,0E0,0E0,0E0,0E0,0E0],"parents":[2147483647,0,0,1,1,2,2,3,3,4,4,5,5,6,6],"right_children":[2,4,6,8,10,12,14,-1,-1,-1,-1,-1,-1,-1,-1],"split_conditions":[5.7E1,6.28E0,2.9E1,3.1E1,5.6E1,1.401E1,1.67509E5,-1.112045E-3,-1.0661213E-2,7.254527E-3,-4.8542206E-4,-9.385128E-3,4.1090706E-3,-1.4536985E-2,-6.186639E-3],"split_indices":[0,6,4,4,4,6,2,0,0,0,0,0,0,0,0],"split_type":[0,0,0,0,0,0,0,0,0,0,0,0,0,0,0],"sum_hessian":[9.449726E3,7.713274E3,1.7364517E3,1.1316407E3,6.581633E3,4.832943E2,1.2531573E3,3.4417215E2,7.874686E2,3.4161875E3,3.1654456E3,2.0603111E2,2.772632E2,7.8058527E2,4.7257208E2],"tree_param":{"num_deleted":"0","num_feature":"30","num_nodes":"15","size_leaf_vector":"1"}},{"base_weights":[4.3453067E-3,-2.312905E-1,7.98132E-2,-3.6755806E-1,-7.0350796E-2,2.6116744E-1,-1.4508168E-2,-7.142344E-3,-1.627446E-2,4.2969473E-3,-8.1461E-3,1.1243654E-2,3.1736759E-3,6.5484615E-3,-2.2599578E-3],"categories":[],"categories_nodes":[],"categories_segments":[],"categories_sizes":[],"default_left":[0,0,0,0,0,0,0,0,0,0,0,0,0,0,0],"id":77,"left_children":[1,3,5,7,9,11,13,-1,-1,-1,-1,-1,-1,-1,-1],"loss_changes":[1.6782939E2,5.0182762E1,1.2227825E2,2.9320023E1,4.9949776E1,4.8636505E1,7.419171E1,0E0,0E0,0E0,0E0,0E0,0E0,0E0,0E0],"parents":[2147483647,0,0,1,1,2,2,3,3,4,4,5,5,6,6],"right_children":[2,4,6,8,10,12,14,-1,-1,-1,-1,-1,-1,-1,-1],"split_conditions":[8.87E0,1.49461E5,3.5E1,7E1,7.0743E4,1E0,3.7135E4,-7.142344E-3,-1.627446E-2,4.2969473E-3,-8.1461E-3,1.1243654E-2,3.1736759E-3,6.5484615E-3,-2.2599578E-3],"split_indices":[6,2,4,4,1,11,1,0,0,0,0,0,0,0,0],"split_type":[0,0,0,0,0,0,0,0,0,0,0,0,0,0,0],"sum_hessian":[9.435626E3,2.288404E3,7.1472217E3,1.2384907E3,1.0499133E3,2.4447898E3,4.702432E3,7.855345E2,4.5295627E2,5.180397E2,5.318736E2,1.2963268E3,1.148463E3,9.848546E2,3.7175774E3],"tree_param":{"num_deleted":"0","num_feature":"30","num_nodes":"15","size_leaf_vector":"1"}},{"base_weights":[5.143358E-4,2.436328E-1,-8.1385076E-2,3.1379828E-1,-5.2106E-2,-1.2376653E-2,-3.315849E-1,1.1627712E-2,2.93913E-3,3.4074641E-3,-6.6297427E-3,-2.9086103E-3,5.098366E-3,-5.3525516E-3,-1.3837799E-2],"categories":[],"categories_nodes":[],"categories_segments":[],"categories_sizes":[],"default_left":[0,0,0,0,0,0,0,0,0,0,0,0,0,0,0],"id":78,"left_children":[1,3,5,7,9,11,13,-1,-1,-1,-1,-1,-1,-1,-1],"loss_changes":[1.8780426E2,4.93351E1,1.2181259E2,3.783806E1,1.4131416E1,9.4568245E1,3.35663E1,0E0,0E0,0E0,0E0,0E0,0E0,0E0,0E0],"parents":[2147483647,0,0,1,1,2,2,3,3,4,4,5,5,6,6],"right_children":[2,4,6,8,10,12,14,-1,-1,-1,-1,-1,-1,-1,-1],"split_conditions":[2.8E1,9.3E1,9E1,1E0,1E0,1.81879E5,1E0,1.1627712E-2,2.93913E-3,3.4074641E-3,-6.6297427E-3,-2.9086103E-3,5.098366E-3,-5.3525516E-3,-1.3837799E-2],"split_indices":[0,4,4,21,10,2,10,0,0,0,0,0,0,0,0],"split_type":[0,0,0,0,0,0,0,0,0,0,0,0,0,0,0],"sum_hessian":[9.430068E3,2.375732E3,7.0543364E3,1.9201143E3,4.5561768E2,5.530109E3,1.5242278E3,1.3294834E3,5.906309E2,2.3359532E2,2.2202235E2,3.765584E3,1.7645248E3,7.8650653E2,7.377212E2],"tree_param":{"num_deleted":"0","num_feature":"30","num_nodes":"15","size_leaf_vector":"1"}},{"base_weights":[-3.0761075E-3,6.405661E-2,-3.0238035E-1,-1.4068525E-1,1.5052888E-1,-4.535709E-1,-1.8075536E-1,4.819816E-3,-5.9674075E-3,9.363352E-3,1.8638513E-3,-8.184515E-3,